
    <?xml version="1.0"?>
    <MethodSetup Method="BDT::bdt">
    <GeneralInfo>
    <Info name="TMVA Release" value="4.2.0 [262656]"/>
    <Info name="ROOT Release" value="6.02/05 [393733]"/>
    <Info name="Creator" value="joosep"/>
    <Info name="Date" value="Sun May 31 01:31:49 2015"/>
    <Info name="Host" value="Linux cmsbuild13.cern.ch 2.6.32-504.8.1.el6.x86_64 #1 SMP Wed Jan 28 08:50:46 CET 2015 x86_64 x86_64 x86_64 GNU/Linux"/>
    <Info name="Dir" value="/home/joosep/btv/CMSSW_7_4_0/src/RecoBTag/CMSCSTagger"/>
    <Info name="Training events" value="1692351"/>
    <Info name="TrainingTime" value="7.82964582e+03"/>
    <Info name="AnalysisType" value="Classification"/>
    </GeneralInfo>
    <Options>
    <Option name="V" modified="Yes">False</Option>
    <Option name="VerbosityLevel" modified="Yes">Fatal</Option>
    <Option name="VarTransform" modified="No">None</Option>
    <Option name="H" modified="Yes">False</Option>
    <Option name="CreateMVAPdfs" modified="No">False</Option>
    <Option name="IgnoreNegWeightsInTraining" modified="No">False</Option>
    <Option name="NTrees" modified="Yes">800</Option>
    <Option name="MaxDepth" modified="Yes">3</Option>
    <Option name="MinNodeSize" modified="No">5%</Option>
    <Option name="nCuts" modified="Yes">50</Option>
    <Option name="BoostType" modified="Yes">Grad</Option>
    <Option name="AdaBoostR2Loss" modified="No">quadratic</Option>
    <Option name="UseBaggedBoost" modified="Yes">False</Option>
    <Option name="Shrinkage" modified="Yes">0.02</Option>
    <Option name="AdaBoostBeta" modified="No">5.000000e-01</Option>
    <Option name="UseRandomisedTrees" modified="No">False</Option>
    <Option name="UseNvars" modified="Yes">sqrt</Option>
    <Option name="UsePoissonNvars" modified="No">True</Option>
    <Option name="BaggedSampleFraction" modified="No">6.000000e-01</Option>
    <Option name="UseYesNoLeaf" modified="No">False</Option>
    <Option name="NegWeightTreatment" modified="No">ignorenegweightsintraining</Option>
    <Option name="Css" modified="No">1.000000e+00</Option>
    <Option name="Cts_sb" modified="No">1.000000e+00</Option>
    <Option name="Ctb_ss" modified="No">1.000000e+00</Option>
    <Option name="Cbb" modified="No">1.000000e+00</Option>
    <Option name="NodePurityLimit" modified="No">5.000000e-01</Option>
    <Option name="SeparationType" modified="No">giniindex</Option>
    <Option name="DoBoostMonitor" modified="Yes">False</Option>
    <Option name="UseFisherCuts" modified="No">False</Option>
    <Option name="MinLinCorrForFisher" modified="No">8.000000e-01</Option>
    <Option name="UseExclusiveVars" modified="No">False</Option>
    <Option name="DoPreselection" modified="No">False</Option>
    <Option name="SigToBkgFraction" modified="No">1.000000e+00</Option>
    <Option name="PruneMethod" modified="No">nopruning</Option>
    <Option name="PruneStrength" modified="No">0.000000e+00</Option>
    <Option name="PruningValFraction" modified="No">5.000000e-01</Option>
    <Option name="nEventsMin" modified="No">0</Option>
    <Option name="UseBaggedGrad" modified="No">False</Option>
    <Option name="GradBaggingFraction" modified="No">6.000000e-01</Option>
    <Option name="UseNTrainEvents" modified="No">0</Option>
    <Option name="NNodesMax" modified="No">0</Option>
    </Options>
    <Variables NVar="8">
    <Variable VarIndex="0" Expression="ht" Label="ht" Title="ht" Unit="" Internal="ht" Type="F" Min="1.6416831970214844E+02" Max="3.7046047363281250E+03"/>
<Variable VarIndex="1" Expression="tt_deltaR" Label="tt_deltaR" Title="tt_deltaR" Unit="" Internal="tt_deltaR" Type="F" Min="1.4677509665489197E-01" Max="5.3840661048889160E+00"/>
<Variable VarIndex="2" Expression="tt_visiblemass" Label="tt_visiblemass" Title="tt_visiblemass" Unit="" Internal="tt_visiblemass" Type="F" Min="4.5361375808715820E+00" Max="7.4031713867187500E+02"/>
<Variable VarIndex="3" Expression="tau1_pt" Label="tau1_pt" Title="tau1_pt" Unit="" Internal="tau1_pt" Type="F" Min="3.0000242233276367E+01" Max="6.3528393554687500E+02"/>
<Variable VarIndex="4" Expression="tau2_pt" Label="tau2_pt" Title="tau2_pt" Unit="" Internal="tau2_pt" Type="F" Min="2.0000316619873047E+01" Max="2.6896057128906250E+02"/>
<Variable VarIndex="5" Expression="jet_deltaRavg" Label="jet_deltaRavg" Title="jet_deltaRavg" Unit="" Internal="jet_deltaRavg" Type="F" Min="4.9524673819541931E-01" Max="4.2089819908142090E+00"/>
<Variable VarIndex="6" Expression="njets_inclusive" Label="njets_inclusive" Title="njets_inclusive" Unit="" Internal="njets_inclusive" Type="F" Min="3.0000000000000000E+00" Max="1.3000000000000000E+01"/>
<Variable VarIndex="7" Expression="ntags_loose" Label="ntags_loose" Title="ntags_loose" Unit="" Internal="ntags_loose" Type="F" Min="1.0000000000000000E+00" Max="6.0000000000000000E+00"/>

    </Variables>
    <Classes NClass="2">
    <Class Name="Signal" Index="0"/>
    <Class Name="Background" Index="1"/>
    </Classes>
    <Transformations NTransformations="0"/>
    <MVAPdfs/>
    <Weights NTrees="800" AnalysisType="1">
    <BinaryTree type="DecisionTree" boostWeight="1.0" itree="0">
<Node pos="s" depth="0" NCoef="0" IVar="4" Cut="3.1402902603149414E+01" cType="1" res="2.4721854402840553E-18" rms="0.0" purity="0.165895762029" nType="0">
  <Node pos="l" depth="1" NCoef="0" IVar="0" Cut="3.4927496337890625E+02" cType="1" res="-4.0022805114137366E-04" rms="0.0" purity="0.216408505216" nType="0">
    <Node pos="l" depth="2" NCoef="0" IVar="3" Cut="4.0464202880859375E+01" cType="1" res="-1.2383955827806200E-03" rms="0.0" purity="0.248381425175" nType="0">
      <Node pos="l" depth="3" NCoef="0" IVar="-1" Cut="0.0000000000000000E+00" cType="1" res="-9.6605681935885927E-03" rms="0.0e-00" purity="0.231130770929" nType="-99">
      </Node>
      <Node pos="r" depth="3" NCoef="0" IVar="-1" Cut="0.0000000000000000E+00" cType="1" res="-5.5491280612130255E-03" rms="0.0e-00" purity="0.248017956018" nType="-99">
      </Node>
    </Node>
    <Node pos="r" depth="2" NCoef="0" IVar="5" Cut="2.4002838134765625E+00" cType="1" res="-1.4418314008713629E-04" rms="0.0" purity="0.186718336474" nType="0">
      <Node pos="l" depth="3" NCoef="0" IVar="-1" Cut="0.0000000000000000E+00" cType="1" res="2.1665133038963692E-04" rms="0.0e-00" purity="0.160244803244" nType="-99">
      </Node>
      <Node pos="r" depth="3" NCoef="0" IVar="-1" Cut="0.0000000000000000E+00" cType="1" res="-3.4879970345696705E-03" rms="0.0e-00" purity="0.23158489668" nType="-99">
      </Node>
    </Node>
  </Node>
  <Node pos="r" depth="1" NCoef="0" IVar="6" Cut="3.5000000000000000E+00" cType="1" res="4.1374545725282125E-04" rms="0.0" purity="0.0897283418373" nType="0">
    <Node pos="l" depth="2" NCoef="0" IVar="3" Cut="4.8735080718994141E+01" cType="1" res="1.5857217599758288E-04" rms="0.0" purity="0.139581215707" nType="0">
      <Node pos="l" depth="3" NCoef="0" IVar="-1" Cut="0.0000000000000000E+00" cType="1" res="-2.5658908292727741E-03" rms="0.0e-00" purity="0.218849445702" nType="-99">
      </Node>
      <Node pos="r" depth="3" NCoef="0" IVar="-1" Cut="0.0000000000000000E+00" cType="1" res="1.8669492818174293E-03" rms="0.0e-00" purity="0.111169960537" nType="-99">
      </Node>
    </Node>
    <Node pos="r" depth="2" NCoef="0" IVar="1" Cut="2.7914059162139893E+00" cType="1" res="5.4074366593052871E-04" rms="0.0" purity="0.0614654815841" nType="0">
      <Node pos="l" depth="3" NCoef="0" IVar="-1" Cut="0.0000000000000000E+00" cType="1" res="3.5733207885398164E-03" rms="0.0e-00" purity="0.0492180582306" nType="-99">
      </Node>
      <Node pos="r" depth="3" NCoef="0" IVar="-1" Cut="0.0000000000000000E+00" cType="1" res="6.7845498601534391E-04" rms="0.0e-00" purity="0.147586310841" nType="-99">
      </Node>
    </Node>
  </Node>
</Node>
</BinaryTree>
<BinaryTree type="DecisionTree" boostWeight="1.0" itree="1">
<Node pos="s" depth="0" NCoef="0" IVar="3" Cut="4.5655441284179688E+01" cType="1" res="6.6490391231696900E-08" rms="0.0" purity="0.164885407511" nType="0">
  <Node pos="l" depth="1" NCoef="0" IVar="4" Cut="2.6324005126953125E+01" cType="1" res="-6.8561063812782111E-04" rms="0.0" purity="0.237793328758" nType="0">
    <Node pos="l" depth="2" NCoef="0" IVar="0" Cut="4.0901443481445312E+02" cType="1" res="-1.1034689171343904E-03" rms="0.0" purity="0.248954925493" nType="0">
      <Node pos="l" depth="3" NCoef="0" IVar="-1" Cut="0.0000000000000000E+00" cType="1" res="-8.7832801006628800E-03" rms="0.0e-00" purity="0.236922700818" nType="-99">
      </Node>
      <Node pos="r" depth="3" NCoef="0" IVar="-1" Cut="0.0000000000000000E+00" cType="1" res="-3.8987420372208949E-03" rms="0.0e-00" purity="0.236206013509" nType="-99">
      </Node>
    </Node>
    <Node pos="r" depth="2" NCoef="0" IVar="5" Cut="2.4078664779663086E+00" cType="1" res="-3.2112592716812132E-04" rms="0.0" purity="0.207779937212" nType="0">
      <Node pos="l" depth="3" NCoef="0" IVar="-1" Cut="0.0000000000000000E+00" cType="1" res="-6.6508937057756365E-04" rms="0.0e-00" purity="0.181721500841" nType="-99">
      </Node>
      <Node pos="r" depth="3" NCoef="0" IVar="-1" Cut="0.0000000000000000E+00" cType="1" res="-4.7198987141740039E-03" rms="0.0e-00" purity="0.243155765777" nType="-99">
      </Node>
    </Node>
  </Node>
  <Node pos="r" depth="1" NCoef="0" IVar="1" Cut="3.1702518463134766E+00" cType="1" res="2.5493249648231634E-04" rms="0.0" purity="0.120739332346" nType="0">
    <Node pos="l" depth="2" NCoef="0" IVar="7" Cut="1.5000000000000000E+00" cType="1" res="3.0636443188578175E-04" rms="0.0" purity="0.110701882365" nType="0">
      <Node pos="l" depth="3" NCoef="0" IVar="-1" Cut="0.0000000000000000E+00" cType="1" res="4.7374887473100834E-07" rms="0.0e-00" purity="0.164892833274" nType="-99">
      </Node>
      <Node pos="r" depth="3" NCoef="0" IVar="-1" Cut="0.0000000000000000E+00" cType="1" res="2.6872321714493941E-03" rms="0.0e-00" purity="0.0819738483177" nType="-99">
      </Node>
    </Node>
    <Node pos="r" depth="2" NCoef="0" IVar="-1" Cut="0.0000000000000000E+00" cType="1" res="-6.1373105783765133E-03" rms="0.0e-00" purity="0.249312113021" nType="-99">
    </Node>
  </Node>
</Node>
</BinaryTree>
<BinaryTree type="DecisionTree" boostWeight="1.0" itree="2">
<Node pos="s" depth="0" NCoef="0" IVar="7" Cut="1.5000000000000000E+00" cType="1" res="1.2550253778726813E-07" rms="0.0" purity="0.163950009131" nType="0">
  <Node pos="l" depth="1" NCoef="0" IVar="6" Cut="3.5000000000000000E+00" cType="1" res="-3.8212526985935392E-04" rms="0.0" purity="0.213219651434" nType="0">
    <Node pos="l" depth="2" NCoef="0" IVar="0" Cut="3.5308935546875000E+02" cType="1" res="-7.6787996506084955E-04" rms="0.0" purity="0.241037285909" nType="0">
      <Node pos="l" depth="3" NCoef="0" IVar="-1" Cut="0.0000000000000000E+00" cType="1" res="-8.1839713693137098E-03" rms="0.0e-00" purity="0.240288773984" nType="-99">
      </Node>
      <Node pos="r" depth="3" NCoef="0" IVar="-1" Cut="0.0000000000000000E+00" cType="1" res="-2.1473975385121655E-03" rms="0.0e-00" purity="0.211299938869" nType="-99">
      </Node>
    </Node>
    <Node pos="r" depth="2" NCoef="0" IVar="2" Cut="5.7763542175292969E+01" cType="1" res="-1.6656693152859496E-05" rms="0.0" purity="0.167341445482" nType="0">
      <Node pos="l" depth="3" NCoef="0" IVar="-1" Cut="0.0000000000000000E+00" cType="1" res="-3.7995438270668450E-03" rms="0.0e-00" purity="0.234392887219" nType="-99">
      </Node>
      <Node pos="r" depth="3" NCoef="0" IVar="-1" Cut="0.0000000000000000E+00" cType="1" res="8.4224439800068625E-04" rms="0.0e-00" purity="0.141794160509" nType="-99">
      </Node>
    </Node>
  </Node>
  <Node pos="r" depth="1" NCoef="0" IVar="3" Cut="4.5493217468261719E+01" cType="1" res="1.8386016262108206E-04" rms="0.0" purity="0.132872878997" nType="0">
    <Node pos="l" depth="2" NCoef="0" IVar="6" Cut="3.5000000000000000E+00" cType="1" res="-4.0415070909559093E-04" rms="0.0" purity="0.216956296423" nType="0">
      <Node pos="l" depth="3" NCoef="0" IVar="-1" Cut="0.0000000000000000E+00" cType="1" res="-5.1007593640377867E-03" rms="0.0e-00" purity="0.245782495004" nType="-99">
      </Node>
      <Node pos="r" depth="3" NCoef="0" IVar="-1" Cut="0.0000000000000000E+00" cType="1" res="-8.8555248935390869E-04" rms="0.0e-00" purity="0.188073868571" nType="-99">
      </Node>
    </Node>
    <Node pos="r" depth="2" NCoef="0" IVar="2" Cut="1.2805822753906250E+02" cType="1" res="3.8353474301521440E-04" rms="0.0" purity="0.0931357300012" nType="0">
      <Node pos="l" depth="3" NCoef="0" IVar="-1" Cut="0.0000000000000000E+00" cType="1" res="2.7362776868723191E-03" rms="0.0e-00" purity="0.0791222326532" nType="-99">
      </Node>
      <Node pos="r" depth="3" NCoef="0" IVar="-1" Cut="0.0000000000000000E+00" cType="1" res="-4.0273655047059279E-03" rms="0.0e-00" purity="0.235133867121" nType="-99">
      </Node>
    </Node>
  </Node>
</Node>
</BinaryTree>
<BinaryTree type="DecisionTree" boostWeight="1.0" itree="3">
<Node pos="s" depth="0" NCoef="0" IVar="0" Cut="3.6161947631835938E+02" cType="1" res="1.7889514226082193E-07" rms="0.0" purity="0.163076304755" nType="0">
  <Node pos="l" depth="1" NCoef="0" IVar="4" Cut="3.0837198257446289E+01" cType="1" res="-8.3372263112096187E-04" rms="0.0" purity="0.242981780087" nType="0">
    <Node pos="l" depth="2" NCoef="0" IVar="4" Cut="2.6190509796142578E+01" cType="1" res="-1.1322695157206986E-03" rms="0.0" purity="0.246852725378" nType="0">
      <Node pos="l" depth="3" NCoef="0" IVar="-1" Cut="0.0000000000000000E+00" cType="1" res="-7.5082713736509526E-03" rms="0.0e-00" purity="0.242568953645" nType="-99">
      </Node>
      <Node pos="r" depth="3" NCoef="0" IVar="-1" Cut="0.0000000000000000E+00" cType="1" res="-4.7265080343005684E-03" rms="0.0e-00" purity="0.243595488833" nType="-99">
      </Node>
    </Node>
    <Node pos="r" depth="2" NCoef="0" IVar="3" Cut="4.8962074279785156E+01" cType="1" res="-2.2981631411871469E-04" rms="0.0" purity="0.19639620264" nType="0">
      <Node pos="l" depth="3" NCoef="0" IVar="-1" Cut="0.0000000000000000E+00" cType="1" res="-2.9676528964619228E-03" rms="0.0e-00" purity="0.225586892599" nType="-99">
      </Node>
      <Node pos="r" depth="3" NCoef="0" IVar="-1" Cut="0.0000000000000000E+00" cType="1" res="-7.9779386520275540E-05" rms="0.0e-00" purity="0.165638625423" nType="-99">
      </Node>
    </Node>
  </Node>
  <Node pos="r" depth="1" NCoef="0" IVar="1" Cut="3.2040085792541504E+00" cType="1" res="2.0352900020640722E-04" rms="0.0" purity="0.128591918914" nType="0">
    <Node pos="l" depth="2" NCoef="0" IVar="4" Cut="3.1704570770263672E+01" cType="1" res="2.5289656830511885E-04" rms="0.0" purity="0.119271733437" nType="0">
      <Node pos="l" depth="3" NCoef="0" IVar="-1" Cut="0.0000000000000000E+00" cType="1" res="-3.2960475082439397E-04" rms="0.0e-00" purity="0.173019454964" nType="-99">
      </Node>
      <Node pos="r" depth="3" NCoef="0" IVar="-1" Cut="0.0000000000000000E+00" cType="1" res="3.1915583421748971E-03" rms="0.0e-00" purity="0.0615832789744" nType="-99">
      </Node>
    </Node>
    <Node pos="r" depth="2" NCoef="0" IVar="-1" Cut="0.0000000000000000E+00" cType="1" res="-6.1640894487731759E-03" rms="0.0e-00" purity="0.249065656079" nType="-99">
    </Node>
  </Node>
</Node>
</BinaryTree>
<BinaryTree type="DecisionTree" boostWeight="1.0" itree="4">
<Node pos="s" depth="0" NCoef="0" IVar="0" Cut="3.5318041992187500E+02" cType="1" res="2.3422476060004235E-07" rms="0.0" purity="0.162139365894" nType="0">
  <Node pos="l" depth="1" NCoef="0" IVar="5" Cut="2.7566006183624268E+00" cType="1" res="-8.6935450752198508E-04" rms="0.0" purity="0.243838954566" nType="0">
    <Node pos="l" depth="2" NCoef="0" IVar="4" Cut="3.0635128021240234E+01" cType="1" res="-7.6051977184808293E-04" rms="0.0" purity="0.240552894243" nType="0">
      <Node pos="l" depth="3" NCoef="0" IVar="-1" Cut="0.0000000000000000E+00" cType="1" res="-5.9932391067530249E-03" rms="0.0e-00" purity="0.247362348974" nType="-99">
      </Node>
      <Node pos="r" depth="3" NCoef="0" IVar="-1" Cut="0.0000000000000000E+00" cType="1" res="-1.0206621651731619E-03" rms="0.0e-00" purity="0.189918575071" nType="-99">
      </Node>
    </Node>
    <Node pos="r" depth="2" NCoef="0" IVar="-1" Cut="0.0000000000000000E+00" cType="1" res="-8.7820336989319486E-03" rms="0.0e-00" purity="0.227060693002" nType="-99">
    </Node>
  </Node>
  <Node pos="r" depth="1" NCoef="0" IVar="3" Cut="4.6878177642822266E+01" cType="1" res="1.8752373857307476E-04" rms="0.0" purity="0.130467253363" nType="0">
    <Node pos="l" depth="2" NCoef="0" IVar="3" Cut="3.5859207153320312E+01" cType="1" res="-3.4049272639875752E-04" rms="0.0" purity="0.210327933329" nType="0">
      <Node pos="l" depth="3" NCoef="0" IVar="-1" Cut="0.0000000000000000E+00" cType="1" res="-3.9883614977331604E-03" rms="0.0e-00" purity="0.238090382966" nType="-99">
      </Node>
      <Node pos="r" depth="3" NCoef="0" IVar="-1" Cut="0.0000000000000000E+00" cType="1" res="-1.0698954037712373E-03" rms="0.0e-00" purity="0.191317579707" nType="-99">
      </Node>
    </Node>
    <Node pos="r" depth="2" NCoef="0" IVar="5" Cut="2.7277359962463379E+00" cType="1" res="3.5055563342327825E-04" rms="0.0" purity="0.0977976525661" nType="0">
      <Node pos="l" depth="3" NCoef="0" IVar="-1" Cut="0.0000000000000000E+00" cType="1" res="2.4330007461788525E-03" rms="0.0e-00" purity="0.0882427720922" nType="-99">
      </Node>
      <Node pos="r" depth="3" NCoef="0" IVar="-1" Cut="0.0000000000000000E+00" cType="1" res="-8.7523121654627047E-04" rms="0.0e-00" purity="0.183236521276" nType="-99">
      </Node>
    </Node>
  </Node>
</Node>
</BinaryTree>
<BinaryTree type="DecisionTree" boostWeight="1.0" itree="5">
<Node pos="s" depth="0" NCoef="0" IVar="3" Cut="4.6866130828857422E+01" cType="1" res="2.8165120896515611E-07" rms="0.0" purity="0.161291191206" nType="0">
  <Node pos="l" depth="1" NCoef="0" IVar="6" Cut="3.5000000000000000E+00" cType="1" res="-6.1189574360424979E-04" rms="0.0" purity="0.232592320766" nType="0">
    <Node pos="l" depth="2" NCoef="0" IVar="4" Cut="2.6358001708984375E+01" cType="1" res="-1.0989960556970963E-03" rms="0.0" purity="0.245771143345" nType="0">
      <Node pos="l" depth="3" NCoef="0" IVar="-1" Cut="0.0000000000000000E+00" cType="1" res="-8.2486801953033147E-03" rms="0.0e-00" purity="0.230260991002" nType="-99">
      </Node>
      <Node pos="r" depth="3" NCoef="0" IVar="-1" Cut="0.0000000000000000E+00" cType="1" res="-4.1738980611957027E-03" rms="0.0e-00" purity="0.240538786407" nType="-99">
      </Node>
    </Node>
    <Node pos="r" depth="2" NCoef="0" IVar="5" Cut="2.3591938018798828E+00" cType="1" res="-2.6024184244774809E-04" rms="0.0" purity="0.202103783897" nType="0">
      <Node pos="l" depth="3" NCoef="0" IVar="-1" Cut="0.0000000000000000E+00" cType="1" res="-4.6360524009593463E-04" rms="0.0e-00" purity="0.178702440364" nType="-99">
      </Node>
      <Node pos="r" depth="3" NCoef="0" IVar="-1" Cut="0.0000000000000000E+00" cType="1" res="-3.6443108240649565E-03" rms="0.0e-00" purity="0.234904848469" nType="-99">
      </Node>
    </Node>
  </Node>
  <Node pos="r" depth="1" NCoef="0" IVar="1" Cut="3.1614506244659424E+00" cType="1" res="2.5237648936240543E-04" rms="0.0" purity="0.11643577717" nType="0">
    <Node pos="l" depth="2" NCoef="0" IVar="0" Cut="3.6161834716796875E+02" cType="1" res="3.0135800030281425E-04" rms="0.0" purity="0.106763026229" nType="0">
      <Node pos="l" depth="3" NCoef="0" IVar="-1" Cut="0.0000000000000000E+00" cType="1" res="-2.0674279633807746E-03" rms="0.0e-00" purity="0.211597608737" nType="-99">
      </Node>
      <Node pos="r" depth="3" NCoef="0" IVar="-1" Cut="0.0000000000000000E+00" cType="1" res="2.4411023202618848E-03" rms="0.0e-00" purity="0.0870404224089" nType="-99">
      </Node>
    </Node>
    <Node pos="r" depth="2" NCoef="0" IVar="-1" Cut="0.0000000000000000E+00" cType="1" res="-5.4639815442622348E-03" rms="0.0e-00" purity="0.246632896307" nType="-99">
    </Node>
  </Node>
</Node>
</BinaryTree>
<BinaryTree type="DecisionTree" boostWeight="1.0" itree="6">
<Node pos="s" depth="0" NCoef="0" IVar="4" Cut="3.1402902603149414E+01" cType="1" res="3.3042631737722370E-07" rms="0.0" purity="0.160391455163" nType="0">
  <Node pos="l" depth="1" NCoef="0" IVar="2" Cut="1.1855683898925781E+02" cType="1" res="-3.7069077578326924E-04" rms="0.0" purity="0.2106286501" nType="0">
    <Node pos="l" depth="2" NCoef="0" IVar="7" Cut="1.5000000000000000E+00" cType="1" res="-3.0075441458275943E-04" rms="0.0" purity="0.203559386961" nType="0">
      <Node pos="l" depth="3" NCoef="0" IVar="-1" Cut="0.0000000000000000E+00" cType="1" res="-4.3569398620985208E-03" rms="0.0e-00" purity="0.238365739972" nType="-99">
      </Node>
      <Node pos="r" depth="3" NCoef="0" IVar="-1" Cut="0.0000000000000000E+00" cType="1" res="-3.5855720859772640E-04" rms="0.0e-00" purity="0.173244735708" nType="-99">
      </Node>
    </Node>
    <Node pos="r" depth="2" NCoef="0" IVar="-1" Cut="0.0000000000000000E+00" cType="1" res="-1.0252096176708496E-02" rms="0.0e-00" purity="0.205182420678" nType="-99">
    </Node>
  </Node>
  <Node pos="r" depth="1" NCoef="0" IVar="1" Cut="3.0389595031738281E+00" cType="1" res="3.8388259482759267E-04" rms="0.0" purity="0.0878766826436" nType="0">
    <Node pos="l" depth="2" NCoef="0" IVar="3" Cut="4.8914993286132812E+01" cType="1" res="4.3173342723999008E-04" rms="0.0" purity="0.0772543559164" nType="0">
      <Node pos="l" depth="3" NCoef="0" IVar="-1" Cut="0.0000000000000000E+00" cType="1" res="4.5558344627217022E-04" rms="0.0e-00" purity="0.152979055304" nType="-99">
      </Node>
      <Node pos="r" depth="3" NCoef="0" IVar="-1" Cut="0.0000000000000000E+00" cType="1" res="3.1880261848664607E-03" rms="0.0e-00" purity="0.0587707626839" nType="-99">
      </Node>
    </Node>
    <Node pos="r" depth="2" NCoef="0" IVar="-1" Cut="0.0000000000000000E+00" cType="1" res="-2.0821329674515659E-03" rms="0.0e-00" purity="0.21019940915" nType="-99">
    </Node>
  </Node>
</Node>
</BinaryTree>
<BinaryTree type="DecisionTree" boostWeight="1.0" itree="7">
<Node pos="s" depth="0" NCoef="0" IVar="4" Cut="3.1402902603149414E+01" cType="1" res="3.7365782877968539E-07" rms="0.0" purity="0.159598340785" nType="0">
  <Node pos="l" depth="1" NCoef="0" IVar="2" Cut="1.1855683898925781E+02" cType="1" res="-3.6321928515539812E-04" rms="0.0" purity="0.210018365493" nType="0">
    <Node pos="l" depth="2" NCoef="0" IVar="6" Cut="3.5000000000000000E+00" cType="1" res="-2.9470539560400797E-04" rms="0.0" purity="0.203222857355" nType="0">
      <Node pos="l" depth="3" NCoef="0" IVar="-1" Cut="0.0000000000000000E+00" cType="1" res="-4.3315667065725759E-03" rms="0.0e-00" purity="0.238701129283" nType="-99">
      </Node>
      <Node pos="r" depth="3" NCoef="0" IVar="-1" Cut="0.0000000000000000E+00" cType="1" res="3.5001364823125667E-05" rms="0.0e-00" purity="0.163979050034" nType="-99">
      </Node>
    </Node>
    <Node pos="r" depth="2" NCoef="0" IVar="-1" Cut="0.0000000000000000E+00" cType="1" res="-9.7506218088326338E-03" rms="0.0e-00" purity="0.205010386514" nType="-99">
    </Node>
  </Node>
  <Node pos="r" depth="1" NCoef="0" IVar="3" Cut="4.8914993286132812E+01" cType="1" res="3.7624668327036401E-04" rms="0.0" purity="0.0877104171964" nType="0">
    <Node pos="l" depth="2" NCoef="0" IVar="0" Cut="3.9026739501953125E+02" cType="1" res="2.4299404068682274E-05" rms="0.0" purity="0.161356687275" nType="0">
      <Node pos="l" depth="3" NCoef="0" IVar="-1" Cut="0.0000000000000000E+00" cType="1" res="-2.0558026009788030E-03" rms="0.0e-00" purity="0.212723539091" nType="-99">
      </Node>
      <Node pos="r" depth="3" NCoef="0" IVar="-1" Cut="0.0000000000000000E+00" cType="1" res="1.5100245928733580E-03" rms="0.0e-00" purity="0.121010919014" nType="-99">
      </Node>
    </Node>
    <Node pos="r" depth="2" NCoef="0" IVar="7" Cut="1.5000000000000000E+00" cType="1" res="4.5657609867745053E-04" rms="0.0" purity="0.068431889664" nType="0">
      <Node pos="l" depth="3" NCoef="0" IVar="-1" Cut="0.0000000000000000E+00" cType="1" res="1.7091502240423550E-03" rms="0.0e-00" purity="0.110245011538" nType="-99">
      </Node>
      <Node pos="r" depth="3" NCoef="0" IVar="-1" Cut="0.0000000000000000E+00" cType="1" res="3.3924514691164634E-03" rms="0.0e-00" purity="0.0494878889028" nType="-99">
      </Node>
    </Node>
  </Node>
</Node>
</BinaryTree>
<BinaryTree type="DecisionTree" boostWeight="1.0" itree="8">
<Node pos="s" depth="0" NCoef="0" IVar="3" Cut="4.5493839263916016E+01" cType="1" res="4.1554106523718794E-07" rms="0.0" purity="0.158791312796" nType="0">
  <Node pos="l" depth="1" NCoef="0" IVar="0" Cut="3.0347540283203125E+02" cType="1" res="-6.2381602763564488E-04" rms="0.0" purity="0.232777279508" nType="0">
    <Node pos="l" depth="2" NCoef="0" IVar="0" Cut="2.6827587890625000E+02" cType="1" res="-1.4785926195118771E-03" rms="0.0" purity="0.225221637249" nType="0">
      <Node pos="l" depth="3" NCoef="0" IVar="-1" Cut="0.0000000000000000E+00" cType="1" res="-9.3774763416287349E-03" rms="0.0e-00" purity="0.197182663844" nType="-99">
      </Node>
      <Node pos="r" depth="3" NCoef="0" IVar="-1" Cut="0.0000000000000000E+00" cType="1" res="-6.6382655972344363E-03" rms="0.0e-00" purity="0.239520457123" nType="-99">
      </Node>
    </Node>
    <Node pos="r" depth="2" NCoef="0" IVar="4" Cut="2.6320529937744141E+01" cType="1" res="-4.3397912114183102E-04" rms="0.0" purity="0.220353534457" nType="0">
      <Node pos="l" depth="3" NCoef="0" IVar="-1" Cut="0.0000000000000000E+00" cType="1" res="-4.6023981460802440E-03" rms="0.0e-00" purity="0.24388608053" nType="-99">
      </Node>
      <Node pos="r" depth="3" NCoef="0" IVar="-1" Cut="0.0000000000000000E+00" cType="1" res="-7.2032484883309761E-04" rms="0.0e-00" purity="0.186049219905" nType="-99">
      </Node>
    </Node>
  </Node>
  <Node pos="r" depth="1" NCoef="0" IVar="4" Cut="2.8325187683105469E+01" cType="1" res="2.2943276111005802E-04" rms="0.0" purity="0.117751715675" nType="0">
    <Node pos="l" depth="2" NCoef="0" IVar="6" Cut="3.5000000000000000E+00" cType="1" res="-1.3177232340734366E-04" rms="0.0" purity="0.182386863458" nType="0">
      <Node pos="l" depth="3" NCoef="0" IVar="-1" Cut="0.0000000000000000E+00" cType="1" res="-3.2470354074168820E-03" rms="0.0e-00" purity="0.22899693895" nType="-99">
      </Node>
      <Node pos="r" depth="3" NCoef="0" IVar="-1" Cut="0.0000000000000000E+00" cType="1" res="7.4063615792384959E-04" rms="0.0e-00" purity="0.142511216616" nType="-99">
      </Node>
    </Node>
    <Node pos="r" depth="2" NCoef="0" IVar="0" Cut="3.4193359375000000E+02" cType="1" res="3.9867535311172880E-04" rms="0.0" purity="0.0810829731461" nType="0">
      <Node pos="l" depth="3" NCoef="0" IVar="-1" Cut="0.0000000000000000E+00" cType="1" res="-1.2731507377472288E-03" rms="0.0e-00" purity="0.194946149928" nType="-99">
      </Node>
      <Node pos="r" depth="3" NCoef="0" IVar="-1" Cut="0.0000000000000000E+00" cType="1" res="2.8390830401541665E-03" rms="0.0e-00" purity="0.0697101318161" nType="-99">
      </Node>
    </Node>
  </Node>
</Node>
</BinaryTree>
<BinaryTree type="DecisionTree" boostWeight="1.0" itree="9">
<Node pos="s" depth="0" NCoef="0" IVar="6" Cut="3.5000000000000000E+00" cType="1" res="4.5790481801735930E-07" rms="0.0" purity="0.157931655729" nType="0">
  <Node pos="l" depth="1" NCoef="0" IVar="4" Cut="3.1476156234741211E+01" cType="1" res="-3.8427396484334538E-04" rms="0.0" purity="0.208320136751" nType="0">
    <Node pos="l" depth="2" NCoef="0" IVar="3" Cut="5.0139633178710938E+01" cType="1" res="-8.0099836630002517E-04" rms="0.0" purity="0.239519354599" nType="0">
      <Node pos="l" depth="3" NCoef="0" IVar="-1" Cut="0.0000000000000000E+00" cType="1" res="-6.3891138364008775E-03" rms="0.0e-00" purity="0.240466836321" nType="-99">
      </Node>
      <Node pos="r" depth="3" NCoef="0" IVar="-1" Cut="0.0000000000000000E+00" cType="1" res="-2.1472499642682520E-03" rms="0.0e-00" purity="0.213358631051" nType="-99">
      </Node>
    </Node>
    <Node pos="r" depth="2" NCoef="0" IVar="3" Cut="4.9008552551269531E+01" cType="1" res="1.3274145252312774E-04" rms="0.0" purity="0.135282906912" nType="0">
      <Node pos="l" depth="3" NCoef="0" IVar="-1" Cut="0.0000000000000000E+00" cType="1" res="-2.0769267775259401E-03" rms="0.0e-00" purity="0.214588834517" nType="-99">
      </Node>
      <Node pos="r" depth="3" NCoef="0" IVar="-1" Cut="0.0000000000000000E+00" cType="1" res="1.6682607830910807E-03" rms="0.0e-00" purity="0.1085144952" nType="-99">
      </Node>
    </Node>
  </Node>
  <Node pos="r" depth="1" NCoef="0" IVar="4" Cut="2.8918664932250977E+01" cType="1" res="2.2075450868843066E-04" rms="0.0" purity="0.119601229245" nType="0">
    <Node pos="l" depth="2" NCoef="0" IVar="0" Cut="4.1155761718750000E+02" cType="1" res="-1.1419414127792985E-04" rms="0.0" purity="0.18106164742" nType="0">
      <Node pos="l" depth="3" NCoef="0" IVar="-1" Cut="0.0000000000000000E+00" cType="1" res="-3.0083999666985876E-03" rms="0.0e-00" purity="0.227682084879" nType="-99">
      </Node>
      <Node pos="r" depth="3" NCoef="0" IVar="-1" Cut="0.0000000000000000E+00" cType="1" res="1.3252080386850389E-04" rms="0.0e-00" purity="0.160368417854" nType="-99">
      </Node>
    </Node>
    <Node pos="r" depth="2" NCoef="0" IVar="5" Cut="2.2906594276428223E+00" cType="1" res="4.3732323013289612E-04" rms="0.0" purity="0.0713689766394" nType="0">
      <Node pos="l" depth="3" NCoef="0" IVar="-1" Cut="0.0000000000000000E+00" cType="1" res="3.2833422467539518E-03" rms="0.0e-00" purity="0.0530976510857" nType="-99">
      </Node>
      <Node pos="r" depth="3" NCoef="0" IVar="-1" Cut="0.0000000000000000E+00" cType="1" res="1.8345308493774781E-03" rms="0.0e-00" purity="0.103359736558" nType="-99">
      </Node>
    </Node>
  </Node>
</Node>
</BinaryTree>
<BinaryTree type="DecisionTree" boostWeight="1.0" itree="10">
<Node pos="s" depth="0" NCoef="0" IVar="2" Cut="4.9859798431396484E+01" cType="1" res="4.9396213781056980E-07" rms="0.0" purity="0.15715422121" nType="0">
  <Node pos="l" depth="1" NCoef="0" IVar="6" Cut="3.5000000000000000E+00" cType="1" res="-6.9637752365810188E-04" rms="0.0" purity="0.231162454094" nType="0">
    <Node pos="l" depth="2" NCoef="0" IVar="-1" Cut="0.0000000000000000E+00" cType="1" res="-6.2973837701463210E-03" rms="0.0e-00" purity="0.238182257518" nType="-99">
    </Node>
    <Node pos="r" depth="2" NCoef="0" IVar="0" Cut="4.8232080078125000E+02" cType="1" res="-3.7639957079238008E-04" rms="0.0" purity="0.208718822064" nType="0">
      <Node pos="l" depth="3" NCoef="0" IVar="-1" Cut="0.0000000000000000E+00" cType="1" res="-5.2408064493259937E-03" rms="0.0e-00" purity="0.242849595493" nType="-99">
      </Node>
      <Node pos="r" depth="3" NCoef="0" IVar="-1" Cut="0.0000000000000000E+00" cType="1" res="-4.0842981969759423E-04" rms="0.0e-00" purity="0.170291265933" nType="-99">
      </Node>
    </Node>
  </Node>
  <Node pos="r" depth="1" NCoef="0" IVar="1" Cut="3.2942199707031250E+00" cType="1" res="9.4155938552237240E-05" rms="0.0" purity="0.141941979882" nType="0">
    <Node pos="l" depth="2" NCoef="0" IVar="4" Cut="2.8916774749755859E+01" cType="1" res="1.5562835621536650E-04" rms="0.0" purity="0.13152322453" nType="0">
      <Node pos="l" depth="3" NCoef="0" IVar="-1" Cut="0.0000000000000000E+00" cType="1" res="-1.1633003277552779E-03" rms="0.0e-00" purity="0.193153369964" nType="-99">
      </Node>
      <Node pos="r" depth="3" NCoef="0" IVar="-1" Cut="0.0000000000000000E+00" cType="1" res="2.3394000759939812E-03" rms="0.0e-00" purity="0.0859315650844" nType="-99">
      </Node>
    </Node>
    <Node pos="r" depth="2" NCoef="0" IVar="-1" Cut="0.0000000000000000E+00" cType="1" res="-7.8437961786293423E-03" rms="0.0e-00" purity="0.228004944997" nType="-99">
    </Node>
  </Node>
</Node>
</BinaryTree>
<BinaryTree type="DecisionTree" boostWeight="1.0" itree="11">
<Node pos="s" depth="0" NCoef="0" IVar="0" Cut="3.6228634643554688E+02" cType="1" res="5.2489209665595371E-07" rms="0.0" purity="0.156459973156" nType="0">
  <Node pos="l" depth="1" NCoef="0" IVar="2" Cut="5.8418087005615234E+01" cType="1" res="-7.4449262258998740E-04" rms="0.0" purity="0.236038830145" nType="0">
    <Node pos="l" depth="2" NCoef="0" IVar="5" Cut="2.2870821952819824E+00" cType="1" res="-1.3381791449811969E-03" rms="0.0" purity="0.232056851308" nType="0">
      <Node pos="l" depth="3" NCoef="0" IVar="-1" Cut="0.0000000000000000E+00" cType="1" res="-6.0154998759454001E-03" rms="0.0e-00" purity="0.241536524613" nType="-99">
      </Node>
      <Node pos="r" depth="3" NCoef="0" IVar="-1" Cut="0.0000000000000000E+00" cType="1" res="-8.2889118540802192E-03" rms="0.0e-00" purity="0.212168706599" nType="-99">
      </Node>
    </Node>
    <Node pos="r" depth="2" NCoef="0" IVar="0" Cut="2.8379290771484375E+02" cType="1" res="-5.1844939324843082E-04" rms="0.0" purity="0.2243784612" nType="0">
      <Node pos="l" depth="3" NCoef="0" IVar="-1" Cut="0.0000000000000000E+00" cType="1" res="-6.3294385337207774E-03" rms="0.0e-00" purity="0.237189952585" nType="-99">
      </Node>
      <Node pos="r" depth="3" NCoef="0" IVar="-1" Cut="0.0000000000000000E+00" cType="1" res="-1.7933210487814702E-03" rms="0.0e-00" purity="0.208105257939" nType="-99">
      </Node>
    </Node>
  </Node>
  <Node pos="r" depth="1" NCoef="0" IVar="7" Cut="1.5000000000000000E+00" cType="1" res="1.8411659172362825E-04" rms="0.0" purity="0.124726298505" nType="0">
    <Node pos="l" depth="2" NCoef="0" IVar="3" Cut="4.7749359130859375E+01" cType="1" res="-8.2718603432781570E-05" rms="0.0" purity="0.171008811037" nType="0">
      <Node pos="l" depth="3" NCoef="0" IVar="-1" Cut="0.0000000000000000E+00" cType="1" res="-4.0095163194012184E-03" rms="0.0e-00" purity="0.236491016193" nType="-99">
      </Node>
      <Node pos="r" depth="3" NCoef="0" IVar="-1" Cut="0.0000000000000000E+00" cType="1" res="8.3297320673773022E-04" rms="0.0e-00" purity="0.135203346197" nType="-99">
      </Node>
    </Node>
    <Node pos="r" depth="2" NCoef="0" IVar="3" Cut="4.5493217468261719E+01" cType="1" res="2.9601321149420092E-04" rms="0.0" purity="0.102304247381" nType="0">
      <Node pos="l" depth="3" NCoef="0" IVar="-1" Cut="0.0000000000000000E+00" cType="1" res="-7.0077006021248406E-04" rms="0.0e-00" purity="0.186429407305" nType="-99">
      </Node>
      <Node pos="r" depth="3" NCoef="0" IVar="-1" Cut="0.0000000000000000E+00" cType="1" res="2.5899600949088860E-03" rms="0.0e-00" purity="0.0763830472732" nType="-99">
      </Node>
    </Node>
  </Node>
</Node>
</BinaryTree>
<BinaryTree type="DecisionTree" boostWeight="1.0" itree="12">
<Node pos="s" depth="0" NCoef="0" IVar="2" Cut="4.9859798431396484E+01" cType="1" res="5.5744994554161136E-07" rms="0.0" purity="0.155697301429" nType="0">
  <Node pos="l" depth="1" NCoef="0" IVar="7" Cut="1.5000000000000000E+00" cType="1" res="-6.7508213550895673E-04" rms="0.0" purity="0.22910787708" nType="0">
    <Node pos="l" depth="2" NCoef="0" IVar="-1" Cut="0.0000000000000000E+00" cType="1" res="-6.4678435324912083E-03" rms="0.0e-00" purity="0.235428484303" nType="-99">
    </Node>
    <Node pos="r" depth="2" NCoef="0" IVar="3" Cut="4.8895915985107422E+01" cType="1" res="-3.7035605305776024E-04" rms="0.0" purity="0.20772547706" nType="0">
      <Node pos="l" depth="3" NCoef="0" IVar="-1" Cut="0.0000000000000000E+00" cType="1" res="-3.8232416119506592E-03" rms="0.0e-00" purity="0.236473061371" nType="-99">
      </Node>
      <Node pos="r" depth="3" NCoef="0" IVar="-1" Cut="0.0000000000000000E+00" cType="1" res="3.8039217757195672E-04" rms="0.0e-00" purity="0.145910425537" nType="-99">
      </Node>
    </Node>
  </Node>
  <Node pos="r" depth="1" NCoef="0" IVar="3" Cut="4.5493217468261719E+01" cType="1" res="9.1365784347690655E-05" rms="0.0" purity="0.140881338798" nType="0">
    <Node pos="l" depth="2" NCoef="0" IVar="6" Cut="3.5000000000000000E+00" cType="1" res="-4.5435754099472825E-04" rms="0.0" purity="0.220575915956" nType="0">
      <Node pos="l" depth="3" NCoef="0" IVar="-1" Cut="0.0000000000000000E+00" cType="1" res="-4.7943565279595871E-03" rms="0.0e-00" purity="0.242286391367" nType="-99">
      </Node>
      <Node pos="r" depth="3" NCoef="0" IVar="-1" Cut="0.0000000000000000E+00" cType="1" res="-7.7093731317973775E-04" rms="0.0e-00" purity="0.187618721705" nType="-99">
      </Node>
    </Node>
    <Node pos="r" depth="2" NCoef="0" IVar="0" Cut="3.4430105590820312E+02" cType="1" res="2.5665250257422769E-04" rms="0.0" purity="0.108386717346" nType="0">
      <Node pos="l" depth="3" NCoef="0" IVar="-1" Cut="0.0000000000000000E+00" cType="1" res="-2.3853274472018077E-03" rms="0.0e-00" purity="0.218582652965" nType="-99">
      </Node>
      <Node pos="r" depth="3" NCoef="0" IVar="-1" Cut="0.0000000000000000E+00" cType="1" res="2.1156577107950807E-03" rms="0.0e-00" purity="0.092196966345" nType="-99">
      </Node>
    </Node>
  </Node>
</Node>
</BinaryTree>
<BinaryTree type="DecisionTree" boostWeight="1.0" itree="13">
<Node pos="s" depth="0" NCoef="0" IVar="2" Cut="5.6348625183105469E+01" cType="1" res="5.8437404029487221E-07" rms="0.0" purity="0.155024944179" nType="0">
  <Node pos="l" depth="1" NCoef="0" IVar="4" Cut="3.2162769317626953E+01" cType="1" res="-5.1403768244185776E-04" rms="0.0" purity="0.218782646217" nType="0">
    <Node pos="l" depth="2" NCoef="0" IVar="6" Cut="3.5000000000000000E+00" cType="1" res="-7.2154714797726760E-04" rms="0.0" purity="0.234126578683" nType="0">
      <Node pos="l" depth="3" NCoef="0" IVar="-1" Cut="0.0000000000000000E+00" cType="1" res="-6.0652688551410677E-03" rms="0.0e-00" purity="0.236372921563" nType="-99">
      </Node>
      <Node pos="r" depth="3" NCoef="0" IVar="-1" Cut="0.0000000000000000E+00" cType="1" res="-2.2944533263195756E-03" rms="0.0e-00" purity="0.214901605305" nType="-99">
      </Node>
    </Node>
    <Node pos="r" depth="2" NCoef="0" IVar="-1" Cut="0.0000000000000000E+00" cType="1" res="8.8609982238521743E-04" rms="0.0e-00" purity="0.130171549089" nType="-99">
    </Node>
  </Node>
  <Node pos="r" depth="1" NCoef="0" IVar="0" Cut="3.4458184814453125E+02" cType="1" res="1.1535549678423168E-04" rms="0.0" purity="0.135668893901" nType="0">
    <Node pos="l" depth="2" NCoef="0" IVar="3" Cut="4.0477821350097656E+01" cType="1" res="-6.3043223157334025E-04" rms="0.0" purity="0.232431933242" nType="0">
      <Node pos="l" depth="3" NCoef="0" IVar="-1" Cut="0.0000000000000000E+00" cType="1" res="-5.7576961435979691E-03" rms="0.0e-00" purity="0.237932214583" nType="-99">
      </Node>
      <Node pos="r" depth="3" NCoef="0" IVar="-1" Cut="0.0000000000000000E+00" cType="1" res="-2.3047687600146684E-03" rms="0.0e-00" purity="0.219257337727" nType="-99">
      </Node>
    </Node>
    <Node pos="r" depth="2" NCoef="0" IVar="3" Cut="4.2646877288818359E+01" cType="1" res="2.4048427881476537E-04" rms="0.0" purity="0.111684468285" nType="0">
      <Node pos="l" depth="3" NCoef="0" IVar="-1" Cut="0.0000000000000000E+00" cType="1" res="-1.4953694676484654E-03" rms="0.0e-00" purity="0.203878721537" nType="-99">
      </Node>
      <Node pos="r" depth="3" NCoef="0" IVar="-1" Cut="0.0000000000000000E+00" cType="1" res="2.0322392405256384E-03" rms="0.0e-00" purity="0.0943534043454" nType="-99">
      </Node>
    </Node>
  </Node>
</Node>
</BinaryTree>
<BinaryTree type="DecisionTree" boostWeight="1.0" itree="14">
<Node pos="s" depth="0" NCoef="0" IVar="2" Cut="1.2748992919921875E+02" cType="1" res="6.0708422548782865E-07" rms="0.0" purity="0.154396644027" nType="0">
  <Node pos="l" depth="1" NCoef="0" IVar="2" Cut="6.2984985351562500E+01" cType="1" res="5.6744399326460635E-05" rms="0.0" purity="0.145829652797" nType="0">
    <Node pos="l" depth="2" NCoef="0" IVar="5" Cut="2.7145433425903320E+00" cType="1" res="-3.8330377580383240E-04" rms="0.0" purity="0.207403076744" nType="0">
      <Node pos="l" depth="3" NCoef="0" IVar="-1" Cut="0.0000000000000000E+00" cType="1" res="-1.6004629937529805E-03" rms="0.0e-00" purity="0.197539493525" nType="-99">
      </Node>
      <Node pos="r" depth="3" NCoef="0" IVar="-1" Cut="0.0000000000000000E+00" cType="1" res="-6.4533213631305835E-03" rms="0.0e-00" purity="0.231159508591" nType="-99">
      </Node>
    </Node>
    <Node pos="r" depth="2" NCoef="0" IVar="3" Cut="4.2455345153808594E+01" cType="1" res="2.3090014477807676E-04" rms="0.0" purity="0.11385448326" nType="0">
      <Node pos="l" depth="3" NCoef="0" IVar="-1" Cut="0.0000000000000000E+00" cType="1" res="-2.0556704833761537E-03" rms="0.0e-00" purity="0.214948700432" nType="-99">
      </Node>
      <Node pos="r" depth="3" NCoef="0" IVar="-1" Cut="0.0000000000000000E+00" cType="1" res="2.0820743652875786E-03" rms="0.0e-00" purity="0.0928748867972" nType="-99">
      </Node>
    </Node>
  </Node>
  <Node pos="r" depth="1" NCoef="0" IVar="-1" Cut="0.0000000000000000E+00" cType="1" res="-6.0786229351001853E-03" rms="0.0e-00" purity="0.232025972668" nType="-99">
  </Node>
</Node>
</BinaryTree>
<BinaryTree type="DecisionTree" boostWeight="1.0" itree="15">
<Node pos="s" depth="0" NCoef="0" IVar="6" Cut="3.5000000000000000E+00" cType="1" res="6.2881680836191834E-07" rms="0.0" purity="0.153826316757" nType="0">
  <Node pos="l" depth="1" NCoef="0" IVar="3" Cut="4.7709388732910156E+01" cType="1" res="-3.6033911401326150E-04" rms="0.0" purity="0.202755044848" nType="0">
    <Node pos="l" depth="2" NCoef="0" IVar="5" Cut="2.5257217884063721E+00" cType="1" res="-9.4154952081766739E-04" rms="0.0" purity="0.239733595384" nType="0">
      <Node pos="l" depth="3" NCoef="0" IVar="-1" Cut="0.0000000000000000E+00" cType="1" res="-3.8053331226161257E-03" rms="0.0e-00" purity="0.238674784758" nType="-99">
      </Node>
      <Node pos="r" depth="3" NCoef="0" IVar="-1" Cut="0.0000000000000000E+00" cType="1" res="-7.4561970890740870E-03" rms="0.0e-00" purity="0.214535402372" nType="-99">
      </Node>
    </Node>
    <Node pos="r" depth="2" NCoef="0" IVar="3" Cut="6.7682624816894531E+01" cType="1" res="-4.6615405822809331E-05" rms="0.0" purity="0.162829591689" nType="0">
      <Node pos="l" depth="3" NCoef="0" IVar="-1" Cut="0.0000000000000000E+00" cType="1" res="-1.8767164383484999E-03" rms="0.0e-00" purity="0.19990212052" nType="-99">
      </Node>
      <Node pos="r" depth="3" NCoef="0" IVar="-1" Cut="0.0000000000000000E+00" cType="1" res="9.1315703515013112E-04" rms="0.0e-00" purity="0.129862026865" nType="-99">
      </Node>
    </Node>
  </Node>
  <Node pos="r" depth="1" NCoef="0" IVar="3" Cut="4.2272094726562500E+01" cType="1" res="2.0731824270944148E-04" rms="0.0" purity="0.117466457595" nType="0">
    <Node pos="l" depth="2" NCoef="0" IVar="5" Cut="2.3697447776794434E+00" cType="1" res="-3.2979427881313231E-04" rms="0.0" purity="0.212238899186" nType="0">
      <Node pos="l" depth="3" NCoef="0" IVar="-1" Cut="0.0000000000000000E+00" cType="1" res="-8.3525481862700029E-04" rms="0.0e-00" purity="0.191796676643" nType="-99">
      </Node>
      <Node pos="r" depth="3" NCoef="0" IVar="-1" Cut="0.0000000000000000E+00" cType="1" res="-3.9203535096444270E-03" rms="0.0e-00" purity="0.239768878924" nType="-99">
      </Node>
    </Node>
    <Node pos="r" depth="2" NCoef="0" IVar="1" Cut="3.0762166976928711E+00" cType="1" res="3.3513872116598453E-04" rms="0.0" purity="0.0888689076917" nType="0">
      <Node pos="l" depth="3" NCoef="0" IVar="-1" Cut="0.0000000000000000E+00" cType="1" res="2.4822809603869660E-03" rms="0.0e-00" purity="0.0784286258592" nType="-99">
      </Node>
      <Node pos="r" depth="3" NCoef="0" IVar="-1" Cut="0.0000000000000000E+00" cType="1" res="-2.5737601277199046E-03" rms="0.0e-00" purity="0.2133705475" nType="-99">
      </Node>
    </Node>
  </Node>
</Node>
</BinaryTree>
<BinaryTree type="DecisionTree" boostWeight="1.0" itree="16">
<Node pos="s" depth="0" NCoef="0" IVar="6" Cut="3.5000000000000000E+00" cType="1" res="6.5381753897692701E-07" rms="0.0" purity="0.153141314391" nType="0">
  <Node pos="l" depth="1" NCoef="0" IVar="2" Cut="6.4493225097656250E+01" cType="1" res="-3.5308254629052237E-04" rms="0.0" purity="0.201992034601" nType="0">
    <Node pos="l" depth="2" NCoef="0" IVar="3" Cut="5.7077316284179688E+01" cType="1" res="-7.9994435514329316E-04" rms="0.0" purity="0.233701135183" nType="0">
      <Node pos="l" depth="3" NCoef="0" IVar="-1" Cut="0.0000000000000000E+00" cType="1" res="-5.2470056421238705E-03" rms="0.0e-00" purity="0.237974873867" nType="-99">
      </Node>
      <Node pos="r" depth="3" NCoef="0" IVar="-1" Cut="0.0000000000000000E+00" cType="1" res="-1.0907689799393434E-03" rms="0.0e-00" purity="0.185086908658" nType="-99">
      </Node>
    </Node>
    <Node pos="r" depth="2" NCoef="0" IVar="4" Cut="2.8061315536499023E+01" cType="1" res="-1.4865497896806651E-04" rms="0.0" purity="0.178018111838" nType="0">
      <Node pos="l" depth="3" NCoef="0" IVar="-1" Cut="0.0000000000000000E+00" cType="1" res="-3.6801013408176830E-03" rms="0.0e-00" purity="0.231888481638" nType="-99">
      </Node>
      <Node pos="r" depth="3" NCoef="0" IVar="-1" Cut="0.0000000000000000E+00" cType="1" res="6.6993658447588120E-04" rms="0.0e-00" purity="0.13740552028" nType="-99">
      </Node>
    </Node>
  </Node>
  <Node pos="r" depth="1" NCoef="0" IVar="3" Cut="4.2272094726562500E+01" cType="1" res="2.0320246443352561E-04" rms="0.0" purity="0.117157073262" nType="0">
    <Node pos="l" depth="2" NCoef="0" IVar="4" Cut="2.7243167877197266E+01" cType="1" res="-3.2317103677441682E-04" rms="0.0" purity="0.212017316135" nType="0">
      <Node pos="l" depth="3" NCoef="0" IVar="-1" Cut="0.0000000000000000E+00" cType="1" res="-3.3811920847827493E-03" rms="0.0e-00" purity="0.237510510021" nType="-99">
      </Node>
      <Node pos="r" depth="3" NCoef="0" IVar="-1" Cut="0.0000000000000000E+00" cType="1" res="9.7199989543589311E-05" rms="0.0e-00" purity="0.167641233942" nType="-99">
      </Node>
    </Node>
    <Node pos="r" depth="2" NCoef="0" IVar="1" Cut="3.0762166976928711E+00" cType="1" res="3.2846730201455457E-04" rms="0.0" purity="0.0887778950487" nType="0">
      <Node pos="l" depth="3" NCoef="0" IVar="-1" Cut="0.0000000000000000E+00" cType="1" res="2.4528370156004131E-03" rms="0.0e-00" purity="0.0784461229967" nType="-99">
      </Node>
      <Node pos="r" depth="3" NCoef="0" IVar="-1" Cut="0.0000000000000000E+00" cType="1" res="-2.5028560633150272E-03" rms="0.0e-00" purity="0.213303492382" nType="-99">
      </Node>
    </Node>
  </Node>
</Node>
</BinaryTree>
<BinaryTree type="DecisionTree" boostWeight="1.0" itree="17">
<Node pos="s" depth="0" NCoef="0" IVar="4" Cut="3.1402902603149414E+01" cType="1" res="6.7703421340525556E-07" rms="0.0" purity="0.15248563713" nType="0">
  <Node pos="l" depth="1" NCoef="0" IVar="6" Cut="3.5000000000000000E+00" cType="1" res="-3.2019248989025555E-04" rms="0.0" purity="0.202330337569" nType="0">
    <Node pos="l" depth="2" NCoef="0" IVar="0" Cut="3.0295382690429688E+02" cType="1" res="-7.2735722145379441E-04" rms="0.0" purity="0.233672293545" nType="0">
      <Node pos="l" depth="3" NCoef="0" IVar="-1" Cut="0.0000000000000000E+00" cType="1" res="-6.6491530819130775E-03" rms="0.0e-00" purity="0.219016723268" nType="-99">
      </Node>
      <Node pos="r" depth="3" NCoef="0" IVar="-1" Cut="0.0000000000000000E+00" cType="1" res="-2.7611616532069476E-03" rms="0.0e-00" purity="0.22529899575" nType="-99">
      </Node>
    </Node>
    <Node pos="r" depth="2" NCoef="0" IVar="5" Cut="2.3591341972351074E+00" cType="1" res="-5.4498817377779467E-05" rms="0.0" purity="0.169165439528" nType="0">
      <Node pos="l" depth="3" NCoef="0" IVar="-1" Cut="0.0000000000000000E+00" cType="1" res="5.2630243226709254E-04" rms="0.0e-00" purity="0.146756722403" nType="-99">
      </Node>
      <Node pos="r" depth="3" NCoef="0" IVar="-1" Cut="0.0000000000000000E+00" cType="1" res="-2.1321617544865067E-03" rms="0.0e-00" purity="0.208300202855" nType="-99">
      </Node>
    </Node>
  </Node>
  <Node pos="r" depth="1" NCoef="0" IVar="2" Cut="1.2983102416992188E+02" cType="1" res="3.3238368893269025E-04" rms="0.0" purity="0.0855644831502" nType="0">
    <Node pos="l" depth="2" NCoef="0" IVar="3" Cut="5.6055839538574219E+01" cType="1" res="3.9298030079993842E-04" rms="0.0" purity="0.0723245752971" nType="0">
      <Node pos="l" depth="3" NCoef="0" IVar="-1" Cut="0.0000000000000000E+00" cType="1" res="1.0227867147327230E-03" rms="0.0e-00" purity="0.129532191363" nType="-99">
      </Node>
      <Node pos="r" depth="3" NCoef="0" IVar="-1" Cut="0.0000000000000000E+00" cType="1" res="3.3551838182290647E-03" rms="0.0e-00" purity="0.0445899162996" nType="-99">
      </Node>
    </Node>
    <Node pos="r" depth="2" NCoef="0" IVar="-1" Cut="0.0000000000000000E+00" cType="1" res="-3.3730297005884922E-03" rms="0.0e-00" purity="0.218710252504" nType="-99">
    </Node>
  </Node>
</Node>
</BinaryTree>
<BinaryTree type="DecisionTree" boostWeight="1.0" itree="18">
<Node pos="s" depth="0" NCoef="0" IVar="0" Cut="3.8179980468750000E+02" cType="1" res="7.0249556492405318E-07" rms="0.0" purity="0.151792987212" nType="0">
  <Node pos="l" depth="1" NCoef="0" IVar="0" Cut="2.8379290771484375E+02" cType="1" res="-5.9705638774483439E-04" rms="0.0" purity="0.225073435516" nType="0">
    <Node pos="l" depth="2" NCoef="0" IVar="5" Cut="2.2946276664733887E+00" cType="1" res="-1.2790494650296821E-03" rms="0.0" purity="0.223716225114" nType="0">
      <Node pos="l" depth="3" NCoef="0" IVar="-1" Cut="0.0000000000000000E+00" cType="1" res="-5.8713672604098367E-03" rms="0.0e-00" purity="0.231472799456" nType="-99">
      </Node>
      <Node pos="r" depth="3" NCoef="0" IVar="-1" Cut="0.0000000000000000E+00" cType="1" res="-6.7926525222592564E-03" rms="0.0e-00" purity="0.213467965222" nType="-99">
      </Node>
    </Node>
    <Node pos="r" depth="2" NCoef="0" IVar="4" Cut="2.8214481353759766E+01" cType="1" res="-4.1746271404476533E-04" rms="0.0" purity="0.214427423107" nType="0">
      <Node pos="l" depth="3" NCoef="0" IVar="-1" Cut="0.0000000000000000E+00" cType="1" res="-3.9106693713582118E-03" rms="0.0e-00" purity="0.238868936483" nType="-99">
      </Node>
      <Node pos="r" depth="3" NCoef="0" IVar="-1" Cut="0.0000000000000000E+00" cType="1" res="-5.1427407450930021E-04" rms="0.0e-00" purity="0.174845837117" nType="-99">
      </Node>
    </Node>
  </Node>
  <Node pos="r" depth="1" NCoef="0" IVar="5" Cut="2.4024820327758789E+00" cType="1" res="1.9331518010953230E-04" rms="0.0" purity="0.117354573879" nType="0">
    <Node pos="l" depth="2" NCoef="0" IVar="1" Cut="3.1038999557495117E+00" cType="1" res="3.0059529474816892E-04" rms="0.0" purity="0.0960775331601" nType="0">
      <Node pos="l" depth="3" NCoef="0" IVar="-1" Cut="0.0000000000000000E+00" cType="1" res="2.1910565228903003E-03" rms="0.0e-00" purity="0.0874781419354" nType="-99">
      </Node>
      <Node pos="r" depth="3" NCoef="0" IVar="-1" Cut="0.0000000000000000E+00" cType="1" res="-2.2128784081401052E-03" rms="0.0e-00" purity="0.213300163034" nType="-99">
      </Node>
    </Node>
    <Node pos="r" depth="2" NCoef="0" IVar="4" Cut="2.9278030395507812E+01" cType="1" res="-9.8357745495258441E-05" rms="0.0" purity="0.166927783448" nType="0">
      <Node pos="l" depth="3" NCoef="0" IVar="-1" Cut="0.0000000000000000E+00" cType="1" res="-3.0161965401961904E-03" rms="0.0e-00" purity="0.222730505943" nType="-99">
      </Node>
      <Node pos="r" depth="3" NCoef="0" IVar="-1" Cut="0.0000000000000000E+00" cType="1" res="1.3240777086354959E-03" rms="0.0e-00" purity="0.112132878443" nType="-99">
      </Node>
    </Node>
  </Node>
</Node>
</BinaryTree>
<BinaryTree type="DecisionTree" boostWeight="1.0" itree="19">
<Node pos="s" depth="0" NCoef="0" IVar="0" Cut="3.8179980468750000E+02" cType="1" res="7.2311963006324431E-07" rms="0.0" purity="0.151129266973" nType="0">
  <Node pos="l" depth="1" NCoef="0" IVar="0" Cut="2.8379290771484375E+02" cType="1" res="-5.8504808629588939E-04" rms="0.0" purity="0.224403919868" nType="0">
    <Node pos="l" depth="2" NCoef="0" IVar="1" Cut="2.2606239318847656E+00" cType="1" res="-1.2532865690878859E-03" rms="0.0" purity="0.223552450249" nType="0">
      <Node pos="l" depth="3" NCoef="0" IVar="-1" Cut="0.0000000000000000E+00" cType="1" res="-6.6434134665260929E-03" rms="0.0e-00" purity="0.215435570071" nType="-99">
      </Node>
      <Node pos="r" depth="3" NCoef="0" IVar="-1" Cut="0.0000000000000000E+00" cType="1" res="-5.6119283805604169E-03" rms="0.0e-00" purity="0.229244456118" nType="-99">
      </Node>
    </Node>
    <Node pos="r" depth="2" NCoef="0" IVar="3" Cut="4.0433643341064453E+01" cType="1" res="-4.0907649944317841E-04" rms="0.0" purity="0.214064090593" nType="0">
      <Node pos="l" depth="3" NCoef="0" IVar="-1" Cut="0.0000000000000000E+00" cType="1" res="-4.3512095886024289E-03" rms="0.0e-00" purity="0.240305827699" nType="-99">
      </Node>
      <Node pos="r" depth="3" NCoef="0" IVar="-1" Cut="0.0000000000000000E+00" cType="1" res="-1.2218320887289100E-03" rms="0.0e-00" purity="0.193832800205" nType="-99">
      </Node>
    </Node>
  </Node>
  <Node pos="r" depth="1" NCoef="0" IVar="2" Cut="1.2827397155761719E+02" cType="1" res="1.8947307827156263E-04" rms="0.0" purity="0.117122570074" nType="0">
    <Node pos="l" depth="2" NCoef="0" IVar="2" Cut="5.1952819824218750E+01" cType="1" res="2.4260098014297198E-04" rms="0.0" purity="0.107067156543" nType="0">
      <Node pos="l" depth="3" NCoef="0" IVar="-1" Cut="0.0000000000000000E+00" cType="1" res="-1.5278548221236839E-03" rms="0.0e-00" purity="0.196268112957" nType="-99">
      </Node>
      <Node pos="r" depth="3" NCoef="0" IVar="-1" Cut="0.0000000000000000E+00" cType="1" res="2.0662429036311441E-03" rms="0.0e-00" purity="0.0904729341224" nType="-99">
      </Node>
    </Node>
    <Node pos="r" depth="2" NCoef="0" IVar="-1" Cut="0.0000000000000000E+00" cType="1" res="-4.5422822742383897E-03" rms="0.0e-00" purity="0.229290815772" nType="-99">
    </Node>
  </Node>
</Node>
</BinaryTree>
<BinaryTree type="DecisionTree" boostWeight="1.0" itree="20">
<Node pos="s" depth="0" NCoef="0" IVar="3" Cut="4.7071437835693359E+01" cType="1" res="7.4188649207285263E-07" rms="0.0" purity="0.150489783671" nType="0">
  <Node pos="l" depth="1" NCoef="0" IVar="0" Cut="3.0295025634765625E+02" cType="1" res="-4.9254387958438744E-04" rms="0.0" purity="0.22078262799" nType="0">
    <Node pos="l" depth="2" NCoef="0" IVar="4" Cut="2.5738265991210938E+01" cType="1" res="-1.2348810665597405E-03" rms="0.0" purity="0.221750053071" nType="0">
      <Node pos="l" depth="3" NCoef="0" IVar="-1" Cut="0.0000000000000000E+00" cType="1" res="-6.7521953319393917E-03" rms="0.0e-00" purity="0.198876535581" nType="-99">
      </Node>
      <Node pos="r" depth="3" NCoef="0" IVar="-1" Cut="0.0000000000000000E+00" cType="1" res="-4.7949564121957979E-03" rms="0.0e-00" purity="0.237286295781" nType="-99">
      </Node>
    </Node>
    <Node pos="r" depth="2" NCoef="0" IVar="7" Cut="1.5000000000000000E+00" cType="1" res="-3.3429096411288398E-04" rms="0.0" purity="0.210441563058" nType="0">
      <Node pos="l" depth="3" NCoef="0" IVar="-1" Cut="0.0000000000000000E+00" cType="1" res="-3.9463602395947237E-03" rms="0.0e-00" purity="0.235756526653" nType="-99">
      </Node>
      <Node pos="r" depth="3" NCoef="0" IVar="-1" Cut="0.0000000000000000E+00" cType="1" res="-7.3855410819190649E-04" rms="0.0e-00" purity="0.189128846925" nType="-99">
      </Node>
    </Node>
  </Node>
  <Node pos="r" depth="1" NCoef="0" IVar="7" Cut="1.5000000000000000E+00" cType="1" res="2.0729546713108487E-04" rms="0.0" purity="0.110776637916" nType="0">
    <Node pos="l" depth="2" NCoef="0" IVar="4" Cut="3.2232940673828125E+01" cType="1" res="-4.4701197165413801E-05" rms="0.0" purity="0.158966335447" nType="0">
      <Node pos="l" depth="3" NCoef="0" IVar="-1" Cut="0.0000000000000000E+00" cType="1" res="-2.0415990485101051E-03" rms="0.0e-00" purity="0.206694347626" nType="-99">
      </Node>
      <Node pos="r" depth="3" NCoef="0" IVar="-1" Cut="0.0000000000000000E+00" cType="1" res="1.4504810824954640E-03" rms="0.0e-00" purity="0.107371259976" nType="-99">
      </Node>
    </Node>
    <Node pos="r" depth="2" NCoef="0" IVar="2" Cut="1.2680468750000000E+02" cType="1" res="3.2007896523750397E-04" rms="0.0" purity="0.0862832863337" nType="0">
      <Node pos="l" depth="3" NCoef="0" IVar="-1" Cut="0.0000000000000000E+00" cType="1" res="2.5272230382594944E-03" rms="0.0e-00" purity="0.073287280085" nType="-99">
      </Node>
      <Node pos="r" depth="3" NCoef="0" IVar="-1" Cut="0.0000000000000000E+00" cType="1" res="-3.4442869662487116E-03" rms="0.0e-00" purity="0.219494108396" nType="-99">
      </Node>
    </Node>
  </Node>
</Node>
</BinaryTree>
<BinaryTree type="DecisionTree" boostWeight="1.0" itree="21">
<Node pos="s" depth="0" NCoef="0" IVar="6" Cut="3.5000000000000000E+00" cType="1" res="7.6099919408592910E-07" rms="0.0" purity="0.149846842809" nType="0">
  <Node pos="l" depth="1" NCoef="0" IVar="7" Cut="1.5000000000000000E+00" cType="1" res="-3.2981424253082344E-04" rms="0.0" purity="0.197593035885" nType="0">
    <Node pos="l" depth="2" NCoef="0" IVar="0" Cut="3.5308935546875000E+02" cType="1" res="-6.4072952961227747E-04" rms="0.0" purity="0.221287153806" nType="0">
      <Node pos="l" depth="3" NCoef="0" IVar="-1" Cut="0.0000000000000000E+00" cType="1" res="-5.4887985387359972E-03" rms="0.0e-00" purity="0.228463478075" nType="-99">
      </Node>
      <Node pos="r" depth="3" NCoef="0" IVar="-1" Cut="0.0000000000000000E+00" cType="1" res="-1.9176451467058527E-03" rms="0.0e-00" purity="0.198772241499" nType="-99">
      </Node>
    </Node>
    <Node pos="r" depth="2" NCoef="0" IVar="3" Cut="4.0375091552734375E+01" cType="1" res="-9.1656244505365110E-05" rms="0.0" purity="0.170144649329" nType="0">
      <Node pos="l" depth="3" NCoef="0" IVar="-1" Cut="0.0000000000000000E+00" cType="1" res="-3.7907965704307173E-03" rms="0.0e-00" purity="0.238429753408" nType="-99">
      </Node>
      <Node pos="r" depth="3" NCoef="0" IVar="-1" Cut="0.0000000000000000E+00" cType="1" res="4.7829778425405106E-04" rms="0.0e-00" purity="0.142845530336" nType="-99">
      </Node>
    </Node>
  </Node>
  <Node pos="r" depth="1" NCoef="0" IVar="3" Cut="4.2272094726562500E+01" cType="1" res="1.9004763962698925E-04" rms="0.0" purity="0.115509939758" nType="0">
    <Node pos="l" depth="2" NCoef="0" IVar="5" Cut="2.3697447776794434E+00" cType="1" res="-3.0606316513069934E-04" rms="0.0" purity="0.210168634155" nType="0">
      <Node pos="l" depth="3" NCoef="0" IVar="-1" Cut="0.0000000000000000E+00" cType="1" res="-7.4630946076342255E-04" rms="0.0e-00" purity="0.190303392969" nType="-99">
      </Node>
      <Node pos="r" depth="3" NCoef="0" IVar="-1" Cut="0.0000000000000000E+00" cType="1" res="-3.5707426147316952E-03" rms="0.0e-00" purity="0.238027500109" nType="-99">
      </Node>
    </Node>
    <Node pos="r" depth="2" NCoef="0" IVar="0" Cut="4.6351519775390625E+02" cType="1" res="3.0811064856934385E-04" rms="0.0" purity="0.0878269858896" nType="0">
      <Node pos="l" depth="3" NCoef="0" IVar="-1" Cut="0.0000000000000000E+00" cType="1" res="7.3741128048556109E-04" rms="0.0e-00" purity="0.131363629592" nType="-99">
      </Node>
      <Node pos="r" depth="3" NCoef="0" IVar="-1" Cut="0.0000000000000000E+00" cType="1" res="2.5160735020595890E-03" rms="0.0e-00" purity="0.0719969086077" nType="-99">
      </Node>
    </Node>
  </Node>
</Node>
</BinaryTree>
<BinaryTree type="DecisionTree" boostWeight="1.0" itree="22">
<Node pos="s" depth="0" NCoef="0" IVar="1" Cut="3.4060306549072266E+00" cType="1" res="7.7401717038271706E-07" rms="0.0" purity="0.149304104255" nType="0">
  <Node pos="l" depth="1" NCoef="0" IVar="2" Cut="5.6348625183105469E+01" cType="1" res="4.0125282714533316E-05" rms="0.0" purity="0.143484604933" nType="0">
    <Node pos="l" depth="2" NCoef="0" IVar="3" Cut="5.0379714965820312E+01" cType="1" res="-4.6530849779644041E-04" rms="0.0" purity="0.211856046997" nType="0">
      <Node pos="l" depth="3" NCoef="0" IVar="-1" Cut="0.0000000000000000E+00" cType="1" res="-3.7915754453508293E-03" rms="0.0e-00" purity="0.232524205757" nType="-99">
      </Node>
      <Node pos="r" depth="3" NCoef="0" IVar="-1" Cut="0.0000000000000000E+00" cType="1" res="-2.4776350275743791E-04" rms="0.0e-00" purity="0.158184361412" nType="-99">
      </Node>
    </Node>
    <Node pos="r" depth="2" NCoef="0" IVar="6" Cut="3.5000000000000000E+00" cType="1" res="1.5627905615010258E-04" rms="0.0" purity="0.122637955189" nType="0">
      <Node pos="l" depth="3" NCoef="0" IVar="-1" Cut="0.0000000000000000E+00" cType="1" res="-6.9148809465924862E-04" rms="0.0e-00" purity="0.174385271735" nType="-99">
      </Node>
      <Node pos="r" depth="3" NCoef="0" IVar="-1" Cut="0.0000000000000000E+00" cType="1" res="2.0077397433919900E-03" rms="0.0e-00" purity="0.0901844516419" nType="-99">
      </Node>
    </Node>
  </Node>
  <Node pos="r" depth="1" NCoef="0" IVar="-1" Cut="0.0000000000000000E+00" cType="1" res="-7.9890872246366051E-03" rms="0.0e-00" purity="0.200252038005" nType="-99">
  </Node>
</Node>
</BinaryTree>
<BinaryTree type="DecisionTree" boostWeight="1.0" itree="23">
<Node pos="s" depth="0" NCoef="0" IVar="6" Cut="3.5000000000000000E+00" cType="1" res="7.8429941557598658E-07" rms="0.0" purity="0.14880285128" nType="0">
  <Node pos="l" depth="1" NCoef="0" IVar="4" Cut="3.3230998992919922E+01" cType="1" res="-3.1808128589250954E-04" rms="0.0" purity="0.196530272203" nType="0">
    <Node pos="l" depth="2" NCoef="0" IVar="3" Cut="6.6068374633789062E+01" cType="1" res="-6.3665341805312515E-04" rms="0.0" purity="0.227186020368" nType="0">
      <Node pos="l" depth="3" NCoef="0" IVar="-1" Cut="0.0000000000000000E+00" cType="1" res="-4.2384798672644511E-03" rms="0.0e-00" purity="0.234942563691" nType="-99">
      </Node>
      <Node pos="r" depth="3" NCoef="0" IVar="-1" Cut="0.0000000000000000E+00" cType="1" res="-6.1366709542594951E-04" rms="0.0e-00" purity="0.179856211051" nType="-99">
      </Node>
    </Node>
    <Node pos="r" depth="2" NCoef="0" IVar="5" Cut="2.4704833030700684E+00" cType="1" res="1.7766006979280896E-04" rms="0.0" purity="0.120119014608" nType="0">
      <Node pos="l" depth="3" NCoef="0" IVar="-1" Cut="0.0000000000000000E+00" cType="1" res="1.8080153689381396E-03" rms="0.0e-00" purity="0.0997603201771" nType="-99">
      </Node>
      <Node pos="r" depth="3" NCoef="0" IVar="-1" Cut="0.0000000000000000E+00" cType="1" res="-8.4263493775338502E-04" rms="0.0e-00" purity="0.172312460637" nType="-99">
      </Node>
    </Node>
  </Node>
  <Node pos="r" depth="1" NCoef="0" IVar="3" Cut="4.2272094726562500E+01" cType="1" res="1.8336601690199821E-04" rms="0.0" purity="0.114963651745" nType="0">
    <Node pos="l" depth="2" NCoef="0" IVar="4" Cut="2.7243167877197266E+01" cType="1" res="-2.9744987375626957E-04" rms="0.0" purity="0.209463206152" nType="0">
      <Node pos="l" depth="3" NCoef="0" IVar="-1" Cut="0.0000000000000000E+00" cType="1" res="-3.0757557624143364E-03" rms="0.0e-00" purity="0.235349280569" nType="-99">
      </Node>
      <Node pos="r" depth="3" NCoef="0" IVar="-1" Cut="0.0000000000000000E+00" cType="1" res="1.4731622964913660E-04" rms="0.0e-00" purity="0.166139056589" nType="-99">
      </Node>
    </Node>
    <Node pos="r" depth="2" NCoef="0" IVar="4" Cut="2.8923927307128906E+01" cType="1" res="2.9778918659316981E-04" rms="0.0" purity="0.0876316055278" nType="0">
      <Node pos="l" depth="3" NCoef="0" IVar="-1" Cut="0.0000000000000000E+00" cType="1" res="4.2952495815244869E-04" rms="0.0e-00" purity="0.14327894971" nType="-99">
      </Node>
      <Node pos="r" depth="3" NCoef="0" IVar="-1" Cut="0.0000000000000000E+00" cType="1" res="2.8850483048167468E-03" rms="0.0e-00" purity="0.0568922483387" nType="-99">
      </Node>
    </Node>
  </Node>
</Node>
</BinaryTree>
<BinaryTree type="DecisionTree" boostWeight="1.0" itree="24">
<Node pos="s" depth="0" NCoef="0" IVar="4" Cut="3.1402902603149414E+01" cType="1" res="8.0076433103181532E-07" rms="0.0" purity="0.148209962679" nType="0">
  <Node pos="l" depth="1" NCoef="0" IVar="6" Cut="3.5000000000000000E+00" cType="1" res="-2.9550709960890183E-04" rms="0.0" purity="0.197530920499" nType="0">
    <Node pos="l" depth="2" NCoef="0" IVar="4" Cut="2.4267326354980469E+01" cType="1" res="-6.6161700152941069E-04" rms="0.0" purity="0.229091546191" nType="0">
      <Node pos="l" depth="3" NCoef="0" IVar="-1" Cut="0.0000000000000000E+00" cType="1" res="-4.6041771862263148E-03" rms="0.0e-00" purity="0.231579684398" nType="-99">
      </Node>
      <Node pos="r" depth="3" NCoef="0" IVar="-1" Cut="0.0000000000000000E+00" cType="1" res="-2.3329289948893694E-03" rms="0.0e-00" purity="0.21996058836" nType="-99">
      </Node>
    </Node>
    <Node pos="r" depth="2" NCoef="0" IVar="2" Cut="4.2117820739746094E+01" cType="1" res="-5.6603587482761535E-05" rms="0.0" purity="0.166657776014" nType="0">
      <Node pos="l" depth="3" NCoef="0" IVar="-1" Cut="0.0000000000000000E+00" cType="1" res="-4.2906496564791346E-03" rms="0.0e-00" purity="0.23692587595" nType="-99">
      </Node>
      <Node pos="r" depth="3" NCoef="0" IVar="-1" Cut="0.0000000000000000E+00" cType="1" res="1.1477036615518659E-04" rms="0.0e-00" purity="0.154990316463" nType="-99">
      </Node>
    </Node>
  </Node>
  <Node pos="r" depth="1" NCoef="0" IVar="1" Cut="3.0381054878234863E+00" cType="1" res="3.0711620699928112E-04" rms="0.0" purity="0.0840966251404" nType="0">
    <Node pos="l" depth="2" NCoef="0" IVar="0" Cut="3.8866656494140625E+02" cType="1" res="3.4901786902067158E-04" rms="0.0" purity="0.0743278096924" nType="0">
      <Node pos="l" depth="3" NCoef="0" IVar="-1" Cut="0.0000000000000000E+00" cType="1" res="-6.8582609131846039E-05" rms="0.0e-00" purity="0.160149599012" nType="-99">
      </Node>
      <Node pos="r" depth="3" NCoef="0" IVar="-1" Cut="0.0000000000000000E+00" cType="1" res="2.9602458743206959E-03" rms="0.0e-00" purity="0.0547921449721" nType="-99">
      </Node>
    </Node>
    <Node pos="r" depth="2" NCoef="0" IVar="-1" Cut="0.0000000000000000E+00" cType="1" res="-1.9575892488676136E-03" rms="0.0e-00" purity="0.202394256872" nType="-99">
    </Node>
  </Node>
</Node>
</BinaryTree>
<BinaryTree type="DecisionTree" boostWeight="1.0" itree="25">
<Node pos="s" depth="0" NCoef="0" IVar="1" Cut="3.3937544822692871E+00" cType="1" res="8.1603719778235842E-07" rms="0.0" purity="0.147656488903" nType="0">
  <Node pos="l" depth="1" NCoef="0" IVar="7" Cut="1.5000000000000000E+00" cType="1" res="3.9831808664958684E-05" rms="0.0" purity="0.141924658046" nType="0">
    <Node pos="l" depth="2" NCoef="0" IVar="3" Cut="4.7778278350830078E+01" cType="1" res="-2.8063442530144270E-04" rms="0.0" purity="0.188638797507" nType="0">
      <Node pos="l" depth="3" NCoef="0" IVar="-1" Cut="0.0000000000000000E+00" cType="1" res="-4.1887473222956438E-03" rms="0.0e-00" purity="0.231403588579" nType="-99">
      </Node>
      <Node pos="r" depth="3" NCoef="0" IVar="-1" Cut="0.0000000000000000E+00" cType="1" res="-3.7011437214422654E-05" rms="0.0e-00" purity="0.151089773206" nType="-99">
      </Node>
    </Node>
    <Node pos="r" depth="2" NCoef="0" IVar="4" Cut="2.7923557281494141E+01" cType="1" res="1.9347403193535259E-04" rms="0.0" purity="0.114348386123" nType="0">
      <Node pos="l" depth="3" NCoef="0" IVar="-1" Cut="0.0000000000000000E+00" cType="1" res="-6.7947245204508873E-04" rms="0.0e-00" purity="0.179798875501" nType="-99">
      </Node>
      <Node pos="r" depth="3" NCoef="0" IVar="-1" Cut="0.0000000000000000E+00" cType="1" res="2.4527013719833307E-03" rms="0.0e-00" purity="0.0729678612638" nType="-99">
      </Node>
    </Node>
  </Node>
  <Node pos="r" depth="1" NCoef="0" IVar="-1" Cut="0.0000000000000000E+00" cType="1" res="-7.4402002833678033E-03" rms="0.0e-00" purity="0.20289775193" nType="-99">
  </Node>
</Node>
</BinaryTree>
<BinaryTree type="DecisionTree" boostWeight="1.0" itree="26">
<Node pos="s" depth="0" NCoef="0" IVar="0" Cut="3.8179980468750000E+02" cType="1" res="8.2767346758208245E-07" rms="0.0" purity="0.147109675201" nType="0">
  <Node pos="l" depth="1" NCoef="0" IVar="4" Cut="2.7924764633178711E+01" cType="1" res="-5.3734134591741623E-04" rms="0.0" purity="0.219554510372" nType="0">
    <Node pos="l" depth="2" NCoef="0" IVar="2" Cut="4.7401763916015625E+01" cType="1" res="-8.5966442510302461E-04" rms="0.0" purity="0.233600320747" nType="0">
      <Node pos="l" depth="3" NCoef="0" IVar="-1" Cut="0.0000000000000000E+00" cType="1" res="-6.3553192100892306E-03" rms="0.0e-00" purity="0.207572796012" nType="-99">
      </Node>
      <Node pos="r" depth="3" NCoef="0" IVar="-1" Cut="0.0000000000000000E+00" cType="1" res="-3.6374714803651311E-03" rms="0.0e-00" purity="0.234131912652" nType="-99">
      </Node>
    </Node>
    <Node pos="r" depth="2" NCoef="0" IVar="7" Cut="1.5000000000000000E+00" cType="1" res="-2.0297004060838036E-04" rms="0.0" purity="0.189369116174" nType="0">
      <Node pos="l" depth="3" NCoef="0" IVar="-1" Cut="0.0000000000000000E+00" cType="1" res="-3.0230979796589215E-03" rms="0.0e-00" purity="0.223635280807" nType="-99">
      </Node>
      <Node pos="r" depth="3" NCoef="0" IVar="-1" Cut="0.0000000000000000E+00" cType="1" res="2.8401822165136553E-04" rms="0.0e-00" purity="0.154195457131" nType="-99">
      </Node>
    </Node>
  </Node>
  <Node pos="r" depth="1" NCoef="0" IVar="3" Cut="4.7110706329345703E+01" cType="1" res="1.7423903121858961E-04" rms="0.0" purity="0.114991323835" nType="0">
    <Node pos="l" depth="2" NCoef="0" IVar="3" Cut="3.4123893737792969E+01" cType="1" res="-1.9676743656654231E-04" rms="0.0" purity="0.19458188716" nType="0">
      <Node pos="l" depth="3" NCoef="0" IVar="-1" Cut="0.0000000000000000E+00" cType="1" res="-3.0390324852296651E-03" rms="0.0e-00" purity="0.232465607439" nType="-99">
      </Node>
      <Node pos="r" depth="3" NCoef="0" IVar="-1" Cut="0.0000000000000000E+00" cType="1" res="-5.2055690625295195E-04" rms="0.0e-00" purity="0.180482455188" nType="-99">
      </Node>
    </Node>
    <Node pos="r" depth="2" NCoef="0" IVar="2" Cut="1.2837472534179688E+02" cType="1" res="2.8222121678101993E-04" rms="0.0" purity="0.0881483027445" nType="0">
      <Node pos="l" depth="3" NCoef="0" IVar="-1" Cut="0.0000000000000000E+00" cType="1" res="2.3430388200136360E-03" rms="0.0e-00" purity="0.0755306649774" nType="-99">
      </Node>
      <Node pos="r" depth="3" NCoef="0" IVar="-1" Cut="0.0000000000000000E+00" cType="1" res="-3.5920313328261996E-03" rms="0.0e-00" purity="0.220832247479" nType="-99">
      </Node>
    </Node>
  </Node>
</Node>
</BinaryTree>
<BinaryTree type="DecisionTree" boostWeight="1.0" itree="27">
<Node pos="s" depth="0" NCoef="0" IVar="0" Cut="3.4089657592773438E+02" cType="1" res="8.4209885710451279E-07" rms="0.0" purity="0.146518464384" nType="0">
  <Node pos="l" depth="1" NCoef="0" IVar="0" Cut="2.8379290771484375E+02" cType="1" res="-7.1257458489283067E-04" rms="0.0" purity="0.229063468672" nType="0">
    <Node pos="l" depth="2" NCoef="0" IVar="1" Cut="2.2606239318847656E+00" cType="1" res="-1.1423216996454409E-03" rms="0.0" purity="0.219917181049" nType="0">
      <Node pos="l" depth="3" NCoef="0" IVar="-1" Cut="0.0000000000000000E+00" cType="1" res="-5.7823518979672143E-03" rms="0.0e-00" purity="0.212253467735" nType="-99">
      </Node>
      <Node pos="r" depth="3" NCoef="0" IVar="-1" Cut="0.0000000000000000E+00" cType="1" res="-4.8540821269779256E-03" rms="0.0e-00" purity="0.225331347205" nType="-99">
      </Node>
    </Node>
    <Node pos="r" depth="2" NCoef="0" IVar="3" Cut="4.0466285705566406E+01" cType="1" res="-4.9288881953780614E-04" rms="0.0" purity="0.223593525817" nType="0">
      <Node pos="l" depth="3" NCoef="0" IVar="-1" Cut="0.0000000000000000E+00" cType="1" res="-3.9651847601807630E-03" rms="0.0e-00" purity="0.235563566224" nType="-99">
      </Node>
      <Node pos="r" depth="3" NCoef="0" IVar="-1" Cut="0.0000000000000000E+00" cType="1" res="-1.6527514256537757E-03" rms="0.0e-00" purity="0.210375535576" nType="-99">
      </Node>
    </Node>
  </Node>
  <Node pos="r" depth="1" NCoef="0" IVar="4" Cut="2.7219938278198242E+01" cType="1" res="1.2690527135278445E-04" rms="0.0" purity="0.124406968613" nType="0">
    <Node pos="l" depth="2" NCoef="0" IVar="5" Cut="2.3073163032531738E+00" cType="1" res="-2.1784325304327265E-04" rms="0.0" purity="0.190806354068" nType="0">
      <Node pos="l" depth="3" NCoef="0" IVar="-1" Cut="0.0000000000000000E+00" cType="1" res="3.9514942434860476E-06" rms="0.0e-00" purity="0.162191581999" nType="-99">
      </Node>
      <Node pos="r" depth="3" NCoef="0" IVar="-1" Cut="0.0000000000000000E+00" cType="1" res="-3.1782111341920913E-03" rms="0.0e-00" purity="0.22269765257" nType="-99">
      </Node>
    </Node>
    <Node pos="r" depth="2" NCoef="0" IVar="2" Cut="1.3449398803710938E+02" cType="1" res="2.8460509426220395E-04" rms="0.0" purity="0.0883990466867" nType="0">
      <Node pos="l" depth="3" NCoef="0" IVar="-1" Cut="0.0000000000000000E+00" cType="1" res="2.2757074924618682E-03" rms="0.0e-00" purity="0.0777724340185" nType="-99">
      </Node>
      <Node pos="r" depth="3" NCoef="0" IVar="-1" Cut="0.0000000000000000E+00" cType="1" res="-3.7425005313431307E-03" rms="0.0e-00" purity="0.223558675822" nType="-99">
      </Node>
    </Node>
  </Node>
</Node>
</BinaryTree>
<BinaryTree type="DecisionTree" boostWeight="1.0" itree="28">
<Node pos="s" depth="0" NCoef="0" IVar="3" Cut="4.7796146392822266E+01" cType="1" res="8.5531310575507470E-07" rms="0.0" purity="0.145930561028" nType="0">
  <Node pos="l" depth="1" NCoef="0" IVar="2" Cut="9.8039833068847656E+01" cType="1" res="-4.2962619838446463E-04" rms="0.0" purity="0.21408874056" nType="0">
    <Node pos="l" depth="2" NCoef="0" IVar="0" Cut="3.0074548339843750E+02" cType="1" res="-3.5735382775224092E-04" rms="0.0" purity="0.209801101242" nType="0">
      <Node pos="l" depth="3" NCoef="0" IVar="-1" Cut="0.0000000000000000E+00" cType="1" res="-4.8272633333524976E-03" rms="0.0e-00" purity="0.22242851478" nType="-99">
      </Node>
      <Node pos="r" depth="3" NCoef="0" IVar="-1" Cut="0.0000000000000000E+00" cType="1" res="-1.1722246684557607E-03" rms="0.0e-00" purity="0.198761002435" nType="-99">
      </Node>
    </Node>
    <Node pos="r" depth="2" NCoef="0" IVar="-1" Cut="0.0000000000000000E+00" cType="1" res="-6.3468859755300526E-03" rms="0.0e-00" purity="0.210506002464" nType="-99">
    </Node>
  </Node>
  <Node pos="r" depth="1" NCoef="0" IVar="4" Cut="2.8421371459960938E+01" cType="1" res="1.9118835106255404E-04" rms="0.0" purity="0.107392515718" nType="0">
    <Node pos="l" depth="2" NCoef="0" IVar="5" Cut="2.4770815372467041E+00" cType="1" res="-9.0428152809439414E-05" rms="0.0" purity="0.17041628837" nType="0">
      <Node pos="l" depth="3" NCoef="0" IVar="-1" Cut="0.0000000000000000E+00" cType="1" res="1.7731153822467065E-04" rms="0.0e-00" purity="0.152011029359" nType="-99">
      </Node>
      <Node pos="r" depth="3" NCoef="0" IVar="-1" Cut="0.0000000000000000E+00" cType="1" res="-2.7893143172890147E-03" rms="0.0e-00" purity="0.217101092955" nType="-99">
      </Node>
    </Node>
    <Node pos="r" depth="2" NCoef="0" IVar="7" Cut="1.5000000000000000E+00" cType="1" res="3.2178182325060380E-04" rms="0.0" purity="0.0743385760221" nType="0">
      <Node pos="l" depth="3" NCoef="0" IVar="-1" Cut="0.0000000000000000E+00" cType="1" res="9.7402861959489746E-04" rms="0.0e-00" purity="0.117942958448" nType="-99">
      </Node>
      <Node pos="r" depth="3" NCoef="0" IVar="-1" Cut="0.0000000000000000E+00" cType="1" res="2.8573644983087587E-03" rms="0.0e-00" purity="0.0545233368905" nType="-99">
      </Node>
    </Node>
  </Node>
</Node>
</BinaryTree>
<BinaryTree type="DecisionTree" boostWeight="1.0" itree="29">
<Node pos="s" depth="0" NCoef="0" IVar="3" Cut="4.6866130828857422E+01" cType="1" res="8.6419800329496184E-07" rms="0.0" purity="0.145434470197" nType="0">
  <Node pos="l" depth="1" NCoef="0" IVar="6" Cut="3.5000000000000000E+00" cType="1" res="-4.3638476348751225E-04" rms="0.0" purity="0.215463685577" nType="0">
    <Node pos="l" depth="2" NCoef="0" IVar="5" Cut="2.4615926742553711E+00" cType="1" res="-7.8788513096366742E-04" rms="0.0" purity="0.231414142859" nType="0">
      <Node pos="l" depth="3" NCoef="0" IVar="-1" Cut="0.0000000000000000E+00" cType="1" res="-2.6854441615375181E-03" rms="0.0e-00" purity="0.230265324344" nType="-99">
      </Node>
      <Node pos="r" depth="3" NCoef="0" IVar="-1" Cut="0.0000000000000000E+00" cType="1" res="-5.7397449310522004E-03" rms="0.0e-00" purity="0.211610285446" nType="-99">
      </Node>
    </Node>
    <Node pos="r" depth="2" NCoef="0" IVar="4" Cut="2.7243167877197266E+01" cType="1" res="-1.8262496820045182E-04" rms="0.0" purity="0.193026515469" nType="0">
      <Node pos="l" depth="3" NCoef="0" IVar="-1" Cut="0.0000000000000000E+00" cType="1" res="-2.4457598419783456E-03" rms="0.0e-00" purity="0.227481323543" nType="-99">
      </Node>
      <Node pos="r" depth="3" NCoef="0" IVar="-1" Cut="0.0000000000000000E+00" cType="1" res="5.2748091795587341E-04" rms="0.0e-00" purity="0.149436069921" nType="-99">
      </Node>
    </Node>
  </Node>
  <Node pos="r" depth="1" NCoef="0" IVar="7" Cut="1.5000000000000000E+00" cType="1" res="1.8092345388842247E-04" rms="0.0" purity="0.10869227155" nType="0">
    <Node pos="l" depth="2" NCoef="0" IVar="0" Cut="3.6217730712890625E+02" cType="1" res="-5.1388335353749202E-05" rms="0.0" purity="0.156204475969" nType="0">
      <Node pos="l" depth="3" NCoef="0" IVar="-1" Cut="0.0000000000000000E+00" cType="1" res="-3.2710401378491802E-03" rms="0.0e-00" purity="0.231618197495" nType="-99">
      </Node>
      <Node pos="r" depth="3" NCoef="0" IVar="-1" Cut="0.0000000000000000E+00" cType="1" res="5.1509296225270382E-04" rms="0.0e-00" purity="0.132610231851" nType="-99">
      </Node>
    </Node>
    <Node pos="r" depth="2" NCoef="0" IVar="5" Cut="2.4548091888427734E+00" cType="1" res="2.8513034789956840E-04" rms="0.0" purity="0.0848862748822" nType="0">
      <Node pos="l" depth="3" NCoef="0" IVar="-1" Cut="0.0000000000000000E+00" cType="1" res="2.4195774838069025E-03" rms="0.0e-00" purity="0.0703757017919" nType="-99">
      </Node>
      <Node pos="r" depth="3" NCoef="0" IVar="-1" Cut="0.0000000000000000E+00" cType="1" res="4.0789535388246502E-04" rms="0.0e-00" purity="0.132036717512" nType="-99">
      </Node>
    </Node>
  </Node>
</Node>
</BinaryTree>
<BinaryTree type="DecisionTree" boostWeight="1.0" itree="30">
<Node pos="s" depth="0" NCoef="0" IVar="0" Cut="3.8552618408203125E+02" cType="1" res="8.7046649488470873E-07" rms="0.0" purity="0.144949896954" nType="0">
  <Node pos="l" depth="1" NCoef="0" IVar="5" Cut="2.7163610458374023E+00" cType="1" res="-4.9436410457320986E-04" rms="0.0" purity="0.215625872562" nType="0">
    <Node pos="l" depth="2" NCoef="0" IVar="1" Cut="1.4028763771057129E+00" cType="1" res="-3.9191846185825422E-04" rms="0.0" purity="0.210343641739" nType="0">
      <Node pos="l" depth="3" NCoef="0" IVar="-1" Cut="0.0000000000000000E+00" cType="1" res="-4.2648195092578247E-03" rms="0.0e-00" purity="0.22376836867" nType="-99">
      </Node>
      <Node pos="r" depth="3" NCoef="0" IVar="-1" Cut="0.0000000000000000E+00" cType="1" res="-1.6636626610919900E-03" rms="0.0e-00" purity="0.205402926102" nType="-99">
      </Node>
    </Node>
    <Node pos="r" depth="2" NCoef="0" IVar="-1" Cut="0.0000000000000000E+00" cType="1" res="-5.3393659803379519E-03" rms="0.0e-00" purity="0.216747003976" nType="-99">
    </Node>
  </Node>
  <Node pos="r" depth="1" NCoef="0" IVar="3" Cut="5.0379096984863281E+01" cType="1" res="1.6838718569276784E-04" rms="0.0" purity="0.113148338581" nType="0">
    <Node pos="l" depth="2" NCoef="0" IVar="2" Cut="4.3952182769775391E+01" cType="1" res="-1.3707692496917431E-04" rms="0.0" purity="0.183186199121" nType="0">
      <Node pos="l" depth="3" NCoef="0" IVar="-1" Cut="0.0000000000000000E+00" cType="1" res="-3.3575460195697086E-03" rms="0.0e-00" purity="0.234569038606" nType="-99">
      </Node>
      <Node pos="r" depth="3" NCoef="0" IVar="-1" Cut="0.0000000000000000E+00" cType="1" res="-3.0089989434064238E-04" rms="0.0e-00" purity="0.170903536785" nType="-99">
      </Node>
    </Node>
    <Node pos="r" depth="2" NCoef="0" IVar="2" Cut="1.2837472534179688E+02" cType="1" res="2.8099270795911856E-04" rms="0.0" purity="0.0839820634676" nType="0">
      <Node pos="l" depth="3" NCoef="0" IVar="-1" Cut="0.0000000000000000E+00" cType="1" res="2.3936209328531332E-03" rms="0.0e-00" purity="0.0711183710031" nType="-99">
      </Node>
      <Node pos="r" depth="3" NCoef="0" IVar="-1" Cut="0.0000000000000000E+00" cType="1" res="-3.3180113063710709E-03" rms="0.0e-00" purity="0.218407089362" nType="-99">
      </Node>
    </Node>
  </Node>
</Node>
</BinaryTree>
<BinaryTree type="DecisionTree" boostWeight="1.0" itree="31">
<Node pos="s" depth="0" NCoef="0" IVar="3" Cut="4.0367572784423828E+01" cType="1" res="8.8027987289639094E-07" rms="0.0" purity="0.144456382031" nType="0">
  <Node pos="l" depth="1" NCoef="0" IVar="0" Cut="3.0295025634765625E+02" cType="1" res="-5.7719380256556819E-04" rms="0.0" purity="0.225297979376" nType="0">
    <Node pos="l" depth="2" NCoef="0" IVar="-1" Cut="0.0000000000000000E+00" cType="1" res="-5.2358677839779329E-03" rms="0.0e-00" purity="0.205466751878" nType="-99">
    </Node>
    <Node pos="r" depth="2" NCoef="0" IVar="7" Cut="1.5000000000000000E+00" cType="1" res="-4.2427850074736018E-04" rms="0.0" purity="0.221681765941" nType="0">
      <Node pos="l" depth="3" NCoef="0" IVar="-1" Cut="0.0000000000000000E+00" cType="1" res="-4.0060794776878182E-03" rms="0.0e-00" purity="0.236410309219" nType="-99">
      </Node>
      <Node pos="r" depth="3" NCoef="0" IVar="-1" Cut="0.0000000000000000E+00" cType="1" res="-1.1683681714164782E-03" rms="0.0e-00" purity="0.205588789588" nType="-99">
      </Node>
    </Node>
  </Node>
  <Node pos="r" depth="1" NCoef="0" IVar="2" Cut="1.2731417083740234E+02" cType="1" res="1.2849180688696417E-04" rms="0.0" purity="0.120206552559" nType="0">
    <Node pos="l" depth="2" NCoef="0" IVar="7" Cut="1.5000000000000000E+00" cType="1" res="1.8585326083699687E-04" rms="0.0" purity="0.109755549481" nType="0">
      <Node pos="l" depth="3" NCoef="0" IVar="-1" Cut="0.0000000000000000E+00" cType="1" res="-3.9406998005023957E-04" rms="0.0e-00" purity="0.159589137352" nType="-99">
      </Node>
      <Node pos="r" depth="3" NCoef="0" IVar="-1" Cut="0.0000000000000000E+00" cType="1" res="2.0449308519730237E-03" rms="0.0e-00" purity="0.0840277142292" nType="-99">
      </Node>
    </Node>
    <Node pos="r" depth="2" NCoef="0" IVar="-1" Cut="0.0000000000000000E+00" cType="1" res="-4.5651600724671317E-03" rms="0.0e-00" purity="0.224469825697" nType="-99">
    </Node>
  </Node>
</Node>
</BinaryTree>
<BinaryTree type="DecisionTree" boostWeight="1.0" itree="32">
<Node pos="s" depth="0" NCoef="0" IVar="0" Cut="3.8182598876953125E+02" cType="1" res="8.8590016468641075E-07" rms="0.0" purity="0.14397273728" nType="0">
  <Node pos="l" depth="1" NCoef="0" IVar="2" Cut="5.8127075195312500E+01" cType="1" res="-4.9253343641462023E-04" rms="0.0" purity="0.215752426759" nType="0">
    <Node pos="l" depth="2" NCoef="0" IVar="2" Cut="4.5938964843750000E+01" cType="1" res="-1.0001085921836276E-03" rms="0.0" purity="0.226679015341" nType="0">
      <Node pos="l" depth="3" NCoef="0" IVar="-1" Cut="0.0000000000000000E+00" cType="1" res="-5.6510211560004808E-03" rms="0.0e-00" purity="0.211685859535" nType="-99">
      </Node>
      <Node pos="r" depth="3" NCoef="0" IVar="-1" Cut="0.0000000000000000E+00" cType="1" res="-3.7888999514431422E-03" rms="0.0e-00" purity="0.233058316808" nType="-99">
      </Node>
    </Node>
    <Node pos="r" depth="2" NCoef="0" IVar="1" Cut="3.1124796867370605E+00" cType="1" res="-3.1171080085287261E-04" rms="0.0" purity="0.203008089412" nType="0">
      <Node pos="l" depth="3" NCoef="0" IVar="-1" Cut="0.0000000000000000E+00" cType="1" res="-1.0571950717693638E-03" rms="0.0e-00" purity="0.193392821138" nType="-99">
      </Node>
      <Node pos="r" depth="3" NCoef="0" IVar="-1" Cut="0.0000000000000000E+00" cType="1" res="-4.6694028584832840E-03" rms="0.0e-00" purity="0.221269042174" nType="-99">
      </Node>
    </Node>
  </Node>
  <Node pos="r" depth="1" NCoef="0" IVar="3" Cut="5.3272544860839844E+01" cType="1" res="1.5993138763545985E-04" rms="0.0" purity="0.113456439671" nType="0">
    <Node pos="l" depth="2" NCoef="0" IVar="4" Cut="2.4512104034423828E+01" cType="1" res="-1.1176164030161800E-04" rms="0.0" purity="0.176503524441" nType="0">
      <Node pos="l" depth="3" NCoef="0" IVar="-1" Cut="0.0000000000000000E+00" cType="1" res="-2.8592394465217141E-03" rms="0.0e-00" purity="0.227268228434" nType="-99">
      </Node>
      <Node pos="r" depth="3" NCoef="0" IVar="-1" Cut="0.0000000000000000E+00" cType="1" res="3.4450426722369188E-04" rms="0.0e-00" purity="0.149230793661" nType="-99">
      </Node>
    </Node>
    <Node pos="r" depth="2" NCoef="0" IVar="1" Cut="3.0206489562988281E+00" cType="1" res="2.8271534737700558E-04" rms="0.0" purity="0.0815197990749" nType="0">
      <Node pos="l" depth="3" NCoef="0" IVar="-1" Cut="0.0000000000000000E+00" cType="1" res="2.3140634778740102E-03" rms="0.0e-00" purity="0.072184200835" nType="-99">
      </Node>
      <Node pos="r" depth="3" NCoef="0" IVar="-1" Cut="0.0000000000000000E+00" cType="1" res="-2.2264788123253854E-03" rms="0.0e-00" purity="0.200369810567" nType="-99">
      </Node>
    </Node>
  </Node>
</Node>
</BinaryTree>
<BinaryTree type="DecisionTree" boostWeight="1.0" itree="33">
<Node pos="s" depth="0" NCoef="0" IVar="6" Cut="3.5000000000000000E+00" cType="1" res="8.9312050748703434E-07" rms="0.0" purity="0.143469765307" nType="0">
  <Node pos="l" depth="1" NCoef="0" IVar="5" Cut="2.5990643501281738E+00" cType="1" res="-2.8410516446208684E-04" rms="0.0" purity="0.189332833591" nType="0">
    <Node pos="l" depth="2" NCoef="0" IVar="0" Cut="3.2077734375000000E+02" cType="1" res="-1.5383853532759050E-04" rms="0.0" purity="0.176386365979" nType="0">
      <Node pos="l" depth="3" NCoef="0" IVar="-1" Cut="0.0000000000000000E+00" cType="1" res="-3.4167897149131000E-03" rms="0.0e-00" purity="0.229296683109" nType="-99">
      </Node>
      <Node pos="r" depth="3" NCoef="0" IVar="-1" Cut="0.0000000000000000E+00" cType="1" res="1.2675539710564501E-04" rms="0.0e-00" purity="0.151005841915" nType="-99">
      </Node>
    </Node>
    <Node pos="r" depth="2" NCoef="0" IVar="4" Cut="3.0807315826416016E+01" cType="1" res="-8.0080338968030592E-04" rms="0.0" purity="0.216913144255" nType="0">
      <Node pos="l" depth="3" NCoef="0" IVar="-1" Cut="0.0000000000000000E+00" cType="1" res="-5.4520758652771961E-03" rms="0.0e-00" purity="0.214805583534" nType="-99">
      </Node>
      <Node pos="r" depth="3" NCoef="0" IVar="-1" Cut="0.0000000000000000E+00" cType="1" res="-1.9807088700213005E-03" rms="0.0e-00" purity="0.192233580147" nType="-99">
      </Node>
    </Node>
  </Node>
  <Node pos="r" depth="1" NCoef="0" IVar="1" Cut="3.1908078193664551E+00" cType="1" res="1.6408249793797408E-04" rms="0.0" purity="0.112007646821" nType="0">
    <Node pos="l" depth="2" NCoef="0" IVar="3" Cut="4.2273242950439453E+01" cType="1" res="2.0562999595187154E-04" rms="0.0" purity="0.103782523416" nType="0">
      <Node pos="l" depth="3" NCoef="0" IVar="-1" Cut="0.0000000000000000E+00" cType="1" res="-1.0981423080176933E-03" rms="0.0e-00" purity="0.201491290924" nType="-99">
      </Node>
      <Node pos="r" depth="3" NCoef="0" IVar="-1" Cut="0.0000000000000000E+00" cType="1" res="2.1145831643131401E-03" rms="0.0e-00" purity="0.0785756823724" nType="-99">
      </Node>
    </Node>
    <Node pos="r" depth="2" NCoef="0" IVar="-1" Cut="0.0000000000000000E+00" cType="1" res="-4.0119410841053336E-03" rms="0.0e-00" purity="0.232290837566" nType="-99">
    </Node>
  </Node>
</Node>
</BinaryTree>
<BinaryTree type="DecisionTree" boostWeight="1.0" itree="34">
<Node pos="s" depth="0" NCoef="0" IVar="4" Cut="3.1947618484497070E+01" cType="1" res="8.9753433579087680E-07" rms="0.0" purity="0.143006308987" nType="0">
  <Node pos="l" depth="1" NCoef="0" IVar="3" Cut="5.9721275329589844E+01" cType="1" res="-2.5573100931138541E-04" rms="0.0" purity="0.19027122442" nType="0">
    <Node pos="l" depth="2" NCoef="0" IVar="7" Cut="1.5000000000000000E+00" cType="1" res="-4.6369824306502678E-04" rms="0.0" purity="0.215742881946" nType="0">
      <Node pos="l" depth="3" NCoef="0" IVar="-1" Cut="0.0000000000000000E+00" cType="1" res="-4.1168802570131840E-03" rms="0.0e-00" purity="0.227751466544" nType="-99">
      </Node>
      <Node pos="r" depth="3" NCoef="0" IVar="-1" Cut="0.0000000000000000E+00" cType="1" res="-1.3179882431942347E-03" rms="0.0e-00" purity="0.19964352635" nType="-99">
      </Node>
    </Node>
    <Node pos="r" depth="2" NCoef="0" IVar="7" Cut="1.5000000000000000E+00" cType="1" res="6.2870136826882912E-05" rms="0.0" purity="0.139319239219" nType="0">
      <Node pos="l" depth="3" NCoef="0" IVar="-1" Cut="0.0000000000000000E+00" cType="1" res="-1.1729322142061342E-03" rms="0.0e-00" purity="0.186731503285" nType="-99">
      </Node>
      <Node pos="r" depth="3" NCoef="0" IVar="-1" Cut="0.0000000000000000E+00" cType="1" res="1.2187612588201787E-03" rms="0.0e-00" purity="0.113637237762" nType="-99">
      </Node>
    </Node>
  </Node>
  <Node pos="r" depth="1" NCoef="0" IVar="1" Cut="3.0148591995239258E+00" cType="1" res="2.8658237276685635E-04" rms="0.0" purity="0.0793726154487" nType="0">
    <Node pos="l" depth="2" NCoef="0" IVar="7" Cut="1.5000000000000000E+00" cType="1" res="3.2504154722189896E-04" rms="0.0" purity="0.0698572323592" nType="0">
      <Node pos="l" depth="3" NCoef="0" IVar="-1" Cut="0.0000000000000000E+00" cType="1" res="1.0568293759106659E-03" rms="0.0e-00" purity="0.114155399859" nType="-99">
      </Node>
      <Node pos="r" depth="3" NCoef="0" IVar="-1" Cut="0.0000000000000000E+00" cType="1" res="2.9480140660878861E-03" rms="0.0e-00" purity="0.0496387340344" nType="-99">
      </Node>
    </Node>
    <Node pos="r" depth="2" NCoef="0" IVar="-1" Cut="0.0000000000000000E+00" cType="1" res="-1.4944720785254788E-03" rms="0.0e-00" purity="0.19157005965" nType="-99">
    </Node>
  </Node>
</Node>
</BinaryTree>
<BinaryTree type="DecisionTree" boostWeight="1.0" itree="35">
<Node pos="s" depth="0" NCoef="0" IVar="0" Cut="3.3250714111328125E+02" cType="1" res="9.0488309238631678E-07" rms="0.0" purity="0.142546434001" nType="0">
  <Node pos="l" depth="1" NCoef="0" IVar="2" Cut="5.8105815887451172E+01" cType="1" res="-6.8656858057441485E-04" rms="0.0" purity="0.225215343304" nType="0">
    <Node pos="l" depth="2" NCoef="0" IVar="-1" Cut="0.0000000000000000E+00" cType="1" res="-4.9247519286361157E-03" rms="0.0e-00" purity="0.214276675967" nType="-99">
    </Node>
    <Node pos="r" depth="2" NCoef="0" IVar="7" Cut="1.5000000000000000E+00" cType="1" res="-5.0695275152277117E-04" rms="0.0" purity="0.221947101939" nType="0">
      <Node pos="l" depth="3" NCoef="0" IVar="-1" Cut="0.0000000000000000E+00" cType="1" res="-3.7388872655005328E-03" rms="0.0e-00" purity="0.231493024745" nType="-99">
      </Node>
      <Node pos="r" depth="3" NCoef="0" IVar="-1" Cut="0.0000000000000000E+00" cType="1" res="-1.3644054629279314E-03" rms="0.0e-00" purity="0.205271739813" nType="-99">
      </Node>
    </Node>
  </Node>
  <Node pos="r" depth="1" NCoef="0" IVar="5" Cut="2.4024529457092285E+00" cType="1" res="1.0587156704987944E-04" rms="0.0" purity="0.124009146823" nType="0">
    <Node pos="l" depth="2" NCoef="0" IVar="7" Cut="1.5000000000000000E+00" cType="1" res="2.1493331602264571E-04" rms="0.0" purity="0.103293634214" nType="0">
      <Node pos="l" depth="3" NCoef="0" IVar="-1" Cut="0.0000000000000000E+00" cType="1" res="8.8397072583540755E-05" rms="0.0e-00" purity="0.147901724384" nType="-99">
      </Node>
      <Node pos="r" depth="3" NCoef="0" IVar="-1" Cut="0.0000000000000000E+00" cType="1" res="2.0484620300341050E-03" rms="0.0e-00" purity="0.0829093354125" nType="-99">
      </Node>
    </Node>
    <Node pos="r" depth="2" NCoef="0" IVar="4" Cut="2.8914785385131836E+01" cType="1" res="-1.8300913655432970E-04" rms="0.0" purity="0.170705222201" nType="0">
      <Node pos="l" depth="3" NCoef="0" IVar="-1" Cut="0.0000000000000000E+00" cType="1" res="-3.0224958063092156E-03" rms="0.0e-00" purity="0.220837885396" nType="-99">
      </Node>
      <Node pos="r" depth="3" NCoef="0" IVar="-1" Cut="0.0000000000000000E+00" cType="1" res="5.7905715977308616E-04" rms="0.0e-00" purity="0.122688179795" nType="-99">
      </Node>
    </Node>
  </Node>
</Node>
</BinaryTree>
<BinaryTree type="DecisionTree" boostWeight="1.0" itree="36">
<Node pos="s" depth="0" NCoef="0" IVar="2" Cut="1.2748992919921875E+02" cType="1" res="9.0624733372114656E-07" rms="0.0" purity="0.142118685967" nType="0">
  <Node pos="l" depth="1" NCoef="0" IVar="4" Cut="2.9278503417968750E+01" cType="1" res="5.0750893697429524E-05" rms="0.0" purity="0.134558185719" nType="0">
    <Node pos="l" depth="2" NCoef="0" IVar="5" Cut="2.4481279850006104E+00" cType="1" res="-2.5017574015479091E-04" rms="0.0" purity="0.192276120735" nType="0">
      <Node pos="l" depth="3" NCoef="0" IVar="-1" Cut="0.0000000000000000E+00" cType="1" res="-5.9395738114238739E-04" rms="0.0e-00" purity="0.176065559518" nType="-99">
      </Node>
      <Node pos="r" depth="3" NCoef="0" IVar="-1" Cut="0.0000000000000000E+00" cType="1" res="-3.3151726521542845E-03" rms="0.0e-00" purity="0.221561364928" nType="-99">
      </Node>
    </Node>
    <Node pos="r" depth="2" NCoef="0" IVar="5" Cut="2.7181618213653564E+00" cType="1" res="2.8523907714439950E-04" rms="0.0" purity="0.0806553014852" nType="0">
      <Node pos="l" depth="3" NCoef="0" IVar="-1" Cut="0.0000000000000000E+00" cType="1" res="2.3091760616469072E-03" rms="0.0e-00" purity="0.0715129662106" nType="-99">
      </Node>
      <Node pos="r" depth="3" NCoef="0" IVar="-1" Cut="0.0000000000000000E+00" cType="1" res="-9.3199894651357245E-04" rms="0.0e-00" purity="0.162581927551" nType="-99">
      </Node>
    </Node>
  </Node>
  <Node pos="r" depth="1" NCoef="0" IVar="-1" Cut="0.0000000000000000E+00" cType="1" res="-5.0007811920508381E-03" rms="0.0e-00" purity="0.218096699786" nType="-99">
  </Node>
</Node>
</BinaryTree>
<BinaryTree type="DecisionTree" boostWeight="1.0" itree="37">
<Node pos="s" depth="0" NCoef="0" IVar="0" Cut="3.9205694580078125E+02" cType="1" res="9.1272530390172920E-07" rms="0.0" purity="0.14168262214" nType="0">
  <Node pos="l" depth="1" NCoef="0" IVar="7" Cut="1.5000000000000000E+00" cType="1" res="-4.3446488403727857E-04" rms="0.0" purity="0.209426626138" nType="0">
    <Node pos="l" depth="2" NCoef="0" IVar="2" Cut="6.5568176269531250E+01" cType="1" res="-7.4336736682606398E-04" rms="0.0" purity="0.223238953896" nType="0">
      <Node pos="l" depth="3" NCoef="0" IVar="-1" Cut="0.0000000000000000E+00" cType="1" res="-5.0675129258893050E-03" rms="0.0e-00" purity="0.214508425506" nType="-99">
      </Node>
      <Node pos="r" depth="3" NCoef="0" IVar="-1" Cut="0.0000000000000000E+00" cType="1" res="-2.4923798778914734E-03" rms="0.0e-00" purity="0.217540835957" nType="-99">
      </Node>
    </Node>
    <Node pos="r" depth="2" NCoef="0" IVar="0" Cut="2.8438824462890625E+02" cType="1" res="-2.0862666970241403E-04" rms="0.0" purity="0.190740725694" nType="0">
      <Node pos="l" depth="3" NCoef="0" IVar="-1" Cut="0.0000000000000000E+00" cType="1" res="-3.6404362276151159E-03" rms="0.0e-00" purity="0.228087655347" nType="-99">
      </Node>
      <Node pos="r" depth="3" NCoef="0" IVar="-1" Cut="0.0000000000000000E+00" cType="1" res="-5.1944261256506286E-04" rms="0.0e-00" purity="0.177750849442" nType="-99">
      </Node>
    </Node>
  </Node>
  <Node pos="r" depth="1" NCoef="0" IVar="1" Cut="3.2023744583129883E+00" cType="1" res="1.6073029791294273E-04" rms="0.0" purity="0.110051006613" nType="0">
    <Node pos="l" depth="2" NCoef="0" IVar="2" Cut="4.3817157745361328E+01" cType="1" res="1.9763482295635955E-04" rms="0.0" purity="0.102751198563" nType="0">
      <Node pos="l" depth="3" NCoef="0" IVar="-1" Cut="0.0000000000000000E+00" cType="1" res="-2.1991878843602357E-03" rms="0.0e-00" purity="0.206183801658" nType="-99">
      </Node>
      <Node pos="r" depth="3" NCoef="0" IVar="-1" Cut="0.0000000000000000E+00" cType="1" res="1.6715882130547836E-03" rms="0.0e-00" purity="0.0929319129423" nType="-99">
      </Node>
    </Node>
    <Node pos="r" depth="2" NCoef="0" IVar="-1" Cut="0.0000000000000000E+00" cType="1" res="-4.1026868788927870E-03" rms="0.0e-00" purity="0.232309531508" nType="-99">
    </Node>
  </Node>
</Node>
</BinaryTree>
<BinaryTree type="DecisionTree" boostWeight="1.0" itree="38">
<Node pos="s" depth="0" NCoef="0" IVar="3" Cut="4.5655441284179688E+01" cType="1" res="9.1395137012205241E-07" rms="0.0" purity="0.141243866925" nType="0">
  <Node pos="l" depth="1" NCoef="0" IVar="0" Cut="3.0074548339843750E+02" cType="1" res="-4.0891422398629145E-04" rms="0.0" purity="0.212749697981" nType="0">
    <Node pos="l" depth="2" NCoef="0" IVar="-1" Cut="0.0000000000000000E+00" cType="1" res="-4.3643488467636753E-03" rms="0.0e-00" purity="0.211792736954" nType="-99">
    </Node>
    <Node pos="r" depth="2" NCoef="0" IVar="5" Cut="2.3993153572082520E+00" cType="1" res="-2.8222402911963604E-04" rms="0.0" purity="0.206333571307" nType="0">
      <Node pos="l" depth="3" NCoef="0" IVar="-1" Cut="0.0000000000000000E+00" cType="1" res="-4.6097283116099141E-04" rms="0.0e-00" purity="0.18657948021" nType="-99">
      </Node>
      <Node pos="r" depth="3" NCoef="0" IVar="-1" Cut="0.0000000000000000E+00" cType="1" res="-3.4346951534605010E-03" rms="0.0e-00" purity="0.230117074372" nType="-99">
      </Node>
    </Node>
  </Node>
  <Node pos="r" depth="1" NCoef="0" IVar="2" Cut="1.3938854980468750E+02" cType="1" res="1.5324697502262422E-04" rms="0.0" purity="0.108575517702" nType="0">
    <Node pos="l" depth="2" NCoef="0" IVar="5" Cut="2.7228760719299316E+00" cType="1" res="2.0065302253621304E-04" rms="0.0" purity="0.0994799977141" nType="0">
      <Node pos="l" depth="3" NCoef="0" IVar="-1" Cut="0.0000000000000000E+00" cType="1" res="1.6968709248952286E-03" rms="0.0e-00" purity="0.0902988317258" nType="-99">
      </Node>
      <Node pos="r" depth="3" NCoef="0" IVar="-1" Cut="0.0000000000000000E+00" cType="1" res="-1.4872696142189752E-03" rms="0.0e-00" purity="0.178955572819" nType="-99">
      </Node>
    </Node>
    <Node pos="r" depth="2" NCoef="0" IVar="-1" Cut="0.0000000000000000E+00" cType="1" res="-4.6871905468541687E-03" rms="0.0e-00" purity="0.22612730791" nType="-99">
    </Node>
  </Node>
</Node>
</BinaryTree>
<BinaryTree type="DecisionTree" boostWeight="1.0" itree="39">
<Node pos="s" depth="0" NCoef="0" IVar="1" Cut="3.4060306549072266E+00" cType="1" res="9.1505489070628570E-07" rms="0.0" purity="0.14081932741" nType="0">
  <Node pos="l" depth="1" NCoef="0" IVar="2" Cut="4.9859798431396484E+01" cType="1" res="3.5121247531132254E-05" rms="0.0" purity="0.136031477398" nType="0">
    <Node pos="l" depth="2" NCoef="0" IVar="0" Cut="4.3527081298828125E+02" cType="1" res="-5.2885635170776975E-04" rms="0.0" purity="0.210443412611" nType="0">
      <Node pos="l" depth="3" NCoef="0" IVar="-1" Cut="0.0000000000000000E+00" cType="1" res="-4.6478149350611874E-03" rms="0.0e-00" purity="0.221359334843" nType="-99">
      </Node>
      <Node pos="r" depth="3" NCoef="0" IVar="-1" Cut="0.0000000000000000E+00" cType="1" res="-9.3311505639412547E-04" rms="0.0e-00" purity="0.179774718183" nType="-99">
      </Node>
    </Node>
    <Node pos="r" depth="2" NCoef="0" IVar="4" Cut="2.7383031845092773E+01" cType="1" res="1.1305764367308999E-04" rms="0.0" purity="0.122190868683" nType="0">
