<?xml version="1.0"?>
<MethodSetup Method="BDT::BDTG">
  <GeneralInfo>
    <Info name="TMVA Release" value="4.1.2 [262402]"/>
    <Info name="ROOT Release" value="5.32/00 [335872]"/>
    <Info name="Creator" value="mwolf3"/>
    <Info name="Date" value="Thu Sep 12 13:27:45 2013"/>
    <Info name="Host" value="Linux lxbuild167.cern.ch 2.6.18-308.1.1.el5 #1 SMP Wed Mar 7 19:25:07 CET 2012 x86_64 x86_64 x86_64 GNU/Linux"/>
    <Info name="Dir" value="/afs/crc.nd.edu/user/m/mwolf3/work/ttH/CMSSW_5_3_2_patch5/src/TTHTauTau/Roast"/>
    <Info name="Training events" value="2314"/>
    <Info name="TrainingTime" value="2.44222713e+00"/>
    <Info name="AnalysisType" value="Classification"/>
  </GeneralInfo>
  <Options>
    <Option name="V" modified="Yes">False</Option>
    <Option name="VerbosityLevel" modified="No">Default</Option>
    <Option name="VarTransform" modified="No">None</Option>
    <Option name="H" modified="Yes">False</Option>
    <Option name="CreateMVAPdfs" modified="No">False</Option>
    <Option name="IgnoreNegWeightsInTraining" modified="No">False</Option>
    <Option name="NTrees" modified="Yes">1000</Option>
    <Option name="RenormByClass" modified="No">False</Option>
    <Option name="BoostType" modified="Yes">Grad</Option>
    <Option name="AdaBoostR2Loss" modified="No">quadratic</Option>
    <Option name="UseBaggedGrad" modified="Yes">True</Option>
    <Option name="GradBaggingFraction" modified="Yes">5.000000e-01</Option>
    <Option name="Shrinkage" modified="Yes">1.000000e-01</Option>
    <Option name="AdaBoostBeta" modified="No">1.000000e+00</Option>
    <Option name="UseRandomisedTrees" modified="No">False</Option>
    <Option name="UseNvars" modified="No">3</Option>
    <Option name="UsePoissonNvars" modified="No">True</Option>
    <Option name="UseNTrainEvents" modified="No">2314</Option>
    <Option name="UseWeightedTrees" modified="No">True</Option>
    <Option name="UseYesNoLeaf" modified="No">True</Option>
    <Option name="NodePurityLimit" modified="No">5.000000e-01</Option>
    <Option name="SeparationType" modified="No">giniindex</Option>
    <Option name="nEventsMin" modified="No">40</Option>
    <Option name="nCuts" modified="Yes">20</Option>
    <Option name="UseFisherCuts" modified="No">False</Option>
    <Option name="MinLinCorrForFisher" modified="No">8.000000e-01</Option>
    <Option name="UseExclusiveVars" modified="No">False</Option>
    <Option name="PruneStrength" modified="No">0.000000e+00</Option>
    <Option name="PruneMethod" modified="No">nopruning</Option>
    <Option name="PruneBeforeBoost" modified="No">False</Option>
    <Option name="PruningValFraction" modified="No">5.000000e-01</Option>
    <Option name="NNodesMax" modified="Yes">5</Option>
    <Option name="MaxDepth" modified="No">3</Option>
    <Option name="DoBoostMonitor" modified="No">False</Option>
    <Option name="NegWeightTreatment" modified="No">ignorenegweights</Option>
  </Options>
  <Variables NVar="9">
    <Variable VarIndex="0" Expression="T_Pt" Label="T_Pt" Title="T_Pt" Unit="" Internal="T_Pt" Type="F" Min="2.00399380e+01" Max="3.68580322e+02"/>
    <Variable VarIndex="1" Expression="T_Eta" Label="T_Eta" Title="T_Eta" Unit="" Internal="T_Eta" Type="F" Min="-2.09971833e+00" Max="2.09608269e+00"/>
    <Variable VarIndex="2" Expression="T_DecayMode" Label="T_DecayMode" Title="T_DecayMode" Unit="" Internal="T_DecayMode" Type="I" Min="0.00000000e+00" Max="2.00000000e+00"/>
    <Variable VarIndex="3" Expression="T_IsolationMVA2Raw" Label="T_IsolationMVA2Raw" Title="T_IsolationMVA2Raw" Unit="" Internal="T_IsolationMVA2Raw" Type="F" Min="2.51899987e-01" Max="9.99885738e-01"/>
    <Variable VarIndex="4" Expression="TL1_DeltaR" Label="TL1_DeltaR" Title="TL1_DeltaR" Unit="" Internal="TL1_DeltaR" Type="F" Min="2.53521830e-01" Max="4.95090103e+00"/>
    <Variable VarIndex="5" Expression="TL2_DeltaR" Label="TL2_DeltaR" Title="TL2_DeltaR" Unit="" Internal="TL2_DeltaR" Type="F" Min="3.16854000e-01" Max="4.91005373e+00"/>
    <Variable VarIndex="6" Expression="LJ_Pt" Label="LJ_Pt" Title="LJ_Pt" Unit="" Internal="LJ_Pt" Type="F" Min="3.11156216e+01" Max="8.57261963e+02"/>
    <Variable VarIndex="7" Expression="L1_Pt" Label="L1_Pt" Title="L1_Pt" Unit="" Internal="L1_Pt" Type="F" Min="2.01870937e+01" Max="3.50171265e+02"/>
    <Variable VarIndex="8" Expression="MET" Label="MET" Title="MET" Unit="" Internal="MET" Type="F" Min="8.67812216e-01" Max="4.56880768e+02"/>
  </Variables>
  <Spectators NSpec="0"/>
  <Classes NClass="2">
    <Class Name="Signal" Index="0"/>
    <Class Name="Background" Index="1"/>
  </Classes>
  <Transformations NTransformations="0"/>
  <MVAPdfs/>
  <Weights NTrees="1000" AnalysisType="1">
    <BinaryTree type="DecisionTree" boostWeight="1.0000000000000000e+00" itree="0">
      <Node pos="s" depth="0" NCoef="0" IVar="3" Cut="9.2881882190704346e-01" cType="0" res="3.1168356537818909e-01" rms="3.9096465706825256e-01" purity="8.1168359518051147e-01" nType="0">
        <Node pos="l" depth="1" NCoef="0" IVar="-1" Cut="0.0000000000000000e+00" cType="1" res="7.8475065529346466e-02" rms="2.8937032818794250e-01" purity="9.0775585174560547e-01" nType="-99"/>
        <Node pos="r" depth="1" NCoef="0" IVar="0" Cut="4.0158153533935547e+01" cType="0" res="1.5054450929164886e-01" rms="4.7679802775382996e-01" purity="6.5054446458816528e-01" nType="0">
          <Node pos="l" depth="2" NCoef="0" IVar="-1" Cut="0.0000000000000000e+00" cType="1" res="5.8804575353860855e-02" rms="3.8732835650444031e-01" purity="8.1619101762771606e-01" nType="-99"/>
          <Node pos="r" depth="2" NCoef="0" IVar="-1" Cut="0.0000000000000000e+00" cType="1" res="-1.0147427208721638e-02" rms="4.9472552537918091e-01" purity="4.2756617069244385e-01" nType="-99"/>
        </Node>
      </Node>
    </BinaryTree>
    <BinaryTree type="DecisionTree" boostWeight="1.0000000000000000e+00" itree="1">
      <Node pos="s" depth="0" NCoef="0" IVar="3" Cut="9.2864900827407837e-01" cType="0" res="2.7304363250732422e-01" rms="3.9158579707145691e-01" purity="8.0250591039657593e-01" nType="0">
        <Node pos="l" depth="1" NCoef="0" IVar="-1" Cut="0.0000000000000000e+00" cType="1" res="7.2891198098659515e-02" rms="2.8470009565353394e-01" purity="9.1104573011398315e-01" nType="-99"/>
        <Node pos="r" depth="1" NCoef="0" IVar="2" Cut="4.7619048506021500e-02" cType="1" res="1.0550419986248016e-01" rms="4.8078092932701111e-01" purity="6.1864084005355835e-01" nType="0">
          <Node pos="l" depth="2" NCoef="0" IVar="-1" Cut="0.0000000000000000e+00" cType="1" res="6.8156011402606964e-02" rms="3.4164196252822876e-01" purity="8.5988926887512207e-01" nType="-99"/>
          <Node pos="r" depth="2" NCoef="0" IVar="-1" Cut="0.0000000000000000e+00" cType="1" res="-3.8250608486123383e-04" rms="4.9470171332359314e-01" purity="5.1035749912261963e-01" nType="-99"/>
        </Node>
      </Node>
    </BinaryTree>
    <BinaryTree type="DecisionTree" boostWeight="1.0000000000000000e+00" itree="2">
      <Node pos="s" depth="0" NCoef="0" IVar="0" Cut="3.6637100219726562e+01" cType="0" res="2.5243058800697327e-01" rms="3.8136550784111023e-01" purity="8.0939227342605591e-01" nType="0">
        <Node pos="l" depth="1" NCoef="0" IVar="-1" Cut="0.0000000000000000e+00" cType="1" res="6.4370937645435333e-02" rms="2.9093378782272339e-01" purity="9.0081447362899780e-01" nType="-99"/>
        <Node pos="r" depth="1" NCoef="0" IVar="3" Cut="9.2873716354370117e-01" cType="0" res="1.0774031281471252e-01" rms="4.6219909191131592e-01" purity="6.5654534101486206e-01" nType="0">
          <Node pos="l" depth="2" NCoef="0" IVar="-1" Cut="0.0000000000000000e+00" cType="1" res="3.7760607898235321e-02" rms="4.1353437304496765e-01" purity="7.8105038404464722e-01" nType="-99"/>
          <Node pos="r" depth="2" NCoef="0" IVar="-1" Cut="0.0000000000000000e+00" cType="1" res="-8.2542588934302330e-03" rms="4.9172100424766541e-01" purity="4.5021408796310425e-01" nType="-99"/>
        </Node>
      </Node>
    </BinaryTree>
    <BinaryTree type="DecisionTree" boostWeight="1.0000000000000000e+00" itree="3">
      <Node pos="s" depth="0" NCoef="0" IVar="3" Cut="8.5818684101104736e-01" cType="0" res="2.3667751252651215e-01" rms="3.7056896090507507e-01" purity="8.1503725051879883e-01" nType="0">
        <Node pos="l" depth="1" NCoef="0" IVar="-1" Cut="0.0000000000000000e+00" cType="1" res="6.0824640095233917e-02" rms="2.9377287626266479e-01" purity="8.9825439453125000e-01" nType="-99"/>
        <Node pos="r" depth="1" NCoef="0" IVar="2" Cut="4.7619048506021500e-02" cType="1" res="2.9272679239511490e-02" rms="4.7986650466918945e-01" purity="5.6948173046112061e-01" nType="0">
          <Node pos="l" depth="2" NCoef="0" IVar="-1" Cut="0.0000000000000000e+00" cType="1" res="6.1769321560859680e-02" rms="3.4389629960060120e-01" purity="8.5310298204421997e-01" nType="-99"/>
          <Node pos="r" depth="2" NCoef="0" IVar="-1" Cut="0.0000000000000000e+00" cType="1" res="-1.0926866903901100e-02" rms="4.8626482486724854e-01" purity="4.5451003313064575e-01" nType="-99"/>
        </Node>
      </Node>
    </BinaryTree>
    <BinaryTree type="DecisionTree" boostWeight="1.0000000000000000e+00" itree="4">
      <Node pos="s" depth="0" NCoef="0" IVar="3" Cut="8.9303064346313477e-01" cType="0" res="2.0096370577812195e-01" rms="3.7635347247123718e-01" purity="8.0131989717483521e-01" nType="0">
        <Node pos="l" depth="1" NCoef="0" IVar="-1" Cut="0.0000000000000000e+00" cType="1" res="5.6497268378734589e-02" rms="2.9400756955146790e-01" purity="8.9914935827255249e-01" nType="-99"/>
        <Node pos="r" depth="1" NCoef="0" IVar="0" Cut="3.1209615707397461e+01" cType="0" res="3.0242536216974258e-02" rms="4.7447553277015686e-01" purity="5.7898515462875366e-01" nType="0">
          <Node pos="l" depth="2" NCoef="0" IVar="-1" Cut="0.0000000000000000e+00" cType="1" res="2.4472443386912346e-02" rms="4.4570663571357727e-01" purity="7.0501261949539185e-01" nType="-99"/>
          <Node pos="r" depth="2" NCoef="0" IVar="-1" Cut="0.0000000000000000e+00" cType="1" res="-2.5322075933218002e-02" rms="4.5654264092445374e-01" purity="3.2510900497436523e-01" nType="-99"/>
        </Node>
      </Node>
    </BinaryTree>
    <BinaryTree type="DecisionTree" boostWeight="1.0000000000000000e+00" itree="5">
      <Node pos="s" depth="0" NCoef="0" IVar="0" Cut="3.6644268035888672e+01" cType="0" res="1.8874584138393402e-01" rms="3.6743944883346558e-01" purity="8.1042969226837158e-01" nType="0">
        <Node pos="l" depth="1" NCoef="0" IVar="-1" Cut="0.0000000000000000e+00" cType="1" res="5.7140339165925980e-02" rms="2.7697828412055969e-01" purity="9.0841388702392578e-01" nType="-99"/>
        <Node pos="r" depth="1" NCoef="0" IVar="3" Cut="9.6425402164459229e-01" cType="0" res="5.3506538271903992e-02" rms="4.4921544194221497e-01" purity="6.4879989624023438e-01" nType="0">
          <Node pos="l" depth="2" NCoef="0" IVar="-1" Cut="0.0000000000000000e+00" cType="1" res="4.4982701539993286e-02" rms="3.4382554888725281e-01" purity="8.6302065849304199e-01" nType="-99"/>
          <Node pos="r" depth="2" NCoef="0" IVar="-1" Cut="0.0000000000000000e+00" cType="1" res="-1.0919222608208656e-02" rms="4.8054066300392151e-01" purity="4.8313957452774048e-01" nType="-99"/>
        </Node>
      </Node>
    </BinaryTree>
    <BinaryTree type="DecisionTree" boostWeight="1.0000000000000000e+00" itree="6">
      <Node pos="s" depth="0" NCoef="0" IVar="3" Cut="5.7528764009475708e-01" cType="0" res="1.8242055177688599e-01" rms="3.5572987794876099e-01" purity="8.2249140739440918e-01" nType="0">
        <Node pos="l" depth="1" NCoef="0" IVar="-1" Cut="0.0000000000000000e+00" cType="1" res="4.3272249400615692e-02" rms="3.3176374435424805e-01" purity="8.5515701770782471e-01" nType="-99"/>
        <Node pos="r" depth="1" NCoef="0" IVar="0" Cut="4.6611186981201172e+01" cType="0" res="-1.0046779364347458e-01" rms="4.7259500622749329e-01" purity="4.5771342515945435e-01" nType="0">
          <Node pos="l" depth="2" NCoef="0" IVar="-1" Cut="0.0000000000000000e+00" cType="1" res="6.8912953138351440e-03" rms="4.7088325023651123e-01" purity="6.4517426490783691e-01" nType="-99"/>
          <Node pos="r" depth="2" NCoef="0" IVar="-1" Cut="0.0000000000000000e+00" cType="1" res="-2.6091111823916435e-02" rms="4.4084030389785767e-01" purity="2.9307791590690613e-01" nType="-99"/>
        </Node>
      </Node>
    </BinaryTree>
    <BinaryTree type="DecisionTree" boostWeight="1.0000000000000000e+00" itree="7">
      <Node pos="s" depth="0" NCoef="0" IVar="0" Cut="3.1216785430908203e+01" cType="0" res="1.4307953417301178e-01" rms="3.7065309286117554e-01" purity="7.9605913162231445e-01" nType="0">
        <Node pos="l" depth="1" NCoef="0" IVar="-1" Cut="0.0000000000000000e+00" cType="1" res="4.3740812689065933e-02" rms="3.0787408351898193e-01" purity="8.7734520435333252e-01" nType="-99"/>
        <Node pos="r" depth="1" NCoef="0" IVar="2" Cut="9.5238097012042999e-02" cType="1" res="-1.5932755544781685e-02" rms="4.6088188886642456e-01" purity="5.8596801757812500e-01" nType="0">
          <Node pos="l" depth="2" NCoef="0" IVar="-1" Cut="0.0000000000000000e+00" cType="1" res="2.8642911463975906e-02" rms="4.0674605965614319e-01" purity="7.8563100099563599e-01" nType="-99"/>
          <Node pos="r" depth="2" NCoef="0" IVar="-1" Cut="0.0000000000000000e+00" cType="1" res="-1.7611622810363770e-02" rms="4.6061900258064270e-01" purity="4.7303521633148193e-01" nType="-99"/>
        </Node>
      </Node>
    </BinaryTree>
    <BinaryTree type="DecisionTree" boostWeight="1.0000000000000000e+00" itree="8">
      <Node pos="s" depth="0" NCoef="0" IVar="3" Cut="8.2179391384124756e-01" cType="0" res="1.5971848368644714e-01" rms="3.4367740154266357e-01" purity="8.3384555578231812e-01" nType="0">
        <Node pos="l" depth="1" NCoef="0" IVar="-1" Cut="0.0000000000000000e+00" cType="1" res="4.5675408095121384e-02" rms="2.9689306020736694e-01" purity="8.9316481351852417e-01" nType="-99"/>
        <Node pos="r" depth="1" NCoef="0" IVar="2" Cut="4.7619048506021500e-02" cType="1" res="6.2711331993341446e-03" rms="4.5590957999229431e-01" purity="5.9789377450942993e-01" nType="0">
          <Node pos="l" depth="2" NCoef="0" IVar="-1" Cut="0.0000000000000000e+00" cType="1" res="4.4132780283689499e-02" rms="3.5115391016006470e-01" purity="8.3271574974060059e-01" nType="-99"/>
          <Node pos="r" depth="2" NCoef="0" IVar="-1" Cut="0.0000000000000000e+00" cType="1" res="-1.3417297974228859e-02" rms="4.7296416759490967e-01" purity="4.9131739139556885e-01" nType="-99"/>
        </Node>
      </Node>
    </BinaryTree>
    <BinaryTree type="DecisionTree" boostWeight="1.0000000000000000e+00" itree="9">
      <Node pos="s" depth="0" NCoef="0" IVar="0" Cut="3.6644268035888672e+01" cType="0" res="1.3412494957447052e-01" rms="3.4856304526329041e-01" purity="8.2232230901718140e-01" nType="0">
        <Node pos="l" depth="1" NCoef="0" IVar="-1" Cut="0.0000000000000000e+00" cType="1" res="4.6315580606460571e-02" rms="2.6801475882530212e-01" purity="9.1271197795867920e-01" nType="-99"/>
        <Node pos="r" depth="1" NCoef="0" IVar="3" Cut="9.2846512794494629e-01" cType="0" res="2.9548974707722664e-02" rms="4.3100216984748840e-01" purity="6.7337334156036377e-01" nType="0">
          <Node pos="l" depth="2" NCoef="0" IVar="-1" Cut="0.0000000000000000e+00" cType="1" res="2.8946602717041969e-02" rms="3.6842954158782959e-01" purity="8.3431494235992432e-01" nType="-99"/>
          <Node pos="r" depth="2" NCoef="0" IVar="-1" Cut="0.0000000000000000e+00" cType="1" res="-1.9519357010722160e-02" rms="4.7522416710853577e-01" purity="4.0938383340835571e-01" nType="-99"/>
        </Node>
      </Node>
    </BinaryTree>
    <BinaryTree type="DecisionTree" boostWeight="1.0000000000000000e+00" itree="10">
      <Node pos="s" depth="0" NCoef="0" IVar="3" Cut="8.9248955249786377e-01" cType="0" res="1.2384553998708725e-01" rms="3.4578728675842285e-01" purity="8.2280862331390381e-01" nType="0">
        <Node pos="l" depth="1" NCoef="0" IVar="-1" Cut="0.0000000000000000e+00" cType="1" res="4.2556904256343842e-02" rms="2.8039130568504333e-01" purity="9.0779513120651245e-01" nType="-99"/>
        <Node pos="r" depth="1" NCoef="0" IVar="8" Cut="4.1815074920654297e+01" cType="0" res="1.2143198400735855e-03" rms="4.5220568776130676e-01" purity="6.0327094793319702e-01" nType="0">
          <Node pos="l" depth="2" NCoef="0" IVar="-1" Cut="0.0000000000000000e+00" cType="1" res="1.2892244383692741e-02" rms="4.3719187378883362e-01" purity="6.7645019292831421e-01" nType="-99"/>
          <Node pos="r" depth="2" NCoef="0" IVar="-1" Cut="0.0000000000000000e+00" cType="1" res="-2.3723494261503220e-02" rms="4.4690158963203430e-01" purity="3.9401870965957642e-01" nType="-99"/>
        </Node>
      </Node>
    </BinaryTree>
    <BinaryTree type="DecisionTree" boostWeight="1.0000000000000000e+00" itree="11">
      <Node pos="s" depth="0" NCoef="0" IVar="0" Cut="3.6656608581542969e+01" cType="0" res="1.2265137583017349e-01" rms="3.3459883928298950e-01" purity="8.3533537387847900e-01" nType="0">
        <Node pos="l" depth="1" NCoef="0" IVar="-1" Cut="0.0000000000000000e+00" cType="1" res="4.6059653162956238e-02" rms="2.5087270140647888e-01" purity="9.2236328125000000e-01" nType="-99"/>
        <Node pos="r" depth="1" NCoef="0" IVar="6" Cut="6.8370567321777344e+01" cType="0" res="3.3878978341817856e-02" rms="4.2737361788749695e-01" purity="6.8759775161743164e-01" nType="0">
          <Node pos="l" depth="2" NCoef="0" IVar="-1" Cut="0.0000000000000000e+00" cType="1" res="1.9307050853967667e-02" rms="4.0182176232337952e-01" purity="7.5292706489562988e-01" nType="-99"/>
          <Node pos="r" depth="2" NCoef="0" IVar="-1" Cut="0.0000000000000000e+00" cType="1" res="-3.1062582507729530e-02" rms="4.5513764023780823e-01" purity="4.3475544452667236e-01" nType="-99"/>
        </Node>
      </Node>
    </BinaryTree>
    <BinaryTree type="DecisionTree" boostWeight="1.0000000000000000e+00" itree="12">
      <Node pos="s" depth="0" NCoef="0" IVar="0" Cut="3.4044410705566406e+01" cType="0" res="9.3798547983169556e-02" rms="3.4582462906837463e-01" purity="8.1694352626800537e-01" nType="0">
        <Node pos="l" depth="1" NCoef="0" IVar="-1" Cut="0.0000000000000000e+00" cType="1" res="3.7141598761081696e-02" rms="2.8062748908996582e-01" purity="9.0004670619964600e-01" nType="-99"/>
        <Node pos="r" depth="1" NCoef="0" IVar="3" Cut="9.6349060535430908e-01" cType="0" res="-1.3855185359716415e-02" rms="4.3692708015441895e-01" purity="6.3735473155975342e-01" nType="0">
          <Node pos="l" depth="2" NCoef="0" IVar="-1" Cut="0.0000000000000000e+00" cType="1" res="2.3786215111613274e-02" rms="3.6466372013092041e-01" purity="8.3917915821075439e-01" nType="-99"/>
          <Node pos="r" depth="2" NCoef="0" IVar="-1" Cut="0.0000000000000000e+00" cType="1" res="-1.6577359288930893e-02" rms="4.6888557076454163e-01" purity="4.7751960158348083e-01" nType="-99"/>
        </Node>
      </Node>
    </BinaryTree>
    <BinaryTree type="DecisionTree" boostWeight="1.0000000000000000e+00" itree="13">
      <Node pos="s" depth="0" NCoef="0" IVar="0" Cut="3.6637100219726562e+01" cType="0" res="8.7149582803249359e-02" rms="3.4875056147575378e-01" purity="8.1772023439407349e-01" nType="0">
        <Node pos="l" depth="1" NCoef="0" IVar="-1" Cut="0.0000000000000000e+00" cType="1" res="3.6650158464908600e-02" rms="2.7552834153175354e-01" purity="9.0777426958084106e-01" nType="-99"/>
        <Node pos="r" depth="1" NCoef="0" IVar="5" Cut="2.4355964660644531e+00" cType="1" res="1.1629992164671421e-02" rms="4.3028935790061951e-01" purity="6.7428755760192871e-01" nType="0">
          <Node pos="l" depth="2" NCoef="0" IVar="-1" Cut="0.0000000000000000e+00" cType="1" res="1.9480396062135696e-02" rms="3.9494740962982178e-01" purity="7.5348848104476929e-01" nType="-99"/>
          <Node pos="r" depth="2" NCoef="0" IVar="-1" Cut="0.0000000000000000e+00" cType="1" res="-1.7896767705678940e-02" rms="4.5384263992309570e-01" purity="5.6180614233016968e-01" nType="-99"/>
        </Node>
      </Node>
    </BinaryTree>
    <BinaryTree type="DecisionTree" boostWeight="1.0000000000000000e+00" itree="14">
      <Node pos="s" depth="0" NCoef="0" IVar="3" Cut="9.2864900827407837e-01" cType="0" res="7.9304397106170654e-02" rms="3.4463748335838318e-01" purity="8.1704449653625488e-01" nType="0">
        <Node pos="l" depth="1" NCoef="0" IVar="-1" Cut="0.0000000000000000e+00" cType="1" res="4.2940862476825714e-02" rms="2.4896696209907532e-01" purity="9.2918777465820312e-01" nType="-99"/>
        <Node pos="r" depth="1" NCoef="0" IVar="6" Cut="1.4920027160644531e+02" cType="0" res="-2.0361155271530151e-02" rms="4.3981662392616272e-01" purity="6.3772553205490112e-01" nType="0">
          <Node pos="l" depth="2" NCoef="0" IVar="-1" Cut="0.0000000000000000e+00" cType="1" res="3.3882189542055130e-02" rms="3.2730600237846375e-01" purity="8.4534269571304321e-01" nType="-99"/>
          <Node pos="r" depth="2" NCoef="0" IVar="-1" Cut="0.0000000000000000e+00" cType="1" res="-1.6120336949825287e-02" rms="4.6449208259582520e-01" purity="5.4572767019271851e-01" nType="-99"/>
        </Node>
      </Node>
    </BinaryTree>
    <BinaryTree type="DecisionTree" boostWeight="1.0000000000000000e+00" itree="15">
      <Node pos="s" depth="0" NCoef="0" IVar="3" Cut="8.2179391384124756e-01" cType="0" res="5.7797744870185852e-02" rms="3.5195726156234741e-01" purity="8.0187457799911499e-01" nType="0">
        <Node pos="l" depth="1" NCoef="0" IVar="-1" Cut="0.0000000000000000e+00" cType="1" res="2.7343710884451866e-02" rms="3.0616903305053711e-01" purity="8.7658601999282837e-01" nType="-99"/>
        <Node pos="r" depth="1" NCoef="0" IVar="2" Cut="4.7619048506021500e-02" cType="1" res="-8.5253819823265076e-02" rms="4.4957342743873596e-01" purity="5.4253917932510376e-01" nType="0">
          <Node pos="l" depth="2" NCoef="0" IVar="-1" Cut="0.0000000000000000e+00" cType="1" res="2.9814025387167931e-02" rms="3.4781962633132935e-01" purity="8.2046264410018921e-01" nType="-99"/>
          <Node pos="r" depth="2" NCoef="0" IVar="-1" Cut="0.0000000000000000e+00" cType="1" res="-3.0104685574769974e-02" rms="4.5694971084594727e-01" purity="4.2045938968658447e-01" nType="-99"/>
        </Node>
      </Node>
    </BinaryTree>
    <BinaryTree type="DecisionTree" boostWeight="1.0000000000000000e+00" itree="16">
      <Node pos="s" depth="0" NCoef="0" IVar="0" Cut="3.2484004974365234e+01" cType="0" res="5.6712083518505096e-02" rms="3.4600403904914856e-01" purity="8.0793339014053345e-01" nType="0">
        <Node pos="l" depth="1" NCoef="0" IVar="-1" Cut="0.0000000000000000e+00" cType="1" res="3.1909234821796417e-02" rms="2.7991262078285217e-01" purity="8.9763212203979492e-01" nType="-99"/>
        <Node pos="r" depth="1" NCoef="0" IVar="6" Cut="6.8370567321777344e+01" cType="0" res="-5.8996014297008514e-02" rms="4.4192817807197571e-01" purity="6.0235083103179932e-01" nType="0">
          <Node pos="l" depth="2" NCoef="0" IVar="-1" Cut="0.0000000000000000e+00" cType="1" res="-2.9658354469574988e-04" rms="4.1962018609046936e-01" purity="6.6255247592926025e-01" nType="-99"/>
          <Node pos="r" depth="2" NCoef="0" IVar="-1" Cut="0.0000000000000000e+00" cType="1" res="-4.6364948153495789e-02" rms="4.5509976148605347e-01" purity="3.6896371841430664e-01" nType="-99"/>
        </Node>
      </Node>
    </BinaryTree>
    <BinaryTree type="DecisionTree" boostWeight="1.0000000000000000e+00" itree="17">
      <Node pos="s" depth="0" NCoef="0" IVar="3" Cut="5.3942084312438965e-01" cType="0" res="5.1997814327478409e-02" rms="3.4567594528198242e-01" purity="8.1394433975219727e-01" nType="0">
        <Node pos="l" depth="1" NCoef="0" IVar="-1" Cut="0.0000000000000000e+00" cType="1" res="1.8950676545500755e-02" rms="3.3071464300155640e-01" purity="8.4189826250076294e-01" nType="-99"/>
        <Node pos="r" depth="1" NCoef="0" IVar="1" Cut="-2.2427698969841003e-01" cType="0" res="-1.9040022790431976e-01" rms="4.4327545166015625e-01" purity="4.2720395326614380e-01" nType="0">
          <Node pos="l" depth="2" NCoef="0" IVar="-1" Cut="0.0000000000000000e+00" cType="1" res="-2.1179078146815300e-02" rms="4.3539640307426453e-01" purity="5.3735786676406860e-01" nType="-99"/>
          <Node pos="r" depth="2" NCoef="0" IVar="-1" Cut="0.0000000000000000e+00" cType="1" res="-4.7447662800550461e-02" rms="4.2498931288719177e-01" purity="3.2093071937561035e-01" nType="-99"/>
        </Node>
      </Node>
    </BinaryTree>
    <BinaryTree type="DecisionTree" boostWeight="1.0000000000000000e+00" itree="18">
      <Node pos="s" depth="0" NCoef="0" IVar="0" Cut="3.4011440277099609e+01" cType="0" res="5.2064165472984314e-02" rms="3.3392152190208435e-01" purity="8.1858086585998535e-01" nType="0">
        <Node pos="l" depth="1" NCoef="0" IVar="-1" Cut="0.0000000000000000e+00" cType="1" res="3.3134732395410538e-02" rms="2.6070746779441833e-01" purity="9.1471242904663086e-01" nType="-99"/>
        <Node pos="r" depth="1" NCoef="0" IVar="2" Cut="9.5238097012042999e-02" cType="1" res="-5.3063772618770599e-02" rms="4.3165606260299683e-01" purity="6.1730140447616577e-01" nType="0">
          <Node pos="l" depth="2" NCoef="0" IVar="-1" Cut="0.0000000000000000e+00" cType="1" res="1.8187157809734344e-02" rms="3.9938244223594666e-01" purity="7.9294860363006592e-01" nType="-99"/>
          <Node pos="r" depth="2" NCoef="0" IVar="-1" Cut="0.0000000000000000e+00" cType="1" res="-2.4939345195889473e-02" rms="4.3086966872215271e-01" purity="5.0998270511627197e-01" nType="-99"/>
        </Node>
      </Node>
    </BinaryTree>
    <BinaryTree type="DecisionTree" boostWeight="1.0000000000000000e+00" itree="19">
      <Node pos="s" depth="0" NCoef="0" IVar="1" Cut="1.4951660633087158e+00" cType="1" res="5.3490702062845230e-02" rms="3.3375436067581177e-01" purity="8.2568091154098511e-01" nType="0">
        <Node pos="l" depth="1" NCoef="0" IVar="5" Cut="3.1602632999420166e+00" cType="1" res="6.8848803639411926e-02" rms="3.1743326783180237e-01" purity="8.4353506565093994e-01" nType="0">
          <Node pos="l" depth="2" NCoef="0" IVar="-1" Cut="0.0000000000000000e+00" cType="1" res="2.5132777169346809e-02" rms="3.0229085683822632e-01" purity="8.6264568567276001e-01" nType="-99"/>
          <Node pos="r" depth="2" NCoef="0" IVar="-1" Cut="0.0000000000000000e+00" cType="1" res="-2.6014881208539009e-02" rms="4.1765385866165161e-01" purity="6.0427969694137573e-01" nType="-99"/>
        </Node>
        <Node pos="r" depth="1" NCoef="0" IVar="-1" Cut="0.0000000000000000e+00" cType="1" res="-3.7427350878715515e-02" rms="4.5826297998428345e-01" purity="5.7874017953872681e-01" nType="-99"/>
      </Node>
    </BinaryTree>
    <BinaryTree type="DecisionTree" boostWeight="1.0000000000000000e+00" itree="20">
      <Node pos="s" depth="0" NCoef="0" IVar="3" Cut="6.4359909296035767e-01" cType="0" res="3.4512989223003387e-02" rms="3.4292659163475037e-01" purity="8.0908930301666260e-01" nType="0">
        <Node pos="l" depth="1" NCoef="0" IVar="-1" Cut="0.0000000000000000e+00" cType="1" res="1.5978615731000900e-02" rms="3.2431814074516296e-01" purity="8.4807282686233521e-01" nType="-99"/>
        <Node pos="r" depth="1" NCoef="0" IVar="8" Cut="7.2138412475585938e+01" cType="0" res="-1.4041602611541748e-01" rms="4.3653339147567749e-01" purity="4.7279715538024902e-01" nType="0">
          <Node pos="l" depth="2" NCoef="0" IVar="-1" Cut="0.0000000000000000e+00" cType="1" res="-7.8544057905673981e-03" rms="4.3184649944305420e-01" purity="6.2881726026535034e-01" nType="-99"/>
          <Node pos="r" depth="2" NCoef="0" IVar="-1" Cut="0.0000000000000000e+00" cType="1" res="-3.5125389695167542e-02" rms="4.1190913319587708e-01" purity="2.9851996898651123e-01" nType="-99"/>
        </Node>
      </Node>
    </BinaryTree>
    <BinaryTree type="DecisionTree" boostWeight="1.0000000000000000e+00" itree="21">
      <Node pos="s" depth="0" NCoef="0" IVar="0" Cut="3.6644268035888672e+01" cType="0" res="3.2540101557970047e-02" rms="3.4455043077468872e-01" purity="8.1063437461853027e-01" nType="0">
        <Node pos="l" depth="1" NCoef="0" IVar="-1" Cut="0.0000000000000000e+00" cType="1" res="2.6075709611177444e-02" rms="2.7007746696472168e-01" purity="9.0865874290466309e-01" nType="-99"/>
        <Node pos="r" depth="1" NCoef="0" IVar="5" Cut="2.4250524044036865e+00" cType="1" res="-3.5613264888525009e-02" rms="4.2642796039581299e-01" purity="6.5906852483749390e-01" nType="0">
          <Node pos="l" depth="2" NCoef="0" IVar="-1" Cut="0.0000000000000000e+00" cType="1" res="6.6889235749840736e-03" rms="3.9121136069297791e-01" purity="7.3668640851974487e-01" nType="-99"/>
          <Node pos="r" depth="2" NCoef="0" IVar="-1" Cut="0.0000000000000000e+00" cType="1" res="-2.2118113934993744e-02" rms="4.5475018024444580e-01" purity="5.5692511796951294e-01" nType="-99"/>
        </Node>
      </Node>
    </BinaryTree>
    <BinaryTree type="DecisionTree" boostWeight="1.0000000000000000e+00" itree="22">
      <Node pos="s" depth="0" NCoef="0" IVar="4" Cut="3.3851079940795898e+00" cType="1" res="3.1586095690727234e-02" rms="3.4264969825744629e-01" purity="8.1034851074218750e-01" nType="0">
        <Node pos="l" depth="1" NCoef="0" IVar="1" Cut="1.4969877004623413e+00" cType="1" res="4.6614158898591995e-02" rms="3.3248040080070496e-01" purity="8.3048951625823975e-01" nType="0">
          <Node pos="l" depth="2" NCoef="0" IVar="-1" Cut="0.0000000000000000e+00" cType="1" res="1.7910193651914597e-02" rms="3.2037398219108582e-01" purity="8.4975361824035645e-01" nType="-99"/>
          <Node pos="r" depth="2" NCoef="0" IVar="-1" Cut="0.0000000000000000e+00" cType="1" res="-2.6132550090551376e-02" rms="4.2558678984642029e-01" purity="5.8215814828872681e-01" nType="-99"/>
        </Node>
        <Node pos="r" depth="1" NCoef="0" IVar="-1" Cut="0.0000000000000000e+00" cType="1" res="-5.0062518566846848e-02" rms="3.8632997870445251e-01" purity="3.3973795175552368e-01" nType="-99"/>
      </Node>
    </BinaryTree>
    <BinaryTree type="DecisionTree" boostWeight="1.0000000000000000e+00" itree="23">
      <Node pos="s" depth="0" NCoef="0" IVar="6" Cut="7.3180664062500000e+01" cType="0" res="3.3867236226797104e-02" rms="3.3378857374191284e-01" purity="8.1918025016784668e-01" nType="0">
        <Node pos="l" depth="1" NCoef="0" IVar="-1" Cut="0.0000000000000000e+00" cType="1" res="1.9852273166179657e-02" rms="3.0516159534454346e-01" purity="8.5814446210861206e-01" nType="-99"/>
        <Node pos="r" depth="1" NCoef="0" IVar="0" Cut="4.8463630676269531e+01" cType="0" res="-1.2101694941520691e-01" rms="4.1630628705024719e-01" purity="6.2592327594757080e-01" nType="0">
          <Node pos="l" depth="2" NCoef="0" IVar="-1" Cut="0.0000000000000000e+00" cType="1" res="2.0266268402338028e-02" rms="2.8057667613029480e-01" purity="8.9533758163452148e-01" nType="-99"/>
          <Node pos="r" depth="2" NCoef="0" IVar="-1" Cut="0.0000000000000000e+00" cType="1" res="-4.3144386261701584e-02" rms="4.4612681865692139e-01" purity="4.8843219876289368e-01" nType="-99"/>
        </Node>
      </Node>
    </BinaryTree>
    <BinaryTree type="DecisionTree" boostWeight="1.0000000000000000e+00" itree="24">
      <Node pos="s" depth="0" NCoef="0" IVar="1" Cut="1.4985698461532593e+00" cType="1" res="2.1538943052291870e-02" rms="3.3962446451187134e-01" purity="8.1261134147644043e-01" nType="0">
        <Node pos="l" depth="1" NCoef="0" IVar="-1" Cut="0.0000000000000000e+00" cType="1" res="1.1115800589323044e-02" rms="3.2616576552391052e-01" purity="8.3451962471008301e-01" nType="-99"/>
        <Node pos="r" depth="1" NCoef="0" IVar="1" Cut="1.7617779970169067e+00" cType="1" res="-1.6780513525009155e-01" rms="4.3598631024360657e-01" purity="5.3529840707778931e-01" nType="0">
          <Node pos="l" depth="2" NCoef="0" IVar="-1" Cut="0.0000000000000000e+00" cType="1" res="-4.4634163379669189e-02" rms="4.5843112468719482e-01" purity="5.4538983106613159e-01" nType="-99"/>
          <Node pos="r" depth="2" NCoef="0" IVar="-1" Cut="0.0000000000000000e+00" cType="1" res="-2.4135110899806023e-02" rms="4.1179931163787842e-01" purity="5.2598911523818970e-01" nType="-99"/>
        </Node>
      </Node>
    </BinaryTree>
    <BinaryTree type="DecisionTree" boostWeight="1.0000000000000000e+00" itree="25">
      <Node pos="s" depth="0" NCoef="0" IVar="1" Cut="-8.9322578907012939e-01" cType="0" res="4.3268159031867981e-02" rms="3.2095006108283997e-01" purity="8.3794403076171875e-01" nType="0">
        <Node pos="l" depth="1" NCoef="0" IVar="-1" Cut="0.0000000000000000e+00" cType="1" res="2.0558092743158340e-02" rms="3.0007043480873108e-01" purity="8.6572575569152832e-01" nType="-99"/>
        <Node pos="r" depth="1" NCoef="0" IVar="3" Cut="8.5994559526443481e-01" cType="0" res="-4.9922984093427658e-02" rms="3.8299492001533508e-01" purity="7.2132593393325806e-01" nType="0">
          <Node pos="l" depth="2" NCoef="0" IVar="-1" Cut="0.0000000000000000e+00" cType="1" res="1.1853894218802452e-02" rms="3.2608705759048462e-01" purity="8.6380004882812500e-01" nType="-99"/>
          <Node pos="r" depth="2" NCoef="0" IVar="-1" Cut="0.0000000000000000e+00" cType="1" res="-3.5155478864908218e-02" rms="4.3532598018646240e-01" purity="4.1606318950653076e-01" nType="-99"/>
        </Node>
      </Node>
    </BinaryTree>
    <BinaryTree type="DecisionTree" boostWeight="1.0000000000000000e+00" itree="26">
      <Node pos="s" depth="0" NCoef="0" IVar="1" Cut="-1.3005181550979614e+00" cType="0" res="2.5732051581144333e-02" rms="3.3272153139114380e-01" purity="8.2134282588958740e-01" nType="0">
        <Node pos="l" depth="1" NCoef="0" IVar="-1" Cut="0.0000000000000000e+00" cType="1" res="1.3413960114121437e-02" rms="3.1596288084983826e-01" purity="8.4481769800186157e-01" nType="-99"/>
        <Node pos="r" depth="1" NCoef="0" IVar="3" Cut="9.3080008029937744e-01" cType="0" res="-1.4806027710437775e-01" rms="4.1892990469932556e-01" purity="6.0898584127426147e-01" nType="0">
          <Node pos="l" depth="2" NCoef="0" IVar="-1" Cut="0.0000000000000000e+00" cType="1" res="-5.2848025225102901e-03" rms="3.7378987669944763e-01" purity="8.2426047325134277e-01" nType="-99"/>
          <Node pos="r" depth="2" NCoef="0" IVar="-1" Cut="0.0000000000000000e+00" cType="1" res="-6.0999095439910889e-02" rms="4.1211888194084167e-01" purity="3.4425237774848938e-01" nType="-99"/>
        </Node>
      </Node>
    </BinaryTree>
    <BinaryTree type="DecisionTree" boostWeight="1.0000000000000000e+00" itree="27">
      <Node pos="s" depth="0" NCoef="0" IVar="1" Cut="1.4948171377182007e+00" cType="1" res="1.3293153606355190e-02" rms="3.4317663311958313e-01" purity="8.0915307998657227e-01" nType="0">
        <Node pos="l" depth="1" NCoef="0" IVar="-1" Cut="0.0000000000000000e+00" cType="1" res="9.5796007663011551e-03" rms="3.2887548208236694e-01" purity="8.3642721176147461e-01" nType="-99"/>
        <Node pos="r" depth="1" NCoef="0" IVar="4" Cut="2.1702649593353271e+00" cType="1" res="-1.7382343113422394e-01" rms="4.3205934762954712e-01" purity="5.0533938407897949e-01" nType="0">
          <Node pos="l" depth="2" NCoef="0" IVar="-1" Cut="0.0000000000000000e+00" cType="1" res="-3.9455648511648178e-03" rms="3.7408003211021423e-01" purity="6.6956657171249390e-01" nType="-99"/>
          <Node pos="r" depth="2" NCoef="0" IVar="-1" Cut="0.0000000000000000e+00" cType="1" res="-4.2490985244512558e-02" rms="4.3571344017982483e-01" purity="3.7616911530494690e-01" nType="-99"/>
        </Node>
      </Node>
    </BinaryTree>
    <BinaryTree type="DecisionTree" boostWeight="1.0000000000000000e+00" itree="28">
      <Node pos="s" depth="0" NCoef="0" IVar="4" Cut="3.2411782741546631e+00" cType="1" res="3.2683581113815308e-02" rms="3.1778138875961304e-01" purity="8.3419817686080933e-01" nType="0">
        <Node pos="l" depth="1" NCoef="0" IVar="6" Cut="7.0498535156250000e+01" cType="0" res="4.4456046074628830e-02" rms="3.0780839920043945e-01" purity="8.5158878564834595e-01" nType="0">
          <Node pos="l" depth="2" NCoef="0" IVar="-1" Cut="0.0000000000000000e+00" cType="1" res="2.2359006106853485e-02" rms="2.8562921285629272e-01" purity="8.8157314062118530e-01" nType="-99"/>
          <Node pos="r" depth="2" NCoef="0" IVar="-1" Cut="0.0000000000000000e+00" cType="1" res="-2.1753672510385513e-02" rms="3.9228239655494690e-01" purity="6.7428988218307495e-01" nType="-99"/>
        </Node>
        <Node pos="r" depth="1" NCoef="0" IVar="-1" Cut="0.0000000000000000e+00" cType="1" res="-3.5121586173772812e-02" rms="4.0723037719726562e-01" purity="5.2197754383087158e-01" nType="-99"/>
      </Node>
    </BinaryTree>
    <BinaryTree type="DecisionTree" boostWeight="1.0000000000000000e+00" itree="29">
      <Node pos="s" depth="0" NCoef="0" IVar="2" Cut="9.5238097012042999e-02" cType="1" res="2.2781822830438614e-02" rms="3.1811285018920898e-01" purity="8.2782763242721558e-01" nType="0">
        <Node pos="l" depth="1" NCoef="0" IVar="-1" Cut="0.0000000000000000e+00" cType="1" res="3.4874353557825089e-02" rms="2.3364906013011932e-01" purity="9.3062627315521240e-01" nType="-99"/>
        <Node pos="r" depth="1" NCoef="0" IVar="3" Cut="6.4441317319869995e-01" cType="0" res="-1.5443705953657627e-02" rms="3.4673210978507996e-01" purity="7.7621442079544067e-01" nType="0">
          <Node pos="l" depth="2" NCoef="0" IVar="-1" Cut="0.0000000000000000e+00" cType="1" res="3.9302888326346874e-03" rms="3.2565656304359436e-01" purity="8.2985568046569824e-01" nType="-99"/>
          <Node pos="r" depth="2" NCoef="0" IVar="-1" Cut="0.0000000000000000e+00" cType="1" res="-3.7997577339410782e-02" rms="4.2063114047050476e-01" purity="3.5066530108451843e-01" nType="-99"/>
        </Node>
      </Node>
    </BinaryTree>
    <BinaryTree type="DecisionTree" boostWeight="1.0000000000000000e+00" itree="30">
      <Node pos="s" depth="0" NCoef="0" IVar="3" Cut="9.6435356140136719e-01" cType="0" res="1.0507729835808277e-02" rms="3.3039298653602600e-01" purity="8.1711757183074951e-01" nType="0">
        <Node pos="l" depth="1" NCoef="0" IVar="-1" Cut="0.0000000000000000e+00" cType="1" res="3.0868586152791977e-02" rms="2.2790892422199249e-01" purity="9.3847119808197021e-01" nType="-99"/>
        <Node pos="r" depth="1" NCoef="0" IVar="0" Cut="4.4928073883056641e+01" cType="0" res="-4.6881854534149170e-02" rms="3.9518555998802185e-01" purity="7.0299452543258667e-01" nType="0">
          <Node pos="l" depth="2" NCoef="0" IVar="-1" Cut="0.0000000000000000e+00" cType="1" res="8.2219382748007774e-03" rms="3.2107040286064148e-01" purity="8.5911446809768677e-01" nType="-99"/>
          <Node pos="r" depth="2" NCoef="0" IVar="-1" Cut="0.0000000000000000e+00" cType="1" res="-2.5228267535567284e-02" rms="4.4557788968086243e-01" purity="5.4880946874618530e-01" nType="-99"/>
        </Node>
      </Node>
    </BinaryTree>
    <BinaryTree type="DecisionTree" boostWeight="1.0000000000000000e+00" itree="31">
      <Node pos="s" depth="0" NCoef="0" IVar="0" Cut="3.6637100219726562e+01" cType="0" res="9.6396859735250473e-03" rms="3.2788911461830139e-01" purity="8.1864804029464722e-01" nType="0">
        <Node pos="l" depth="1" NCoef="0" IVar="-1" Cut="0.0000000000000000e+00" cType="1" res="2.1859481930732727e-02" rms="2.5247010588645935e-01" purity="9.1682481765747070e-01" nType="-99"/>
        <Node pos="r" depth="1" NCoef="0" IVar="2" Cut="9.5238097012042999e-02" cType="1" res="-5.7515241205692291e-02" rms="4.1429075598716736e-01" purity="6.5849733352661133e-01" nType="0">
          <Node pos="l" depth="2" NCoef="0" IVar="-1" Cut="0.0000000000000000e+00" cType="1" res="1.5035840682685375e-02" rms="3.4579867124557495e-01" purity="8.3612310886383057e-01" nType="-99"/>
          <Node pos="r" depth="2" NCoef="0" IVar="-1" Cut="0.0000000000000000e+00" cType="1" res="-2.2840315476059914e-02" rms="4.3577459454536438e-01" purity="5.6183999776840210e-01" nType="-99"/>
        </Node>
      </Node>
    </BinaryTree>
    <BinaryTree type="DecisionTree" boostWeight="1.0000000000000000e+00" itree="32">
      <Node pos="s" depth="0" NCoef="0" IVar="1" Cut="1.4918136596679688e+00" cType="1" res="1.2735851109027863e-02" rms="3.2609489560127258e-01" purity="8.2229918241500854e-01" nType="0">
        <Node pos="l" depth="1" NCoef="0" IVar="-1" Cut="0.0000000000000000e+00" cType="1" res="9.6305124461650848e-03" rms="3.1138709187507629e-01" purity="8.4680628776550293e-01" nType="-99"/>
        <Node pos="r" depth="1" NCoef="0" IVar="5" Cut="2.1549482345581055e+00" cType="1" res="-1.5982252359390259e-01" rms="4.3089947104454041e-01" purity="5.3055936098098755e-01" nType="0">
          <Node pos="l" depth="2" NCoef="0" IVar="-1" Cut="0.0000000000000000e+00" cType="1" res="-2.4185990914702415e-02" rms="4.3405881524085999e-01" purity="5.9763658046722412e-01" nType="-99"/>
          <Node pos="r" depth="2" NCoef="0" IVar="-1" Cut="0.0000000000000000e+00" cType="1" res="-3.3686444163322449e-02" rms="4.2306318879127502e-01" purity="4.6802386641502380e-01" nType="-99"/>
        </Node>
      </Node>
    </BinaryTree>
    <BinaryTree type="DecisionTree" boostWeight="1.0000000000000000e+00" itree="33">
      <Node pos="s" depth="0" NCoef="0" IVar="6" Cut="7.0455924987792969e+01" cType="0" res="2.8912294656038284e-03" rms="3.3291447162628174e-01" purity="8.1767582893371582e-01" nType="0">
        <Node pos="l" depth="1" NCoef="0" IVar="-1" Cut="0.0000000000000000e+00" cType="1" res="8.9881438761949539e-03" rms="3.1104972958564758e-01" purity="8.5269778966903687e-01" nType="-99"/>
        <Node pos="r" depth="1" NCoef="0" IVar="3" Cut="9.6498507261276245e-01" cType="0" res="-1.3334175944328308e-01" rms="4.1640073060989380e-01" purity="6.0819280147552490e-01" nType="0">
          <Node pos="l" depth="2" NCoef="0" IVar="-1" Cut="0.0000000000000000e+00" cType="1" res="-8.1076119095087051e-03" rms="3.6040410399436951e-01" purity="8.1454539299011230e-01" nType="-99"/>
          <Node pos="r" depth="2" NCoef="0" IVar="-1" Cut="0.0000000000000000e+00" cType="1" res="-4.1627321392297745e-02" rms="4.3878075480461121e-01" purity="4.2288449406623840e-01" nType="-99"/>
        </Node>
      </Node>
    </BinaryTree>
    <BinaryTree type="DecisionTree" boostWeight="1.0000000000000000e+00" itree="34">
      <Node pos="s" depth="0" NCoef="0" IVar="2" Cut="9.5238097012042999e-02" cType="1" res="2.0379300694912672e-03" rms="3.3014824986457825e-01" purity="8.0947524309158325e-01" nType="0">
        <Node pos="l" depth="1" NCoef="0" IVar="-1" Cut="0.0000000000000000e+00" cType="1" res="3.3920444548130035e-02" rms="2.4278117716312408e-01" purity="9.2809736728668213e-01" nType="-99"/>
        <Node pos="r" depth="1" NCoef="0" IVar="0" Cut="4.1548656463623047e+01" cType="0" res="-3.6228071898221970e-02" rms="3.5798463225364685e-01" purity="7.5328505039215088e-01" nType="0">
          <Node pos="l" depth="2" NCoef="0" IVar="-1" Cut="0.0000000000000000e+00" cType="1" res="1.3529022224247456e-02" rms="2.7709004282951355e-01" purity="8.9833748340606689e-01" nType="-99"/>
          <Node pos="r" depth="2" NCoef="0" IVar="-1" Cut="0.0000000000000000e+00" cType="1" res="-2.5061350315809250e-02" rms="4.2208942770957947e-01" purity="5.7636940479278564e-01" nType="-99"/>
        </Node>
      </Node>
    </BinaryTree>
    <BinaryTree type="DecisionTree" boostWeight="1.0000000000000000e+00" itree="35">
      <Node pos="s" depth="0" NCoef="0" IVar="3" Cut="9.2882138490676880e-01" cType="0" res="-2.0269458182156086e-03" rms="3.3426883816719055e-01" purity="8.1125992536544800e-01" nType="0">
        <Node pos="l" depth="1" NCoef="0" IVar="-1" Cut="0.0000000000000000e+00" cType="1" res="2.2435443475842476e-02" rms="2.5156286358833313e-01" purity="9.2380374670028687e-01" nType="-99"/>
        <Node pos="r" depth="1" NCoef="0" IVar="2" Cut="4.7619048506021500e-02" cType="1" res="-8.8030919432640076e-02" rms="4.2436432838439941e-01" purity="6.2493878602981567e-01" nType="0">
          <Node pos="l" depth="2" NCoef="0" IVar="-1" Cut="0.0000000000000000e+00" cType="1" res="1.8751833587884903e-02" rms="3.1282514333724976e-01" purity="8.6086112260818481e-01" nType="-99"/>
          <Node pos="r" depth="2" NCoef="0" IVar="-1" Cut="0.0000000000000000e+00" cType="1" res="-2.9578844085335732e-02" rms="4.4848081469535828e-01" purity="5.3085416555404663e-01" nType="-99"/>
        </Node>
      </Node>
    </BinaryTree>
    <BinaryTree type="DecisionTree" boostWeight="1.0000000000000000e+00" itree="36">
      <Node pos="s" depth="0" NCoef="0" IVar="5" Cut="3.1701400279998779e+00" cType="1" res="2.1941000595688820e-02" rms="3.1515884399414062e-01" purity="8.3668744564056396e-01" nType="0">
        <Node pos="l" depth="1" NCoef="0" IVar="-1" Cut="0.0000000000000000e+00" cType="1" res="1.1362245306372643e-02" rms="3.0435791611671448e-01" purity="8.5383558273315430e-01" nType="-99"/>
        <Node pos="r" depth="1" NCoef="0" IVar="3" Cut="9.6418899297714233e-01" cType="0" res="-1.0269147157669067e-01" rms="3.9634919166564941e-01" purity="6.4527130126953125e-01" nType="0">
          <Node pos="l" depth="2" NCoef="0" IVar="-1" Cut="0.0000000000000000e+00" cType="1" res="-1.0462972568348050e-03" rms="3.4222361445426941e-01" purity="8.5271394252777100e-01" nType="-99"/>
          <Node pos="r" depth="2" NCoef="0" IVar="-1" Cut="0.0000000000000000e+00" cType="1" res="-4.3700940907001495e-02" rms="4.2073693871498108e-01" purity="4.4094642996788025e-01" nType="-99"/>
        </Node>
      </Node>
    </BinaryTree>
    <BinaryTree type="DecisionTree" boostWeight="1.0000000000000000e+00" itree="37">
      <Node pos="s" depth="0" NCoef="0" IVar="3" Cut="9.2864900827407837e-01" cType="0" res="-1.5185549855232239e-03" rms="3.3163577318191528e-01" purity="8.0920863151550293e-01" nType="0">
        <Node pos="l" depth="1" NCoef="0" IVar="-1" Cut="0.0000000000000000e+00" cType="1" res="1.6510421410202980e-02" rms="2.6382187008857727e-01" purity="9.1392296552658081e-01" nType="-99"/>
        <Node pos="r" depth="1" NCoef="0" IVar="2" Cut="4.7619048506021500e-02" cType="1" res="-5.6576702743768692e-02" rms="4.0836271643638611e-01" purity="6.4897370338439941e-01" nType="0">
          <Node pos="l" depth="2" NCoef="0" IVar="-1" Cut="0.0000000000000000e+00" cType="1" res="2.5240795686841011e-02" rms="3.0068257451057434e-01" purity="8.7684476375579834e-01" nType="-99"/>
          <Node pos="r" depth="2" NCoef="0" IVar="-1" Cut="0.0000000000000000e+00" cType="1" res="-2.1862722933292389e-02" rms="4.3635368347167969e-01" purity="5.4778140783309937e-01" nType="-99"/>
        </Node>
      </Node>
    </BinaryTree>
    <BinaryTree type="DecisionTree" boostWeight="1.0000000000000000e+00" itree="38">
      <Node pos="s" depth="0" NCoef="0" IVar="3" Cut="9.2856073379516602e-01" cType="0" res="-1.6778143122792244e-02" rms="3.3378657698631287e-01" purity="7.9451543092727661e-01" nType="0">
        <Node pos="l" depth="1" NCoef="0" IVar="-1" Cut="0.0000000000000000e+00" cType="1" res="1.3025484047830105e-02" rms="2.7040201425552368e-01" purity="9.0964084863662720e-01" nType="-99"/>
        <Node pos="r" depth="1" NCoef="0" IVar="2" Cut="4.7619048506021500e-02" cType="1" res="-8.8609017431735992e-02" rms="4.0618145465850830e-01" purity="6.0837072134017944e-01" nType="0">
          <Node pos="l" depth="2" NCoef="0" IVar="-1" Cut="0.0000000000000000e+00" cType="1" res="8.9538497850298882e-03" rms="3.2461765408515930e-01" purity="8.4696573019027710e-01" nType="-99"/>
          <Node pos="r" depth="2" NCoef="0" IVar="-1" Cut="0.0000000000000000e+00" cType="1" res="-2.4163721129298210e-02" rms="4.2694044113159180e-01" purity="5.0614148378372192e-01" nType="-99"/>
        </Node>
      </Node>
    </BinaryTree>
    <BinaryTree type="DecisionTree" boostWeight="1.0000000000000000e+00" itree="39">
      <Node pos="s" depth="0" NCoef="0" IVar="0" Cut="5.3241069793701172e+01" cType="0" res="-6.8756267428398132e-03" rms="3.3294209837913513e-01" purity="8.0889606475830078e-01" nType="0">
        <Node pos="l" depth="1" NCoef="0" IVar="-1" Cut="0.0000000000000000e+00" cType="1" res="2.6057515293359756e-02" rms="2.2310732305049896e-01" purity="9.3650263547897339e-01" nType="-99"/>
        <Node pos="r" depth="1" NCoef="0" IVar="6" Cut="9.4327033996582031e+01" cType="0" res="-4.2934928089380264e-02" rms="3.8112378120422363e-01" purity="7.2990524768829346e-01" nType="0">
          <Node pos="l" depth="2" NCoef="0" IVar="-1" Cut="0.0000000000000000e+00" cType="1" res="1.3915182789787650e-03" rms="3.4091860055923462e-01" purity="7.9782807826995850e-01" nType="-99"/>
          <Node pos="r" depth="2" NCoef="0" IVar="-1" Cut="0.0000000000000000e+00" cType="1" res="-3.1052628532052040e-02" rms="4.2540833353996277e-01" purity="6.2577629089355469e-01" nType="-99"/>
        </Node>
      </Node>
    </BinaryTree>
    <BinaryTree type="DecisionTree" boostWeight="1.0000000000000000e+00" itree="40">
      <Node pos="s" depth="0" NCoef="0" IVar="0" Cut="3.6637100219726562e+01" cType="0" res="-1.0354454629123211e-02" rms="3.3272981643676758e-01" purity="8.0851858854293823e-01" nType="0">
        <Node pos="l" depth="1" NCoef="0" IVar="-1" Cut="0.0000000000000000e+00" cType="1" res="1.1365096084773540e-02" rms="2.6376819610595703e-01" purity="9.0155756473541260e-01" nType="-99"/>
        <Node pos="r" depth="1" NCoef="0" IVar="0" Cut="2.7140336990356445e+01" cType="0" res="-6.9976143538951874e-02" rms="4.1557013988494873e-01" purity="6.5538769960403442e-01" nType="0">
          <Node pos="l" depth="2" NCoef="0" IVar="-1" Cut="0.0000000000000000e+00" cType="1" res="4.2785750702023506e-03" rms="3.6484521627426147e-01" purity="7.7625489234924316e-01" nType="-99"/>
          <Node pos="r" depth="2" NCoef="0" IVar="-1" Cut="0.0000000000000000e+00" cType="1" res="-3.5341642796993256e-02" rms="4.4451791048049927e-01" purity="5.3762459754943848e-01" nType="-99"/>
        </Node>
      </Node>
    </BinaryTree>
    <BinaryTree type="DecisionTree" boostWeight="1.0000000000000000e+00" itree="41">
      <Node pos="s" depth="0" NCoef="0" IVar="0" Cut="3.0825138092041016e+01" cType="0" res="1.4371880097314715e-03" rms="3.2722046971321106e-01" purity="8.1858247518539429e-01" nType="0">
        <Node pos="l" depth="1" NCoef="0" IVar="-1" Cut="0.0000000000000000e+00" cType="1" res="1.1330490931868553e-02" rms="2.7916565537452698e-01" purity="8.9446312189102173e-01" nType="-99"/>
        <Node pos="r" depth="1" NCoef="0" IVar="6" Cut="6.8411048889160156e+01" cType="0" res="-6.5465241670608521e-02" rms="4.2449730634689331e-01" purity="6.1222261190414429e-01" nType="0">
          <Node pos="l" depth="2" NCoef="0" IVar="-1" Cut="0.0000000000000000e+00" cType="1" res="-7.4923783540725708e-03" rms="4.1168022155761719e-01" purity="6.6458594799041748e-01" nType="-99"/>
          <Node pos="r" depth="2" NCoef="0" IVar="-1" Cut="0.0000000000000000e+00" cType="1" res="-3.9250638335943222e-02" rms="4.4868117570877075e-01" purity="3.8482013344764709e-01" nType="-99"/>
        </Node>
      </Node>
    </BinaryTree>
    <BinaryTree type="DecisionTree" boostWeight="1.0000000000000000e+00" itree="42">
      <Node pos="s" depth="0" NCoef="0" IVar="1" Cut="8.9505624771118164e-01" cType="1" res="1.1776546947658062e-02" rms="3.1619927287101746e-01" purity="8.2681208848953247e-01" nType="0">
        <Node pos="l" depth="1" NCoef="0" IVar="-1" Cut="0.0000000000000000e+00" cType="1" res="1.0913093574345112e-02" rms="2.9716891050338745e-01" purity="8.5546571016311646e-01" nType="-99"/>
        <Node pos="r" depth="1" NCoef="0" IVar="3" Cut="9.2832428216934204e-01" cType="0" res="-6.4395971596240997e-02" rms="3.7785646319389343e-01" purity="7.0419222116470337e-01" nType="0">
          <Node pos="l" depth="2" NCoef="0" IVar="-1" Cut="0.0000000000000000e+00" cType="1" res="3.2192070502787828e-03" rms="3.2292577624320984e-01" purity="8.6836242675781250e-01" nType="-99"/>
          <Node pos="r" depth="2" NCoef="0" IVar="-1" Cut="0.0000000000000000e+00" cType="1" res="-3.5215694457292557e-02" rms="4.2813020944595337e-01" purity="4.3292555212974548e-01" nType="-99"/>
        </Node>
      </Node>
    </BinaryTree>
    <BinaryTree type="DecisionTree" boostWeight="1.0000000000000000e+00" itree="43">
      <Node pos="s" depth="0" NCoef="0" IVar="1" Cut="1.4991050958633423e+00" cType="1" res="2.0237544085830450e-03" rms="3.1989827752113342e-01" purity="8.2150375843048096e-01" nType="0">
        <Node pos="l" depth="1" NCoef="0" IVar="0" Cut="3.4011440277099609e+01" cType="0" res="1.4245039783418179e-02" rms="3.0560204386711121e-01" purity="8.4545344114303589e-01" nType="0">
          <Node pos="l" depth="2" NCoef="0" IVar="-1" Cut="0.0000000000000000e+00" cType="1" res="2.0997460931539536e-02" rms="2.3662893474102020e-01" purity="9.3050497770309448e-01" nType="-99"/>
          <Node pos="r" depth="2" NCoef="0" IVar="-1" Cut="0.0000000000000000e+00" cType="1" res="-1.0144893079996109e-02" rms="4.1032043099403381e-01" purity="6.6413807868957520e-01" nType="-99"/>
        </Node>
        <Node pos="r" depth="1" NCoef="0" IVar="-1" Cut="0.0000000000000000e+00" cType="1" res="-3.2010316848754883e-02" rms="4.4100660085678101e-01" purity="4.9480703473091125e-01" nType="-99"/>
      </Node>
    </BinaryTree>
    <BinaryTree type="DecisionTree" boostWeight="1.0000000000000000e+00" itree="44">
      <Node pos="s" depth="0" NCoef="0" IVar="1" Cut="-1.6903747320175171e+00" cType="0" res="-3.2672423403710127e-03" rms="3.2218211889266968e-01" purity="8.2160460948944092e-01" nType="0">
        <Node pos="l" depth="1" NCoef="0" IVar="3" Cut="6.4359909296035767e-01" cType="0" res="3.9603696204721928e-03" rms="3.1524327397346497e-01" purity="8.2988071441650391e-01" nType="0">
          <Node pos="l" depth="2" NCoef="0" IVar="-1" Cut="0.0000000000000000e+00" cType="1" res="5.6113386526703835e-03" rms="2.9867595434188843e-01" purity="8.6002850532531738e-01" nType="-99"/>
          <Node pos="r" depth="2" NCoef="0" IVar="-1" Cut="0.0000000000000000e+00" cType="1" res="-2.1237678825855255e-02" rms="4.2164534330368042e-01" purity="5.6780874729156494e-01" nType="-99"/>
        </Node>
        <Node pos="r" depth="1" NCoef="0" IVar="-1" Cut="0.0000000000000000e+00" cType="1" res="-7.3474600911140442e-02" rms="4.2024675011634827e-01" purity="6.3162052631378174e-01" nType="-99"/>
      </Node>
    </BinaryTree>
    <BinaryTree type="DecisionTree" boostWeight="1.0000000000000000e+00" itree="45">
      <Node pos="s" depth="0" NCoef="0" IVar="5" Cut="3.1701400279998779e+00" cType="1" res="-5.4455571807920933e-03" rms="3.3303746581077576e-01" purity="8.1251055002212524e-01" nType="0">
        <Node pos="l" depth="1" NCoef="0" IVar="3" Cut="8.5827684402465820e-01" cType="0" res="7.0769609883427620e-03" rms="3.2260268926620483e-01" purity="8.2875627279281616e-01" nType="0">
          <Node pos="l" depth="2" NCoef="0" IVar="-1" Cut="0.0000000000000000e+00" cType="1" res="1.7258081585168839e-02" rms="2.6639363169670105e-01" purity="9.0981560945510864e-01" nType="-99"/>
          <Node pos="r" depth="2" NCoef="0" IVar="-1" Cut="0.0000000000000000e+00" cType="1" res="-1.5079271979629993e-02" rms="4.3472477793693542e-01" purity="6.0044300556182861e-01" nType="-99"/>
        </Node>
        <Node pos="r" depth="1" NCoef="0" IVar="-1" Cut="0.0000000000000000e+00" cType="1" res="-5.1005814224481583e-02" rms="4.1786009073257446e-01" purity="5.7893842458724976e-01" nType="-99"/>
      </Node>
    </BinaryTree>
    <BinaryTree type="DecisionTree" boostWeight="1.0000000000000000e+00" itree="46">
      <Node pos="s" depth="0" NCoef="0" IVar="1" Cut="-1.5003181695938110e+00" cType="0" res="2.8126855613663793e-04" rms="3.2005882263183594e-01" purity="8.1067031621932983e-01" nType="0">
        <Node pos="l" depth="1" NCoef="0" IVar="-1" Cut="0.0000000000000000e+00" cType="1" res="3.3761169761419296e-03" rms="3.0990448594093323e-01" purity="8.2442313432693481e-01" nType="-99"/>
        <Node pos="r" depth="1" NCoef="0" IVar="5" Cut="2.1116292476654053e+00" cType="1" res="-1.2820553779602051e-01" rms="4.1620850563049316e-01" purity="6.2041425704956055e-01" nType="0">
          <Node pos="l" depth="2" NCoef="0" IVar="-1" Cut="0.0000000000000000e+00" cType="1" res="-1.3956636190414429e-02" rms="3.9506950974464417e-01" purity="7.1730560064315796e-01" nType="-99"/>
          <Node pos="r" depth="2" NCoef="0" IVar="-1" Cut="0.0000000000000000e+00" cType="1" res="-8.5729382932186127e-02" rms="4.2004230618476868e-01" purity="5.0952869653701782e-01" nType="-99"/>
        </Node>
      </Node>
    </BinaryTree>
    <BinaryTree type="DecisionTree" boostWeight="1.0000000000000000e+00" itree="47">
      <Node pos="s" depth="0" NCoef="0" IVar="6" Cut="1.0979622650146484e+02" cType="0" res="-1.8358157249167562e-03" rms="3.1920874118804932e-01" purity="8.1073617935180664e-01" nType="0">
        <Node pos="l" depth="1" NCoef="0" IVar="-1" Cut="0.0000000000000000e+00" cType="1" res="1.3943667523562908e-02" rms="2.6884499192237854e-01" purity="8.8201028108596802e-01" nType="-99"/>
        <Node pos="r" depth="1" NCoef="0" IVar="3" Cut="7.8713154792785645e-01" cType="0" res="-4.3357163667678833e-02" rms="3.6381000280380249e-01" purity="7.2962898015975952e-01" nType="0">
          <Node pos="l" depth="2" NCoef="0" IVar="-1" Cut="0.0000000000000000e+00" cType="1" res="-1.8073671963065863e-03" rms="3.3080673217773438e-01" purity="8.2557076215744019e-01" nType="-99"/>
          <Node pos="r" depth="2" NCoef="0" IVar="-1" Cut="0.0000000000000000e+00" cType="1" res="-3.0949173495173454e-02" rms="4.2916634678840637e-01" purity="4.3544092774391174e-01" nType="-99"/>
        </Node>
      </Node>
    </BinaryTree>
    <BinaryTree type="DecisionTree" boostWeight="1.0000000000000000e+00" itree="48">
      <Node pos="s" depth="0" NCoef="0" IVar="6" Cut="1.4913652038574219e+02" cType="0" res="5.8895372785627842e-03" rms="3.2086378335952759e-01" purity="8.2408636808395386e-01" nType="0">
        <Node pos="l" depth="1" NCoef="0" IVar="-1" Cut="0.0000000000000000e+00" cType="1" res="3.3514663577079773e-02" rms="2.1427218616008759e-01" purity="9.2939019203186035e-01" nType="-99"/>
        <Node pos="r" depth="1" NCoef="0" IVar="0" Cut="3.0732437133789062e+01" cType="0" res="-2.0969394594430923e-02" rms="3.5197553038597107e-01" purity="7.8086489439010620e-01" nType="0">
          <Node pos="l" depth="2" NCoef="0" IVar="-1" Cut="0.0000000000000000e+00" cType="1" res="1.7894179327413440e-03" rms="2.9781156778335571e-01" purity="8.6646169424057007e-01" nType="-99"/>
          <Node pos="r" depth="2" NCoef="0" IVar="-1" Cut="0.0000000000000000e+00" cType="1" res="-1.8833648413419724e-02" rms="4.5037633180618286e-01" purity="5.7607114315032959e-01" nType="-99"/>
        </Node>
      </Node>
    </BinaryTree>
    <BinaryTree type="DecisionTree" boostWeight="1.0000000000000000e+00" itree="49">
      <Node pos="s" depth="0" NCoef="0" IVar="6" Cut="1.4923435974121094e+02" cType="0" res="-4.7517009079456329e-03" rms="3.2383546233177185e-01" purity="8.0646437406539917e-01" nType="0">
        <Node pos="l" depth="1" NCoef="0" IVar="-1" Cut="0.0000000000000000e+00" cType="1" res="2.6425464078783989e-02" rms="2.3947164416313171e-01" purity="9.2286717891693115e-01" nType="-99"/>
        <Node pos="r" depth="1" NCoef="0" IVar="0" Cut="3.2503513336181641e+01" cType="0" res="-2.9044175520539284e-02" rms="3.4959548711776733e-01" purity="7.5898373126983643e-01" nType="0">
          <Node pos="l" depth="2" NCoef="0" IVar="-1" Cut="0.0000000000000000e+00" cType="1" res="1.1860127560794353e-03" rms="3.0196470022201538e-01" purity="8.6731004714965820e-01" nType="-99"/>
          <Node pos="r" depth="2" NCoef="0" IVar="-1" Cut="0.0000000000000000e+00" cType="1" res="-1.8536463379859924e-02" rms="4.1835951805114746e-01" purity="5.5562418699264526e-01" nType="-99"/>
        </Node>
      </Node>
    </BinaryTree>
    <BinaryTree type="DecisionTree" boostWeight="1.0000000000000000e+00" itree="50">
      <Node pos="s" depth="0" NCoef="0" IVar="0" Cut="3.4011440277099609e+01" cType="0" res="-5.3964937105774879e-03" rms="3.2278245687484741e-01" purity="8.0912560224533081e-01" nType="0">
        <Node pos="l" depth="1" NCoef="0" IVar="-1" Cut="0.0000000000000000e+00" cType="1" res="1.5228453092277050e-02" rms="2.5387123227119446e-01" purity="9.1677087545394897e-01" nType="-99"/>
        <Node pos="r" depth="1" NCoef="0" IVar="1" Cut="8.9728242158889771e-01" cType="1" res="-7.1713082492351532e-02" rms="4.1754025220870972e-01" purity="6.0101830959320068e-01" nType="0">
          <Node pos="l" depth="2" NCoef="0" IVar="-1" Cut="0.0000000000000000e+00" cType="1" res="-6.4169424585998058e-03" rms="4.0862426161766052e-01" purity="6.6706651449203491e-01" nType="-99"/>
          <Node pos="r" depth="2" NCoef="0" IVar="-1" Cut="0.0000000000000000e+00" cType="1" res="-3.5123519599437714e-02" rms="4.1685855388641357e-01" purity="4.2034965753555298e-01" nType="-99"/>
        </Node>
      </Node>
    </BinaryTree>
    <BinaryTree type="DecisionTree" boostWeight="1.0000000000000000e+00" itree="51">
      <Node pos="s" depth="0" NCoef="0" IVar="1" Cut="-1.6985636949539185e+00" cType="0" res="6.6756745800375938e-03" rms="3.1780281662940979e-01" purity="8.2749247550964355e-01" nType="0">
        <Node pos="l" depth="1" NCoef="0" IVar="1" Cut="1.1945608854293823e+00" cType="1" res="1.3046092353761196e-02" rms="3.1015375256538391e-01" purity="8.3747297525405884e-01" nType="0">
          <Node pos="l" depth="2" NCoef="0" IVar="-1" Cut="0.0000000000000000e+00" cType="1" res="1.0831926949322224e-02" rms="2.9560428857803345e-01" purity="8.6564373970031738e-01" nType="-99"/>
          <Node pos="r" depth="2" NCoef="0" IVar="-1" Cut="0.0000000000000000e+00" cType="1" res="-1.8122145906090736e-02" rms="3.7841507792472839e-01" purity="6.5995782613754272e-01" nType="-99"/>
        </Node>
        <Node pos="r" depth="1" NCoef="0" IVar="-1" Cut="0.0000000000000000e+00" cType="1" res="-5.7987552136182785e-02" rms="4.4358873367309570e-01" purity="5.7034081220626831e-01" nType="-99"/>
      </Node>
    </BinaryTree>
    <BinaryTree type="DecisionTree" boostWeight="1.0000000000000000e+00" itree="52">
      <Node pos="s" depth="0" NCoef="0" IVar="3" Cut="6.0808366537094116e-01" cType="0" res="-1.6430230811238289e-02" rms="3.2346901297569275e-01" purity="7.9618579149246216e-01" nType="0">
        <Node pos="l" depth="1" NCoef="0" IVar="-1" Cut="0.0000000000000000e+00" cType="1" res="-1.8404293223284185e-04" rms="3.0825039744377136e-01" purity="8.3336997032165527e-01" nType="-99"/>
        <Node pos="r" depth="1" NCoef="0" IVar="1" Cut="-2.1924138069152832e-01" cType="0" res="-1.6746877133846283e-01" rms="4.1279846429824829e-01" purity="4.4424664974212646e-01" nType="0">
          <Node pos="l" depth="2" NCoef="0" IVar="-1" Cut="0.0000000000000000e+00" cType="1" res="-2.6237389072775841e-02" rms="4.1833972930908203e-01" purity="5.5314010381698608e-01" nType="-99"/>
          <Node pos="r" depth="2" NCoef="0" IVar="-1" Cut="0.0000000000000000e+00" cType="1" res="-3.4369409084320068e-02" rms="3.9369553327560425e-01" purity="3.3890280127525330e-01" nType="-99"/>
        </Node>
      </Node>
    </BinaryTree>
    <BinaryTree type="DecisionTree" boostWeight="1.0000000000000000e+00" itree="53">
      <Node pos="s" depth="0" NCoef="0" IVar="0" Cut="5.7378593444824219e+01" cType="0" res="-8.5037089884281158e-03" rms="3.2367897033691406e-01" purity="8.0970489978790283e-01" nType="0">
        <Node pos="l" depth="1" NCoef="0" IVar="-1" Cut="0.0000000000000000e+00" cType="1" res="2.3582257330417633e-02" rms="2.0032632350921631e-01" purity="9.4680106639862061e-01" nType="-99"/>
        <Node pos="r" depth="1" NCoef="0" IVar="0" Cut="2.7137010574340820e+01" cType="0" res="-3.4653648734092712e-02" rms="3.7013784050941467e-01" purity="7.3714578151702881e-01" nType="0">
          <Node pos="l" depth="2" NCoef="0" IVar="-1" Cut="0.0000000000000000e+00" cType="1" res="-1.6380689339712262e-03" rms="3.3187451958656311e-01" purity="8.2505947351455688e-01" nType="-99"/>
          <Node pos="r" depth="2" NCoef="0" IVar="-1" Cut="0.0000000000000000e+00" cType="1" res="-2.0640475675463676e-02" rms="4.3530482053756714e-01" purity="5.4394632577896118e-01" nType="-99"/>
        </Node>
      </Node>
    </BinaryTree>
    <BinaryTree type="DecisionTree" boostWeight="1.0000000000000000e+00" itree="54">
      <Node pos="s" depth="0" NCoef="0" IVar="3" Cut="8.2292377948760986e-01" cType="0" res="4.3238140642642975e-03" rms="3.1487509608268738e-01" purity="8.2225203514099121e-01" nType="0">
        <Node pos="l" depth="1" NCoef="0" IVar="-1" Cut="0.0000000000000000e+00" cType="1" res="1.1762476526200771e-02" rms="2.7503705024719238e-01" purity="8.9486706256866455e-01" nType="-99"/>
        <Node pos="r" depth="1" NCoef="0" IVar="2" Cut="4.7619048506021500e-02" cType="1" res="-7.5195670127868652e-02" rms="4.2021429538726807e-01" purity="5.5808222293853760e-01" nType="0">
          <Node pos="l" depth="2" NCoef="0" IVar="-1" Cut="0.0000000000000000e+00" cType="1" res="3.2332591712474823e-02" rms="2.9587978124618530e-01" purity="8.7274706363677979e-01" nType="-99"/>
          <Node pos="r" depth="2" NCoef="0" IVar="-1" Cut="0.0000000000000000e+00" cType="1" res="-2.7025604620575905e-02" rms="4.4359764456748962e-01" purity="4.3124151229858398e-01" nType="-99"/>
        </Node>
      </Node>
    </BinaryTree>
    <BinaryTree type="DecisionTree" boostWeight="1.0000000000000000e+00" itree="55">
      <Node pos="s" depth="0" NCoef="0" IVar="0" Cut="5.3241069793701172e+01" cType="0" res="6.3405078835785389e-03" rms="3.0777451395988464e-01" purity="8.2610601186752319e-01" nType="0">
        <Node pos="l" depth="1" NCoef="0" IVar="-1" Cut="0.0000000000000000e+00" cType="1" res="3.0954821035265923e-02" rms="1.8576902151107788e-01" purity="9.5718050003051758e-01" nType="-99"/>
        <Node pos="r" depth="1" NCoef="0" IVar="7" Cut="9.4539009094238281e+01" cType="0" res="-1.8401436507701874e-02" rms="3.5998481512069702e-01" purity="7.4668347835540771e-01" nType="0">
          <Node pos="l" depth="2" NCoef="0" IVar="-1" Cut="0.0000000000000000e+00" cType="1" res="1.8479855731129646e-02" rms="3.2362943887710571e-01" purity="8.4743744134902954e-01" nType="-99"/>
          <Node pos="r" depth="2" NCoef="0" IVar="-1" Cut="0.0000000000000000e+00" cType="1" res="-1.2857116758823395e-02" rms="3.6941078305244446e-01" purity="7.0726007223129272e-01" nType="-99"/>
        </Node>
      </Node>
    </BinaryTree>
    <BinaryTree type="DecisionTree" boostWeight="1.0000000000000000e+00" itree="56">
      <Node pos="s" depth="0" NCoef="0" IVar="1" Cut="1.2842456102371216e+00" cType="1" res="2.7380073443055153e-03" rms="3.0618831515312195e-01" purity="8.2306754589080811e-01" nType="0">
        <Node pos="l" depth="1" NCoef="0" IVar="-1" Cut="0.0000000000000000e+00" cType="1" res="6.1302534304559231e-03" rms="2.9465833306312561e-01" purity="8.5045516490936279e-01" nType="-99"/>
        <Node pos="r" depth="1" NCoef="0" IVar="7" Cut="7.5034248352050781e+01" cType="0" res="-1.0678146779537201e-01" rms="3.7531864643096924e-01" purity="5.8396589756011963e-01" nType="0">
          <Node pos="l" depth="2" NCoef="0" IVar="-1" Cut="0.0000000000000000e+00" cType="1" res="3.2268778886646032e-03" rms="2.9462748765945435e-01" purity="7.1694725751876831e-01" nType="-99"/>
          <Node pos="r" depth="2" NCoef="0" IVar="-1" Cut="0.0000000000000000e+00" cType="1" res="-3.8180716335773468e-02" rms="4.0156903862953186e-01" purity="4.9259757995605469e-01" nType="-99"/>
        </Node>
      </Node>
    </BinaryTree>
    <BinaryTree type="DecisionTree" boostWeight="1.0000000000000000e+00" itree="57">
      <Node pos="s" depth="0" NCoef="0" IVar="1" Cut="-1.1007181406021118e+00" cType="0" res="1.3387652114033699e-02" rms="3.1025078892707825e-01" purity="8.3746790885925293e-01" nType="0">
        <Node pos="l" depth="1" NCoef="0" IVar="-1" Cut="0.0000000000000000e+00" cType="1" res="1.1120352894067764e-02" rms="2.9600733518600464e-01" purity="8.5840237140655518e-01" nType="-99"/>
        <Node pos="r" depth="1" NCoef="0" IVar="3" Cut="9.6465849876403809e-01" cType="0" res="-6.8047955632209778e-02" rms="3.7541818618774414e-01" purity="7.1041476726531982e-01" nType="0">
          <Node pos="l" depth="2" NCoef="0" IVar="-1" Cut="0.0000000000000000e+00" cType="1" res="8.7620597332715988e-03" rms="2.9280075430870056e-01" purity="9.0026426315307617e-01" nType="-99"/>
          <Node pos="r" depth="2" NCoef="0" IVar="-1" Cut="0.0000000000000000e+00" cType="1" res="-3.1991485506296158e-02" rms="4.2181122303009033e-01" purity="5.4158264398574829e-01" nType="-99"/>
        </Node>
      </Node>
    </BinaryTree>
    <BinaryTree type="DecisionTree" boostWeight="1.0000000000000000e+00" itree="58">
      <Node pos="s" depth="0" NCoef="0" IVar="3" Cut="5.3899681568145752e-01" cType="0" res="1.6392571851611137e-03" rms="3.0508589744567871e-01" purity="8.2267659902572632e-01" nType="0">
        <Node pos="l" depth="1" NCoef="0" IVar="5" Cut="2.7351615428924561e+00" cType="1" res="1.2490597553551197e-02" rms="2.9462483525276184e-01" purity="8.5097384452819824e-01" nType="0">
          <Node pos="l" depth="2" NCoef="0" IVar="-1" Cut="0.0000000000000000e+00" cType="1" res="1.4179926365613937e-02" rms="2.6984778046607971e-01" purity="8.8369375467300415e-01" nType="-99"/>
          <Node pos="r" depth="2" NCoef="0" IVar="-1" Cut="0.0000000000000000e+00" cType="1" res="-1.3835652731359005e-02" rms="3.5373839735984802e-01" purity="7.5129395723342896e-01" nType="-99"/>
        </Node>
        <Node pos="r" depth="1" NCoef="0" IVar="-1" Cut="0.0000000000000000e+00" cType="1" res="-3.5918060690164566e-02" rms="3.9731359481811523e-01" purity="4.0948539972305298e-01" nType="-99"/>
      </Node>
    </BinaryTree>
    <BinaryTree type="DecisionTree" boostWeight="1.0000000000000000e+00" itree="59">
      <Node pos="s" depth="0" NCoef="0" IVar="8" Cut="1.1842361450195312e+02" cType="0" res="-4.6856482513248920e-03" rms="3.2205033302307129e-01" purity="8.1095117330551147e-01" nType="0">
        <Node pos="l" depth="1" NCoef="0" IVar="-1" Cut="0.0000000000000000e+00" cType="1" res="3.5086069256067276e-02" rms="2.2278898954391479e-01" purity="9.2994379997253418e-01" nType="-99"/>
        <Node pos="r" depth="1" NCoef="0" IVar="0" Cut="4.8236206054687500e+01" cType="0" res="-2.4081703275442123e-02" rms="3.4094053506851196e-01" purity="7.7944153547286987e-01" nType="0">
          <Node pos="l" depth="2" NCoef="0" IVar="-1" Cut="0.0000000000000000e+00" cType="1" res="1.2598501518368721e-02" rms="2.3993605375289917e-01" purity="9.2560392618179321e-01" nType="-99"/>
          <Node pos="r" depth="2" NCoef="0" IVar="-1" Cut="0.0000000000000000e+00" cType="1" res="-1.3945532962679863e-02" rms="3.9224356412887573e-01" purity="6.8001443147659302e-01" nType="-99"/>
        </Node>
      </Node>
    </BinaryTree>
    <BinaryTree type="DecisionTree" boostWeight="1.0000000000000000e+00" itree="60">
      <Node pos="s" depth="0" NCoef="0" IVar="3" Cut="8.2179391384124756e-01" cType="0" res="-9.6263462910428643e-04" rms="3.1459581851959229e-01" purity="8.2105952501296997e-01" nType="0">
        <Node pos="l" depth="1" NCoef="0" IVar="-1" Cut="0.0000000000000000e+00" cType="1" res="6.6349753178656101e-03" rms="2.8015333414077759e-01" purity="8.8916516304016113e-01" nType="-99"/>
        <Node pos="r" depth="1" NCoef="0" IVar="5" Cut="1.2653124332427979e+00" cType="1" res="-5.3148385137319565e-02" rms="4.1218870878219604e-01" purity="5.7369345426559448e-01" nType="0">
          <Node pos="l" depth="2" NCoef="0" IVar="-1" Cut="0.0000000000000000e+00" cType="1" res="4.2445663362741470e-02" rms="3.6667501926422119e-01" purity="8.7525570392608643e-01" nType="-99"/>
          <Node pos="r" depth="2" NCoef="0" IVar="-1" Cut="0.0000000000000000e+00" cType="1" res="-1.9140750169754028e-02" rms="4.1068363189697266e-01" purity="5.1210528612136841e-01" nType="-99"/>
        </Node>
      </Node>
    </BinaryTree>
    <BinaryTree type="DecisionTree" boostWeight="1.0000000000000000e+00" itree="61">
      <Node pos="s" depth="0" NCoef="0" IVar="5" Cut="2.7228157520294189e+00" cType="1" res="-1.9690606277436018e-03" rms="3.1587454676628113e-01" purity="8.1641286611557007e-01" nType="0">
        <Node pos="l" depth="1" NCoef="0" IVar="-1" Cut="0.0000000000000000e+00" cType="1" res="6.0593956150114536e-03" rms="2.9594051837921143e-01" purity="8.5098367929458618e-01" nType="-99"/>
        <Node pos="r" depth="1" NCoef="0" IVar="4" Cut="2.6915197372436523e+00" cType="0" res="-4.6420630067586899e-02" rms="3.6137029528617859e-01" purity="7.2143346071243286e-01" nType="0">
          <Node pos="l" depth="2" NCoef="0" IVar="-1" Cut="0.0000000000000000e+00" cType="1" res="-4.3086553923785686e-03" rms="3.3972573280334473e-01" purity="7.5548881292343140e-01" nType="-99"/>
          <Node pos="r" depth="2" NCoef="0" IVar="-1" Cut="0.0000000000000000e+00" cType="1" res="-3.2770916819572449e-02" rms="3.9919283986091614e-01" purity="6.3359582424163818e-01" nType="-99"/>
        </Node>
      </Node>
    </BinaryTree>
    <BinaryTree type="DecisionTree" boostWeight="1.0000000000000000e+00" itree="62">
      <Node pos="s" depth="0" NCoef="0" IVar="6" Cut="7.8349479675292969e+01" cType="0" res="3.8431247230619192e-03" rms="3.1249964237213135e-01" purity="8.2839101552963257e-01" nType="0">
        <Node pos="l" depth="1" NCoef="0" IVar="-1" Cut="0.0000000000000000e+00" cType="1" res="9.3755079433321953e-03" rms="2.9219263792037964e-01" purity="8.6662465333938599e-01" nType="-99"/>
        <Node pos="r" depth="1" NCoef="0" IVar="5" Cut="2.0660686492919922e+00" cType="1" res="-6.5586581826210022e-02" rms="3.7522673606872559e-01" purity="6.7531436681747437e-01" nType="0">
          <Node pos="l" depth="2" NCoef="0" IVar="-1" Cut="0.0000000000000000e+00" cType="1" res="-4.8438471276313066e-04" rms="3.2791405916213989e-01" purity="7.3151832818984985e-01" nType="-99"/>
          <Node pos="r" depth="2" NCoef="0" IVar="-1" Cut="0.0000000000000000e+00" cType="1" res="-3.1515229493379593e-02" rms="4.0624496340751648e-01" purity="6.2126392126083374e-01" nType="-99"/>
        </Node>
      </Node>
    </BinaryTree>
    <BinaryTree type="DecisionTree" boostWeight="1.0000000000000000e+00" itree="63">
      <Node pos="s" depth="0" NCoef="0" IVar="3" Cut="9.6426737308502197e-01" cType="0" res="-1.1572680436074734e-02" rms="3.1442996859550476e-01" purity="8.0993777513504028e-01" nType="0">
        <Node pos="l" depth="1" NCoef="0" IVar="-1" Cut="0.0000000000000000e+00" cType="1" res="1.4277427457273006e-02" rms="2.4180406332015991e-01" purity="9.2999666929244995e-01" nType="-99"/>
        <Node pos="r" depth="1" NCoef="0" IVar="2" Cut="4.7619048506021500e-02" cType="1" res="-4.8494711518287659e-02" rms="3.7009611725807190e-01" purity="6.8862938880920410e-01" nType="0">
          <Node pos="l" depth="2" NCoef="0" IVar="-1" Cut="0.0000000000000000e+00" cType="1" res="2.0057577639818192e-02" rms="2.8350186347961426e-01" purity="8.8416141271591187e-01" nType="-99"/>
          <Node pos="r" depth="2" NCoef="0" IVar="-1" Cut="0.0000000000000000e+00" cType="1" res="-2.2647883743047714e-02" rms="3.9687010645866394e-01" purity="5.9768635034561157e-01" nType="-99"/>
        </Node>
      </Node>
    </BinaryTree>
    <BinaryTree type="DecisionTree" boostWeight="1.0000000000000000e+00" itree="64">
      <Node pos="s" depth="0" NCoef="0" IVar="2" Cut="9.5238097012042999e-02" cType="1" res="-6.3489987514913082e-03" rms="3.1651911139488220e-01" purity="8.1409341096878052e-01" nType="0">
        <Node pos="l" depth="1" NCoef="0" IVar="-1" Cut="0.0000000000000000e+00" cType="1" res="2.0538829267024994e-02" rms="2.4120754003524780e-01" purity="9.2615664005279541e-01" nType="-99"/>
        <Node pos="r" depth="1" NCoef="0" IVar="3" Cut="9.2838829755783081e-01" cType="0" res="-2.6696486398577690e-02" rms="3.4285917878150940e-01" purity="7.6417183876037598e-01" nType="0">
          <Node pos="l" depth="2" NCoef="0" IVar="-1" Cut="0.0000000000000000e+00" cType="1" res="1.1397842172300443e-04" rms="2.7555885910987854e-01" purity="8.9403837919235229e-01" nType="-99"/>
          <Node pos="r" depth="2" NCoef="0" IVar="-1" Cut="0.0000000000000000e+00" cType="1" res="-1.5343834646046162e-02" rms="4.2639607191085815e-01" purity="5.5408954620361328e-01" nType="-99"/>
        </Node>
      </Node>
    </BinaryTree>
    <BinaryTree type="DecisionTree" boostWeight="1.0000000000000000e+00" itree="65">
      <Node pos="s" depth="0" NCoef="0" IVar="6" Cut="7.0455924987792969e+01" cType="0" res="-3.8816265296190977e-03" rms="3.1610372662544250e-01" purity="8.2068216800689697e-01" nType="0">
        <Node pos="l" depth="1" NCoef="0" IVar="-1" Cut="0.0000000000000000e+00" cType="1" res="4.8486981540918350e-03" rms="3.0208399891853333e-01" purity="8.5416698455810547e-01" nType="-99"/>
        <Node pos="r" depth="1" NCoef="0" IVar="8" Cut="5.5450386047363281e+01" cType="0" res="-9.2425659298896790e-02" rms="3.7462028861045837e-01" purity="6.2894093990325928e-01" nType="0">
          <Node pos="l" depth="2" NCoef="0" IVar="-1" Cut="0.0000000000000000e+00" cType="1" res="-7.6876534149050713e-03" rms="3.4795811772346497e-01" purity="6.9991272687911987e-01" nType="-99"/>
          <Node pos="r" depth="2" NCoef="0" IVar="-1" Cut="0.0000000000000000e+00" cType="1" res="-3.9747804403305054e-02" rms="3.9230939745903015e-01" purity="5.2170789241790771e-01" nType="-99"/>
        </Node>
      </Node>
    </BinaryTree>
    <BinaryTree type="DecisionTree" boostWeight="1.0000000000000000e+00" itree="66">
      <Node pos="s" depth="0" NCoef="0" IVar="3" Cut="9.6435356140136719e-01" cType="0" res="1.4574762899428606e-03" rms="3.1469726562500000e-01" purity="8.2572811841964722e-01" nType="0">
        <Node pos="l" depth="1" NCoef="0" IVar="-1" Cut="0.0000000000000000e+00" cType="1" res="1.9837286323308945e-02" rms="2.2174863517284393e-01" purity="9.3941396474838257e-01" nType="-99"/>
        <Node pos="r" depth="1" NCoef="0" IVar="1" Cut="-8.9436042308807373e-01" cType="0" res="-2.8388613834977150e-02" rms="3.8377979397773743e-01" purity="7.1165639162063599e-01" nType="0">
          <Node pos="l" depth="2" NCoef="0" IVar="-1" Cut="0.0000000000000000e+00" cType="1" res="-3.0065295286476612e-03" rms="3.7141457200050354e-01" purity="7.4321770668029785e-01" nType="-99"/>
          <Node pos="r" depth="2" NCoef="0" IVar="-1" Cut="0.0000000000000000e+00" cType="1" res="-2.8578571975231171e-02" rms="4.2096763849258423e-01" purity="5.8992654085159302e-01" nType="-99"/>
        </Node>
      </Node>
    </BinaryTree>
    <BinaryTree type="DecisionTree" boostWeight="1.0000000000000000e+00" itree="67">
      <Node pos="s" depth="0" NCoef="0" IVar="6" Cut="7.0455924987792969e+01" cType="0" res="1.5066266991198063e-02" rms="2.9792991280555725e-01" purity="8.3539265394210815e-01" nType="0">
        <Node pos="l" depth="1" NCoef="0" IVar="-1" Cut="0.0000000000000000e+00" cType="1" res="1.1702923104166985e-02" rms="2.8635549545288086e-01" purity="8.6767107248306274e-01" nType="-99"/>
        <Node pos="r" depth="1" NCoef="0" IVar="7" Cut="8.4933105468750000e+01" cType="0" res="-5.7170834392309189e-02" rms="3.5087162256240845e-01" purity="6.4237695932388306e-01" nType="0">
          <Node pos="l" depth="2" NCoef="0" IVar="-1" Cut="0.0000000000000000e+00" cType="1" res="4.2089618742465973e-02" rms="2.8689625859260559e-01" purity="8.6906081438064575e-01" nType="-99"/>
          <Node pos="r" depth="2" NCoef="0" IVar="-1" Cut="0.0000000000000000e+00" cType="1" res="-2.8409749269485474e-02" rms="3.5509365797042847e-01" purity="5.6731599569320679e-01" nType="-99"/>
        </Node>
      </Node>
    </BinaryTree>
    <BinaryTree type="DecisionTree" boostWeight="1.0000000000000000e+00" itree="68">
      <Node pos="s" depth="0" NCoef="0" IVar="3" Cut="8.5717898607254028e-01" cType="0" res="-7.2211022488772869e-03" rms="3.1397303938865662e-01" purity="8.2092630863189697e-01" nType="0">
        <Node pos="l" depth="1" NCoef="0" IVar="-1" Cut="0.0000000000000000e+00" cType="1" res="4.2006028816103935e-03" rms="2.7411663532257080e-01" purity="8.9537161588668823e-01" nType="-99"/>
        <Node pos="r" depth="1" NCoef="0" IVar="1" Cut="6.9748234748840332e-01" cType="1" res="-5.0662677735090256e-02" rms="4.0224263072013855e-01" purity="6.1200278997421265e-01" nType="0">
          <Node pos="l" depth="2" NCoef="0" IVar="-1" Cut="0.0000000000000000e+00" cType="1" res="-5.4087634198367596e-03" rms="3.9503556489944458e-01" purity="6.7038971185684204e-01" nType="-99"/>
          <Node pos="r" depth="2" NCoef="0" IVar="-1" Cut="0.0000000000000000e+00" cType="1" res="-2.7288595214486122e-02" rms="4.0876483917236328e-01" purity="4.4666868448257446e-01" nType="-99"/>
        </Node>
      </Node>
    </BinaryTree>
    <BinaryTree type="DecisionTree" boostWeight="1.0000000000000000e+00" itree="69">
      <Node pos="s" depth="0" NCoef="0" IVar="4" Cut="3.3857371807098389e+00" cType="1" res="-4.0826536860549822e-05" rms="3.1013011932373047e-01" purity="8.2376587390899658e-01" nType="0">
        <Node pos="l" depth="1" NCoef="0" IVar="1" Cut="-1.5003181695938110e+00" cType="0" res="8.5810562595725060e-03" rms="3.0636644363403320e-01" purity="8.4301918745040894e-01" nType="0">
          <Node pos="l" depth="2" NCoef="0" IVar="-1" Cut="0.0000000000000000e+00" cType="1" res="6.8727270700037479e-03" rms="2.9570633172988892e-01" purity="8.5649359226226807e-01" nType="-99"/>
          <Node pos="r" depth="2" NCoef="0" IVar="-1" Cut="0.0000000000000000e+00" cType="1" res="-2.7691669762134552e-02" rms="4.1640079021453857e-01" purity="6.5170818567276001e-01" nType="-99"/>
        </Node>
        <Node pos="r" depth="1" NCoef="0" IVar="-1" Cut="0.0000000000000000e+00" cType="1" res="-4.6482536941766739e-02" rms="3.3112964034080505e-01" purity="4.0083208680152893e-01" nType="-99"/>
      </Node>
    </BinaryTree>
    <BinaryTree type="DecisionTree" boostWeight="1.0000000000000000e+00" itree="70">
      <Node pos="s" depth="0" NCoef="0" IVar="2" Cut="9.5238097012042999e-02" cType="1" res="-2.2376745939254761e-02" rms="3.2360604405403137e-01" purity="7.9675322771072388e-01" nType="0">
        <Node pos="l" depth="1" NCoef="0" IVar="-1" Cut="0.0000000000000000e+00" cType="1" res="1.9893899559974670e-02" rms="2.4572135508060455e-01" purity="9.2109912633895874e-01" nType="-99"/>
        <Node pos="r" depth="1" NCoef="0" IVar="3" Cut="6.8089854717254639e-01" cType="0" res="-5.0812780857086182e-02" rms="3.5066318511962891e-01" purity="7.3848628997802734e-01" nType="0">
          <Node pos="l" depth="2" NCoef="0" IVar="-1" Cut="0.0000000000000000e+00" cType="1" res="-1.0743150487542152e-02" rms="3.3229264616966248e-01" purity="8.0993849039077759e-01" nType="-99"/>
          <Node pos="r" depth="2" NCoef="0" IVar="-1" Cut="0.0000000000000000e+00" cType="1" res="-3.4723449498414993e-02" rms="4.1965028643608093e-01" purity="3.2302704453468323e-01" nType="-99"/>
        </Node>
      </Node>
    </BinaryTree>
    <BinaryTree type="DecisionTree" boostWeight="1.0000000000000000e+00" itree="71">
      <Node pos="s" depth="0" NCoef="0" IVar="1" Cut="-1.4984871149063110e+00" cType="0" res="-1.0898045264184475e-02" rms="3.1924432516098022e-01" purity="8.0862605571746826e-01" nType="0">
        <Node pos="l" depth="1" NCoef="0" IVar="0" Cut="3.1209615707397461e+01" cType="0" res="-1.4317419845610857e-03" rms="3.0596920847892761e-01" purity="8.2300245761871338e-01" nType="0">
          <Node pos="l" depth="2" NCoef="0" IVar="-1" Cut="0.0000000000000000e+00" cType="1" res="1.0370028205215931e-02" rms="2.5387164950370789e-01" purity="9.1203755140304565e-01" nType="-99"/>
          <Node pos="r" depth="2" NCoef="0" IVar="-1" Cut="0.0000000000000000e+00" cType="1" res="-1.2232237495481968e-02" rms="4.1275987029075623e-01" purity="5.7712352275848389e-01" nType="-99"/>
        </Node>
        <Node pos="r" depth="1" NCoef="0" IVar="-1" Cut="0.0000000000000000e+00" cType="1" res="-5.5251214653253555e-02" rms="4.5721593499183655e-01" purity="5.8206778764724731e-01" nType="-99"/>
      </Node>
    </BinaryTree>
    <BinaryTree type="DecisionTree" boostWeight="1.0000000000000000e+00" itree="72">
      <Node pos="s" depth="0" NCoef="0" IVar="5" Cut="3.1846866607666016e+00" cType="1" res="3.9245337247848511e-03" rms="2.9996263980865479e-01" purity="8.1616568565368652e-01" nType="0">
        <Node pos="l" depth="1" NCoef="0" IVar="-1" Cut="0.0000000000000000e+00" cType="1" res="6.7342836409807205e-03" rms="2.8779724240303040e-01" purity="8.4097176790237427e-01" nType="-99"/>
        <Node pos="r" depth="1" NCoef="0" IVar="1" Cut="-6.9113665819168091e-01" cType="0" res="-1.2703415751457214e-01" rms="3.8171836733818054e-01" purity="5.5761545896530151e-01" nType="0">
          <Node pos="l" depth="2" NCoef="0" IVar="-1" Cut="0.0000000000000000e+00" cType="1" res="-1.9370717927813530e-02" rms="3.8779518008232117e-01" purity="6.4140772819519043e-01" nType="-99"/>
          <Node pos="r" depth="2" NCoef="0" IVar="-1" Cut="0.0000000000000000e+00" cType="1" res="-4.5728459954261780e-02" rms="3.5545343160629272e-01" purity="4.2651256918907166e-01" nType="-99"/>
        </Node>
      </Node>
    </BinaryTree>
    <BinaryTree type="DecisionTree" boostWeight="1.0000000000000000e+00" itree="73">
      <Node pos="s" depth="0" NCoef="0" IVar="3" Cut="9.6355962753295898e-01" cType="0" res="-5.4232655093073845e-03" rms="3.1586176156997681e-01" purity="8.1505221128463745e-01" nType="0">
        <Node pos="l" depth="1" NCoef="0" IVar="-1" Cut="0.0000000000000000e+00" cType="1" res="2.0046478137373924e-02" rms="2.1656112372875214e-01" purity="9.4411712884902954e-01" nType="-99"/>
        <Node pos="r" depth="1" NCoef="0" IVar="1" Cut="-1.1004428863525391e+00" cType="0" res="-3.9760988205671310e-02" rms="3.8596156239509583e-01" purity="6.8912351131439209e-01" nType="0">
          <Node pos="l" depth="2" NCoef="0" IVar="-1" Cut="0.0000000000000000e+00" cType="1" res="-7.2992932982742786e-03" rms="3.8078215718269348e-01" purity="7.2460389137268066e-01" nType="-99"/>
          <Node pos="r" depth="2" NCoef="0" IVar="-1" Cut="0.0000000000000000e+00" cType="1" res="-3.1198194250464439e-02" rms="4.0056872367858887e-01" purity="5.0692278146743774e-01" nType="-99"/>
        </Node>
      </Node>
    </BinaryTree>
    <BinaryTree type="DecisionTree" boostWeight="1.0000000000000000e+00" itree="74">
      <Node pos="s" depth="0" NCoef="0" IVar="4" Cut="3.2393207550048828e+00" cType="1" res="-1.1293820105493069e-02" rms="3.1667402386665344e-01" purity="8.1241327524185181e-01" nType="0">
        <Node pos="l" depth="1" NCoef="0" IVar="4" Cut="2.9541814327239990e+00" cType="0" res="-4.5315185561776161e-03" rms="3.1262412667274475e-01" purity="8.2684040069580078e-01" nType="0">
          <Node pos="l" depth="2" NCoef="0" IVar="-1" Cut="0.0000000000000000e+00" cType="1" res="3.5615429282188416e-02" rms="2.4809285998344421e-01" purity="8.7903255224227905e-01" nType="-99"/>
          <Node pos="r" depth="2" NCoef="0" IVar="-1" Cut="0.0000000000000000e+00" cType="1" res="-6.0503887943923473e-03" rms="3.1730696558952332e-01" purity="8.2112610340118408e-01" nType="-99"/>
        </Node>
        <Node pos="r" depth="1" NCoef="0" IVar="-1" Cut="0.0000000000000000e+00" cType="1" res="-4.3095994740724564e-02" rms="3.6436244845390320e-01" purity="5.0734508037567139e-01" nType="-99"/>
      </Node>
    </BinaryTree>
    <BinaryTree type="DecisionTree" boostWeight="1.0000000000000000e+00" itree="75">
      <Node pos="s" depth="0" NCoef="0" IVar="1" Cut="1.4918136596679688e+00" cType="1" res="-1.7702870070934296e-02" rms="3.2456767559051514e-01" purity="7.9845494031906128e-01" nType="0">
        <Node pos="l" depth="1" NCoef="0" IVar="6" Cut="1.3640405273437500e+02" cType="0" res="-5.9931580908596516e-03" rms="3.1394001841545105e-01" purity="8.2468914985656738e-01" nType="0">
          <Node pos="l" depth="2" NCoef="0" IVar="-1" Cut="0.0000000000000000e+00" cType="1" res="1.5985626727342606e-02" rms="2.3211781680583954e-01" purity="9.1412889957427979e-01" nType="-99"/>
          <Node pos="r" depth="2" NCoef="0" IVar="-1" Cut="0.0000000000000000e+00" cType="1" res="-9.2433961108326912e-03" rms="3.5057595372200012e-01" purity="7.7370977401733398e-01" nType="-99"/>
        </Node>
        <Node pos="r" depth="1" NCoef="0" IVar="-1" Cut="0.0000000000000000e+00" cType="1" res="-3.2949045300483704e-02" rms="4.0968042612075806e-01" purity="4.6386313438415527e-01" nType="-99"/>
      </Node>
    </BinaryTree>
    <BinaryTree type="DecisionTree" boostWeight="1.0000000000000000e+00" itree="76">
      <Node pos="s" depth="0" NCoef="0" IVar="2" Cut="9.5238097012042999e-02" cType="1" res="-6.4203864894807339e-04" rms="3.0289191007614136e-01" purity="8.2260149717330933e-01" nType="0">
        <Node pos="l" depth="1" NCoef="0" IVar="-1" Cut="0.0000000000000000e+00" cType="1" res="2.9452441260218620e-02" rms="2.0650930702686310e-01" purity="9.4502729177474976e-01" nType="-99"/>
        <Node pos="r" depth="1" NCoef="0" IVar="0" Cut="3.2503513336181641e+01" cType="0" res="-2.8258953243494034e-02" rms="3.3867964148521423e-01" purity="7.5974333286285400e-01" nType="0">
          <Node pos="l" depth="2" NCoef="0" IVar="-1" Cut="0.0000000000000000e+00" cType="1" res="-4.1100960224866867e-03" rms="2.9715797305107117e-01" purity="8.6366611719131470e-01" nType="-99"/>
          <Node pos="r" depth="2" NCoef="0" IVar="-1" Cut="0.0000000000000000e+00" cType="1" res="-1.5517499297857285e-02" rms="4.1907733678817749e-01" purity="5.0755476951599121e-01" nType="-99"/>
        </Node>
      </Node>
    </BinaryTree>
    <BinaryTree type="DecisionTree" boostWeight="1.0000000000000000e+00" itree="77">
      <Node pos="s" depth="0" NCoef="0" IVar="3" Cut="8.9328926801681519e-01" cType="0" res="-3.7313303910195827e-03" rms="3.0892097949981689e-01" purity="8.1282633543014526e-01" nType="0">
        <Node pos="l" depth="1" NCoef="0" IVar="-1" Cut="0.0000000000000000e+00" cType="1" res="7.3192119598388672e-03" rms="2.5985059142112732e-01" purity="9.0567517280578613e-01" nType="-99"/>
        <Node pos="r" depth="1" NCoef="0" IVar="1" Cut="-7.0111799240112305e-01" cType="0" res="-4.3953642249107361e-02" rms="3.9854192733764648e-01" purity="5.9423142671585083e-01" nType="0">
          <Node pos="l" depth="2" NCoef="0" IVar="-1" Cut="0.0000000000000000e+00" cType="1" res="1.6236145165748894e-04" rms="3.9115315675735474e-01" purity="6.6151547431945801e-01" nType="-99"/>
          <Node pos="r" depth="2" NCoef="0" IVar="-1" Cut="0.0000000000000000e+00" cType="1" res="-3.1264927238225937e-02" rms="3.9465081691741943e-01" purity="4.2313095927238464e-01" nType="-99"/>
        </Node>
      </Node>
    </BinaryTree>
    <BinaryTree type="DecisionTree" boostWeight="1.0000000000000000e+00" itree="78">
      <Node pos="s" depth="0" NCoef="0" IVar="8" Cut="2.1198318481445312e+01" cType="0" res="-1.2933768332004547e-02" rms="3.2729721069335938e-01" purity="7.9993051290512085e-01" nType="0">
        <Node pos="l" depth="1" NCoef="0" IVar="4" Cut="3.2393207550048828e+00" cType="1" res="-5.8872373774647713e-03" rms="3.2462301850318909e-01" purity="8.1009322404861450e-01" nType="0">
          <Node pos="l" depth="2" NCoef="0" IVar="-1" Cut="0.0000000000000000e+00" cType="1" res="-2.1293114696163684e-04" rms="3.2074227929115295e-01" purity="8.2264524698257446e-01" nType="-99"/>
          <Node pos="r" depth="2" NCoef="0" IVar="-1" Cut="0.0000000000000000e+00" cType="1" res="-3.4060072153806686e-02" rms="3.8127490878105164e-01" purity="5.4048651456832886e-01" nType="-99"/>
        </Node>
        <Node pos="r" depth="1" NCoef="0" IVar="-1" Cut="0.0000000000000000e+00" cType="1" res="-3.1496487557888031e-02" rms="3.4844511747360229e-01" purity="6.0878205299377441e-01" nType="-99"/>
      </Node>
    </BinaryTree>
    <BinaryTree type="DecisionTree" boostWeight="1.0000000000000000e+00" itree="79">
      <Node pos="s" depth="0" NCoef="0" IVar="6" Cut="5.4009216308593750e+01" cType="0" res="1.3142113573849201e-02" rms="2.9202276468276978e-01" purity="8.3762478828430176e-01" nType="0">
        <Node pos="l" depth="1" NCoef="0" IVar="1" Cut="-1.5003181695938110e+00" cType="0" res="2.0036494359374046e-02" rms="2.8808894753456116e-01" purity="8.5469979047775269e-01" nType="0">
          <Node pos="l" depth="2" NCoef="0" IVar="-1" Cut="0.0000000000000000e+00" cType="1" res="1.1787906289100647e-02" rms="2.7725234627723694e-01" purity="8.6664098501205444e-01" nType="-99"/>
          <Node pos="r" depth="2" NCoef="0" IVar="-1" Cut="0.0000000000000000e+00" cType="1" res="-1.9515337422490120e-02" rms="4.0362021327018738e-01" purity="6.8595141172409058e-01" nType="-99"/>
        </Node>
        <Node pos="r" depth="1" NCoef="0" IVar="-1" Cut="0.0000000000000000e+00" cType="1" res="-3.1686317175626755e-02" rms="3.3315777778625488e-01" purity="4.9406334757804871e-01" nType="-99"/>
      </Node>
    </BinaryTree>
    <BinaryTree type="DecisionTree" boostWeight="1.0000000000000000e+00" itree="80">
      <Node pos="s" depth="0" NCoef="0" IVar="5" Cut="3.2288272380828857e+00" cType="1" res="-6.6450069425627589e-04" rms="3.0331465601921082e-01" purity="8.2111495733261108e-01" nType="0">
        <Node pos="l" depth="1" NCoef="0" IVar="6" Cut="5.9936420440673828e+01" cType="0" res="9.0920990332961082e-03" rms="2.9435703158378601e-01" purity="8.3924221992492676e-01" nType="0">
          <Node pos="l" depth="2" NCoef="0" IVar="-1" Cut="0.0000000000000000e+00" cType="1" res="7.8499503433704376e-03" rms="2.9023569822311401e-01" purity="8.5843729972839355e-01" nType="-99"/>
          <Node pos="r" depth="2" NCoef="0" IVar="-1" Cut="0.0000000000000000e+00" cType="1" res="-2.2814527153968811e-02" rms="3.2556390762329102e-01" purity="5.9376257658004761e-01" nType="-99"/>
        </Node>
        <Node pos="r" depth="1" NCoef="0" IVar="-1" Cut="0.0000000000000000e+00" cType="1" res="-3.9868928492069244e-02" rms="3.8894942402839661e-01" purity="5.3502058982849121e-01" nType="-99"/>
      </Node>
    </BinaryTree>
    <BinaryTree type="DecisionTree" boostWeight="1.0000000000000000e+00" itree="81">
      <Node pos="s" depth="0" NCoef="0" IVar="6" Cut="1.6162998962402344e+02" cType="0" res="-1.1990825645625591e-02" rms="3.2126134634017944e-01" purity="8.0191552639007568e-01" nType="0">
        <Node pos="l" depth="1" NCoef="0" IVar="-1" Cut="0.0000000000000000e+00" cType="1" res="1.7749268561601639e-02" rms="2.2685223817825317e-01" purity="9.1932278871536255e-01" nType="-99"/>
        <Node pos="r" depth="1" NCoef="0" IVar="6" Cut="6.8432388305664062e+01" cType="0" res="-2.5109162554144859e-02" rms="3.4504544734954834e-01" purity="7.6434880495071411e-01" nType="0">
          <Node pos="l" depth="2" NCoef="0" IVar="-1" Cut="0.0000000000000000e+00" cType="1" res="-4.1678347624838352e-03" rms="3.3364340662956238e-01" purity="7.9895305633544922e-01" nType="-99"/>
          <Node pos="r" depth="2" NCoef="0" IVar="-1" Cut="0.0000000000000000e+00" cType="1" res="-2.9846677556633949e-02" rms="3.8797146081924438e-01" purity="5.9688407182693481e-01" nType="-99"/>
        </Node>
      </Node>
    </BinaryTree>
    <BinaryTree type="DecisionTree" boostWeight="1.0000000000000000e+00" itree="82">
      <Node pos="s" depth="0" NCoef="0" IVar="1" Cut="1.4910317659378052e+00" cType="1" res="5.4878457449376583e-03" rms="3.0545735359191895e-01" purity="8.2480889558792114e-01" nType="0">
        <Node pos="l" depth="1" NCoef="0" IVar="-1" Cut="0.0000000000000000e+00" cType="1" res="6.3369474373757839e-03" rms="2.9422032833099365e-01" purity="8.4554749727249146e-01" nType="-99"/>
        <Node pos="r" depth="1" NCoef="0" IVar="1" Cut="1.7477456331253052e+00" cType="0" res="-9.6633613109588623e-02" rms="4.0967330336570740e-01" purity="5.6082403659820557e-01" nType="0">
          <Node pos="l" depth="2" NCoef="0" IVar="-1" Cut="0.0000000000000000e+00" cType="1" res="-1.3487367890775204e-02" rms="4.2438516020774841e-01" purity="5.6671482324600220e-01" nType="-99"/>
          <Node pos="r" depth="2" NCoef="0" IVar="-1" Cut="0.0000000000000000e+00" cType="1" res="-2.7177114039659500e-02" rms="3.9174288511276245e-01" purity="5.5529248714447021e-01" nType="-99"/>
        </Node>
      </Node>
    </BinaryTree>
    <BinaryTree type="DecisionTree" boostWeight="1.0000000000000000e+00" itree="83">
      <Node pos="s" depth="0" NCoef="0" IVar="7" Cut="1.7004034423828125e+02" cType="0" res="-2.8123715892434120e-03" rms="3.1543895602226257e-01" purity="8.1854635477066040e-01" nType="0">
        <Node pos="l" depth="1" NCoef="0" IVar="-1" Cut="0.0000000000000000e+00" cType="1" res="5.3307920694351196e-02" rms="1.9034084677696228e-01" purity="9.7627532482147217e-01" nType="-99"/>
        <Node pos="r" depth="1" NCoef="0" IVar="6" Cut="5.7254291534423828e+01" cType="0" res="-7.7603301033377647e-03" rms="3.2050192356109619e-01" purity="8.0940574407577515e-01" nType="0">
          <Node pos="l" depth="2" NCoef="0" IVar="-1" Cut="0.0000000000000000e+00" cType="1" res="-1.0822503827512264e-03" rms="3.1940424442291260e-01" purity="8.2345592975616455e-01" nType="-99"/>
          <Node pos="r" depth="2" NCoef="0" IVar="-1" Cut="0.0000000000000000e+00" cType="1" res="-2.4937728419899940e-02" rms="3.2688450813293457e-01" purity="6.0999697446823120e-01" nType="-99"/>
        </Node>
      </Node>
    </BinaryTree>
    <BinaryTree type="DecisionTree" boostWeight="1.0000000000000000e+00" itree="84">
      <Node pos="s" depth="0" NCoef="0" IVar="1" Cut="1.6966860294342041e+00" cType="1" res="-8.7818931788206100e-03" rms="3.1638330221176147e-01" purity="8.1370562314987183e-01" nType="0">
        <Node pos="l" depth="1" NCoef="0" IVar="0" Cut="3.4011440277099609e+01" cType="0" res="-3.4993889275938272e-03" rms="3.1142804026603699e-01" purity="8.2838523387908936e-01" nType="0">
          <Node pos="l" depth="2" NCoef="0" IVar="-1" Cut="0.0000000000000000e+00" cType="1" res="8.3830142393708229e-03" rms="2.4421083927154541e-01" purity="9.1656774282455444e-01" nType="-99"/>
          <Node pos="r" depth="2" NCoef="0" IVar="-1" Cut="0.0000000000000000e+00" cType="1" res="-1.0237172245979309e-02" rms="4.1315212845802307e-01" purity="6.4965373277664185e-01" nType="-99"/>
        </Node>
        <Node pos="r" depth="1" NCoef="0" IVar="-1" Cut="0.0000000000000000e+00" cType="1" res="-2.7761388570070267e-02" rms="3.9351001381874084e-01" purity="4.8733764886856079e-01" nType="-99"/>
      </Node>
    </BinaryTree>
    <BinaryTree type="DecisionTree" boostWeight="1.0000000000000000e+00" itree="85">
      <Node pos="s" depth="0" NCoef="0" IVar="1" Cut="6.9748234748840332e-01" cType="1" res="-2.4427208118140697e-03" rms="3.1645485758781433e-01" purity="8.2262969017028809e-01" nType="0">
        <Node pos="l" depth="1" NCoef="0" IVar="-1" Cut="0.0000000000000000e+00" cType="1" res="7.2759934701025486e-03" rms="2.9666578769683838e-01" purity="8.5420906543731689e-01" nType="-99"/>
        <Node pos="r" depth="1" NCoef="0" IVar="7" Cut="7.1412727355957031e+01" cType="0" res="-5.0351727753877640e-02" rms="3.6074626445770264e-01" purity="7.3640054464340210e-01" nType="0">
          <Node pos="l" depth="2" NCoef="0" IVar="-1" Cut="0.0000000000000000e+00" cType="1" res="-4.1524390690028667e-03" rms="3.2813376188278198e-01" purity="8.0315291881561279e-01" nType="-99"/>
          <Node pos="r" depth="2" NCoef="0" IVar="-1" Cut="0.0000000000000000e+00" cType="1" res="-2.4189313873648643e-02" rms="3.8543161749839783e-01" purity="6.7278808355331421e-01" nType="-99"/>
        </Node>
      </Node>
    </BinaryTree>
    <BinaryTree type="DecisionTree" boostWeight="1.0000000000000000e+00" itree="86">
      <Node pos="s" depth="0" NCoef="0" IVar="4" Cut="3.3851079940795898e+00" cType="1" res="-3.1598645728081465e-04" rms="3.0681487917900085e-01" purity="8.2783532142639160e-01" nType="0">
