
    <?xml version="1.0"?>
    <MethodSetup Method="BDT::bdt">
    <GeneralInfo>
    <Info name="TMVA Release" value="4.2.0 [262656]"/>
    <Info name="ROOT Release" value="6.02/05 [393733]"/>
    <Info name="Creator" value="joosep"/>
    <Info name="Date" value="Sun May 31 01:31:49 2015"/>
    <Info name="Host" value="Linux cmsbuild13.cern.ch 2.6.32-504.8.1.el6.x86_64 #1 SMP Wed Jan 28 08:50:46 CET 2015 x86_64 x86_64 x86_64 GNU/Linux"/>
    <Info name="Dir" value="/home/joosep/btv/CMSSW_7_4_0/src/RecoBTag/CMSCSTagger"/>
    <Info name="Training events" value="1692351"/>
    <Info name="TrainingTime" value="7.82964582e+03"/>
    <Info name="AnalysisType" value="Classification"/>
    </GeneralInfo>
    <Options>
    <Option name="V" modified="Yes">False</Option>
    <Option name="VerbosityLevel" modified="Yes">Fatal</Option>
    <Option name="VarTransform" modified="No">None</Option>
    <Option name="H" modified="Yes">False</Option>
    <Option name="CreateMVAPdfs" modified="No">False</Option>
    <Option name="IgnoreNegWeightsInTraining" modified="No">False</Option>
    <Option name="NTrees" modified="Yes">800</Option>
    <Option name="MaxDepth" modified="Yes">3</Option>
    <Option name="MinNodeSize" modified="No">5%</Option>
    <Option name="nCuts" modified="Yes">50</Option>
    <Option name="BoostType" modified="Yes">Grad</Option>
    <Option name="AdaBoostR2Loss" modified="No">quadratic</Option>
    <Option name="UseBaggedBoost" modified="Yes">False</Option>
    <Option name="Shrinkage" modified="Yes">0.01</Option>
    <Option name="AdaBoostBeta" modified="No">5.000000e-01</Option>
    <Option name="UseRandomisedTrees" modified="No">False</Option>
    <Option name="UseNvars" modified="Yes">sqrt</Option>
    <Option name="UsePoissonNvars" modified="No">True</Option>
    <Option name="BaggedSampleFraction" modified="No">6.000000e-01</Option>
    <Option name="UseYesNoLeaf" modified="No">False</Option>
    <Option name="NegWeightTreatment" modified="No">ignorenegweightsintraining</Option>
    <Option name="Css" modified="No">1.000000e+00</Option>
    <Option name="Cts_sb" modified="No">1.000000e+00</Option>
    <Option name="Ctb_ss" modified="No">1.000000e+00</Option>
    <Option name="Cbb" modified="No">1.000000e+00</Option>
    <Option name="NodePurityLimit" modified="No">5.000000e-01</Option>
    <Option name="SeparationType" modified="No">giniindex</Option>
    <Option name="DoBoostMonitor" modified="Yes">False</Option>
    <Option name="UseFisherCuts" modified="No">False</Option>
    <Option name="MinLinCorrForFisher" modified="No">8.000000e-01</Option>
    <Option name="UseExclusiveVars" modified="No">False</Option>
    <Option name="DoPreselection" modified="No">False</Option>
    <Option name="SigToBkgFraction" modified="No">1.000000e+00</Option>
    <Option name="PruneMethod" modified="No">nopruning</Option>
    <Option name="PruneStrength" modified="No">0.000000e+00</Option>
    <Option name="PruningValFraction" modified="No">5.000000e-01</Option>
    <Option name="nEventsMin" modified="No">0</Option>
    <Option name="UseBaggedGrad" modified="No">False</Option>
    <Option name="GradBaggingFraction" modified="No">6.000000e-01</Option>
    <Option name="UseNTrainEvents" modified="No">0</Option>
    <Option name="NNodesMax" modified="No">0</Option>
    </Options>
    <Variables NVar="7">
    <Variable VarIndex="0" Expression="ht" Label="ht" Title="ht" Unit="" Internal="ht" Type="F" Min="1.8704286193847656E+02" Max="3.5790012207031250E+03"/>
<Variable VarIndex="1" Expression="tt_deltaR" Label="tt_deltaR" Title="tt_deltaR" Unit="" Internal="tt_deltaR" Type="F" Min="3.6983442306518555E-01" Max="4.9719038009643555E+00"/>
<Variable VarIndex="2" Expression="tt_visiblemass" Label="tt_visiblemass" Title="tt_visiblemass" Unit="" Internal="tt_visiblemass" Type="F" Min="9.6911659240722656E+00" Max="7.4173022460937500E+02"/>
<Variable VarIndex="3" Expression="tt_sumpt" Label="tt_sumpt" Title="tt_sumpt" Unit="" Internal="tt_sumpt" Type="F" Min="2.4265216290950775E-01" Max="6.6633917236328125E+02"/>
<Variable VarIndex="4" Expression="jet_deltaRmax" Label="jet_deltaRmax" Title="jet_deltaRmax" Unit="" Internal="jet_deltaRmax" Type="F" Min="5.5930989980697632E-01" Max="5.6881847381591797E+00"/>
<Variable VarIndex="5" Expression="jet_deltaRavg" Label="jet_deltaRavg" Title="jet_deltaRavg" Unit="" Internal="jet_deltaRavg" Type="F" Min="4.8783037066459656E-01" Max="4.0774006843566895E+00"/>
<Variable VarIndex="6" Expression="njets_inclusive" Label="njets_inclusive" Title="njets_inclusive" Unit="" Internal="njets_inclusive" Type="F" Min="3.0000000000000000E+00" Max="1.3000000000000000E+01"/>

    </Variables>
    <Classes NClass="2">
    <Class Name="Signal" Index="0"/>
    <Class Name="Background" Index="1"/>
    </Classes>
    <Transformations NTransformations="0"/>
    <MVAPdfs/>
    <Weights NTrees="800" AnalysisType="1">
    <BinaryTree type="DecisionTree" boostWeight="1.0" itree="0">
<Node pos="s" depth="0" NCoef="0" IVar="0" Cut="5.5301562500000000E+02" cType="1" res="-1.5104816576135785E-18" rms="0.0" purity="0.249998981539" nType="0">
  <Node pos="l" depth="1" NCoef="0" IVar="2" Cut="7.0221466064453125E+01" cType="1" res="2.4195227783876160E-04" rms="0.0" purity="0.247559675193" nType="0">
    <Node pos="l" depth="2" NCoef="0" IVar="1" Cut="1.4278793334960938E+00" cType="1" res="-5.8124958869194344E-04" rms="0.0" purity="0.236719574261" nType="0">
      <Node pos="l" depth="3" NCoef="0" IVar="-1" Cut="0.0000000000000000E+00" cType="1" res="-4.7932078143265548E-03" rms="0.0e-00" purity="0.193046069558" nType="-99">
      </Node>
      <Node pos="r" depth="3" NCoef="0" IVar="-1" Cut="0.0000000000000000E+00" cType="1" res="9.2601615798034971E-04" rms="0.0e-00" purity="0.247761782114" nType="-99">
      </Node>
    </Node>
    <Node pos="r" depth="2" NCoef="0" IVar="2" Cut="1.3643751525878906E+02" cType="1" res="1.1383659950052008E-03" rms="0.0" purity="0.197704365772" nType="0">
      <Node pos="l" depth="3" NCoef="0" IVar="-1" Cut="0.0000000000000000E+00" cType="1" res="4.8791262436128522E-03" rms="0.0e-00" purity="0.189992390522" nType="-99">
      </Node>
      <Node pos="r" depth="3" NCoef="0" IVar="-1" Cut="0.0000000000000000E+00" cType="1" res="-1.7090006052124210E-03" rms="0.0e-00" purity="0.242869802985" nType="-99">
      </Node>
    </Node>
  </Node>
  <Node pos="r" depth="1" NCoef="0" IVar="6" Cut="4.5000000000000000E+00" cType="1" res="-2.4640918440805128E-04" rms="0.0" purity="0.247669751392" nType="0">
    <Node pos="l" depth="2" NCoef="0" IVar="1" Cut="9.3212556838989258E-01" cType="1" res="9.9844891839296032E-05" rms="0.0" purity="0.249559916526" nType="0">
      <Node pos="l" depth="3" NCoef="0" IVar="-1" Cut="0.0000000000000000E+00" cType="1" res="-3.1698725561436565E-03" rms="0.0e-00" purity="0.225198854658" nType="-99">
      </Node>
      <Node pos="r" depth="3" NCoef="0" IVar="-1" Cut="0.0000000000000000E+00" cType="1" res="2.5742588968962498E-03" rms="0.0e-00" purity="0.233172304232" nType="-99">
      </Node>
    </Node>
    <Node pos="r" depth="2" NCoef="0" IVar="4" Cut="3.8267405033111572E+00" cType="1" res="-4.8049677786313742E-04" rms="0.0" purity="0.240957860074" nType="0">
      <Node pos="l" depth="3" NCoef="0" IVar="-1" Cut="0.0000000000000000E+00" cType="1" res="-1.4112949442162106E-03" rms="0.0e-00" purity="0.245162064204" nType="-99">
      </Node>
      <Node pos="r" depth="3" NCoef="0" IVar="-1" Cut="0.0000000000000000E+00" cType="1" res="-2.8404632558601765E-03" rms="0.0e-00" purity="0.230115222152" nType="-99">
      </Node>
    </Node>
  </Node>
</Node>
</BinaryTree>
<BinaryTree type="DecisionTree" boostWeight="1.0" itree="1">
<Node pos="s" depth="0" NCoef="0" IVar="6" Cut="4.5000000000000000E+00" cType="1" res="6.5600783459522267E-11" rms="0.0" purity="0.249409609231" nType="0">
  <Node pos="l" depth="1" NCoef="0" IVar="6" Cut="3.5000000000000000E+00" cType="1" res="2.3794555901934453E-04" rms="0.0" purity="0.246913108691" nType="0">
    <Node pos="l" depth="2" NCoef="0" IVar="3" Cut="5.7731925964355469E+01" cType="1" res="3.4731864810415964E-04" rms="0.0" purity="0.244290798742" nType="0">
      <Node pos="l" depth="3" NCoef="0" IVar="-1" Cut="0.0000000000000000E+00" cType="1" res="3.4430342023523963E-03" rms="0.0e-00" purity="0.21925557962" nType="-99">
      </Node>
      <Node pos="r" depth="3" NCoef="0" IVar="-1" Cut="0.0000000000000000E+00" cType="1" res="4.2885037450524267E-04" rms="0.0e-00" purity="0.248761883302" nType="-99">
      </Node>
    </Node>
    <Node pos="r" depth="2" NCoef="0" IVar="2" Cut="7.0208595275878906E+01" cType="1" res="1.4291723806084242E-04" rms="0.0" purity="0.24841453409" nType="0">
      <Node pos="l" depth="3" NCoef="0" IVar="-1" Cut="0.0000000000000000E+00" cType="1" res="-2.7709985803625291E-03" rms="0.0e-00" purity="0.230492600162" nType="-99">
      </Node>
      <Node pos="r" depth="3" NCoef="0" IVar="-1" Cut="0.0000000000000000E+00" cType="1" res="4.0811024613125971E-03" rms="0.0e-00" purity="0.207116271576" nType="-99">
      </Node>
    </Node>
  </Node>
  <Node pos="r" depth="1" NCoef="0" IVar="0" Cut="5.7261010742187500E+02" cType="1" res="-3.5061244562453893E-04" rms="0.0" purity="0.244833968958" nType="0">
    <Node pos="l" depth="2" NCoef="0" IVar="0" Cut="3.9710400390625000E+02" cType="1" res="-2.1484152742896083E-05" rms="0.0" purity="0.249201935087" nType="0">
      <Node pos="l" depth="3" NCoef="0" IVar="-1" Cut="0.0000000000000000E+00" cType="1" res="1.3768605456977792E-03" rms="0.0e-00" purity="0.244359711949" nType="-99">
      </Node>
      <Node pos="r" depth="3" NCoef="0" IVar="-1" Cut="0.0000000000000000E+00" cType="1" res="-2.9925293992099272E-04" rms="0.0e-00" purity="0.249014252271" nType="-99">
      </Node>
    </Node>
    <Node pos="r" depth="2" NCoef="0" IVar="1" Cut="1.1107057332992554E+00" cType="1" res="-4.9574275947392003E-04" rms="0.0" purity="0.240154726442" nType="0">
      <Node pos="l" depth="3" NCoef="0" IVar="-1" Cut="0.0000000000000000E+00" cType="1" res="-5.1540805466565110E-03" rms="0.0e-00" purity="0.183591525584" nType="-99">
      </Node>
      <Node pos="r" depth="3" NCoef="0" IVar="-1" Cut="0.0000000000000000E+00" cType="1" res="1.0273846158954545E-03" rms="0.0e-00" purity="0.247329596378" nType="-99">
      </Node>
    </Node>
  </Node>
</Node>
</BinaryTree>
<BinaryTree type="DecisionTree" boostWeight="1.0" itree="2">
<Node pos="s" depth="0" NCoef="0" IVar="6" Cut="4.5000000000000000E+00" cType="1" res="1.0712772045162945E-10" rms="0.0" purity="0.248974541551" nType="0">
  <Node pos="l" depth="1" NCoef="0" IVar="5" Cut="2.6004834175109863E+00" cType="1" res="2.3556619830455831E-04" rms="0.0" purity="0.246546955651" nType="0">
    <Node pos="l" depth="2" NCoef="0" IVar="6" Cut="3.5000000000000000E+00" cType="1" res="3.0175780796815374E-04" rms="0.0" purity="0.245054644384" nType="0">
      <Node pos="l" depth="3" NCoef="0" IVar="-1" Cut="0.0000000000000000E+00" cType="1" res="1.6949027874239720E-03" rms="0.0e-00" purity="0.241661693923" nType="-99">
      </Node>
      <Node pos="r" depth="3" NCoef="0" IVar="-1" Cut="0.0000000000000000E+00" cType="1" res="8.0368397638091375E-04" rms="0.0e-00" purity="0.24696168854" nType="-99">
      </Node>
    </Node>
    <Node pos="r" depth="2" NCoef="0" IVar="3" Cut="5.3954887390136719E+01" cType="1" res="-1.1923441846268199E-04" rms="0.0" purity="0.248571318346" nType="0">
      <Node pos="l" depth="3" NCoef="0" IVar="-1" Cut="0.0000000000000000E+00" cType="1" res="1.9387351994213545E-03" rms="0.0e-00" purity="0.239502883824" nType="-99">
      </Node>
      <Node pos="r" depth="3" NCoef="0" IVar="-1" Cut="0.0000000000000000E+00" cType="1" res="-1.4667673698025932E-03" rms="0.0e-00" purity="0.243860867076" nType="-99">
      </Node>
    </Node>
  </Node>
  <Node pos="r" depth="1" NCoef="0" IVar="3" Cut="5.1851634979248047E+01" cType="1" res="-3.4710635662773458E-04" rms="0.0" purity="0.244461611204" nType="0">
    <Node pos="l" depth="2" NCoef="0" IVar="2" Cut="6.3051418304443359E+01" cType="1" res="5.2767659002200503E-04" rms="0.0" purity="0.23832794571" nType="0">
      <Node pos="l" depth="3" NCoef="0" IVar="-1" Cut="0.0000000000000000E+00" cType="1" res="-9.3708888038772050E-04" rms="0.0e-00" purity="0.247748151394" nType="-99">
      </Node>
      <Node pos="r" depth="3" NCoef="0" IVar="-1" Cut="0.0000000000000000E+00" cType="1" res="3.5024787888010890E-03" rms="0.0e-00" purity="0.218580195004" nType="-99">
      </Node>
    </Node>
    <Node pos="r" depth="2" NCoef="0" IVar="4" Cut="3.8253436088562012E+00" cType="1" res="-5.5790054074641852E-04" rms="0.0" purity="0.236786290891" nType="0">
      <Node pos="l" depth="3" NCoef="0" IVar="-1" Cut="0.0000000000000000E+00" cType="1" res="-1.7012686635571863E-03" rms="0.0e-00" purity="0.242080767953" nType="-99">
      </Node>
      <Node pos="r" depth="3" NCoef="0" IVar="-1" Cut="0.0000000000000000E+00" cType="1" res="-3.2470190041641814E-03" rms="0.0e-00" purity="0.222726618985" nType="-99">
      </Node>
    </Node>
  </Node>
</Node>
</BinaryTree>
<BinaryTree type="DecisionTree" boostWeight="1.0" itree="3">
<Node pos="s" depth="0" NCoef="0" IVar="1" Cut="1.2203459739685059E+00" cType="1" res="1.1323157511781350E-10" rms="0.0" purity="0.248797635971" nType="0">
  <Node pos="l" depth="1" NCoef="0" IVar="1" Cut="9.2858695983886719E-01" cType="1" res="-9.7606923520744096E-04" rms="0.0" purity="0.210785414177" nType="0">
    <Node pos="l" depth="2" NCoef="0" IVar="4" Cut="3.0610229969024658E+00" cType="1" res="-1.2623275537038325E-03" rms="0.0" purity="0.184941083532" nType="0">
      <Node pos="l" depth="3" NCoef="0" IVar="-1" Cut="0.0000000000000000E+00" cType="1" res="-3.9905602082759258E-03" rms="0.0e-00" purity="0.209571490085" nType="-99">
      </Node>
      <Node pos="r" depth="3" NCoef="0" IVar="-1" Cut="0.0000000000000000E+00" cType="1" res="-5.6099834283008833E-03" rms="0.0e-00" purity="0.16963501758" nType="-99">
      </Node>
    </Node>
    <Node pos="r" depth="2" NCoef="0" IVar="5" Cut="1.9400736093521118E+00" cType="1" res="-5.2156972944595171E-04" rms="0.0" purity="0.238352142987" nType="0">
      <Node pos="l" depth="3" NCoef="0" IVar="-1" Cut="0.0000000000000000E+00" cType="1" res="-1.3484470713691262E-04" rms="0.0e-00" purity="0.249315341516" nType="-99">
      </Node>
      <Node pos="r" depth="3" NCoef="0" IVar="-1" Cut="0.0000000000000000E+00" cType="1" res="-2.8541994871670562E-03" rms="0.0e-00" purity="0.228818806517" nType="-99">
      </Node>
    </Node>
  </Node>
  <Node pos="r" depth="1" NCoef="0" IVar="5" Cut="2.2633309364318848E+00" cType="1" res="6.5360594994777726E-04" rms="0.0" purity="0.231645171741" nType="0">
    <Node pos="l" depth="2" NCoef="0" IVar="1" Cut="1.5617790222167969E+00" cType="1" res="8.0254783985081858E-04" rms="0.0" purity="0.222803839427" nType="0">
      <Node pos="l" depth="3" NCoef="0" IVar="-1" Cut="0.0000000000000000E+00" cType="1" res="1.2372898542744770E-03" rms="0.0e-00" purity="0.245415889768" nType="-99">
      </Node>
      <Node pos="r" depth="3" NCoef="0" IVar="-1" Cut="0.0000000000000000E+00" cType="1" res="3.9225739172352118E-03" rms="0.0e-00" purity="0.209861774555" nType="-99">
      </Node>
    </Node>
    <Node pos="r" depth="2" NCoef="0" IVar="2" Cut="7.1712158203125000E+01" cType="1" res="4.4493110505550051E-04" rms="0.0" purity="0.241047284436" nType="0">
      <Node pos="l" depth="3" NCoef="0" IVar="-1" Cut="0.0000000000000000E+00" cType="1" res="-1.0170796085714926E-03" rms="0.0e-00" purity="0.247156828539" nType="-99">
      </Node>
      <Node pos="r" depth="3" NCoef="0" IVar="-1" Cut="0.0000000000000000E+00" cType="1" res="3.6717180462828669E-03" rms="0.0e-00" purity="0.214741342357" nType="-99">
      </Node>
    </Node>
  </Node>
</Node>
</BinaryTree>
<BinaryTree type="DecisionTree" boostWeight="1.0" itree="4">
<Node pos="s" depth="0" NCoef="0" IVar="0" Cut="5.5301562500000000E+02" cType="1" res="1.2596660577126393E-10" rms="0.0" purity="0.248124589507" nType="0">
  <Node pos="l" depth="1" NCoef="0" IVar="6" Cut="4.5000000000000000E+00" cType="1" res="2.3327376471739850E-04" rms="0.0" purity="0.24568472447" nType="0">
    <Node pos="l" depth="2" NCoef="0" IVar="6" Cut="3.5000000000000000E+00" cType="1" res="3.0024462863667659E-04" rms="0.0" purity="0.244188983505" nType="0">
      <Node pos="l" depth="3" NCoef="0" IVar="-1" Cut="0.0000000000000000E+00" cType="1" res="1.4614110424876689E-03" rms="0.0e-00" purity="0.242617069287" nType="-99">
      </Node>
      <Node pos="r" depth="3" NCoef="0" IVar="-1" Cut="0.0000000000000000E+00" cType="1" res="9.1042451046298174E-04" rms="0.0e-00" purity="0.245544108223" nType="-99">
      </Node>
    </Node>
    <Node pos="r" depth="2" NCoef="0" IVar="3" Cut="4.6534408569335938E+01" cType="1" res="-1.0652084908080791E-05" rms="0.0" purity="0.24809918446" nType="0">
      <Node pos="l" depth="3" NCoef="0" IVar="-1" Cut="0.0000000000000000E+00" cType="1" res="3.4678005604206834E-03" rms="0.0e-00" purity="0.217579751741" nType="-99">
      </Node>
      <Node pos="r" depth="3" NCoef="0" IVar="-1" Cut="0.0000000000000000E+00" cType="1" res="-1.3643533645656188E-03" rms="0.0e-00" purity="0.243626622614" nType="-99">
      </Node>
    </Node>
  </Node>
  <Node pos="r" depth="1" NCoef="0" IVar="2" Cut="7.1250694274902344E+01" cType="1" res="-2.3757055359853525E-04" rms="0.0" purity="0.246135046139" nType="0">
    <Node pos="l" depth="2" NCoef="0" IVar="2" Cut="5.0072402954101562E+01" cType="1" res="-1.0046343370248257E-03" rms="0.0" purity="0.207563583431" nType="0">
      <Node pos="l" depth="3" NCoef="0" IVar="-1" Cut="0.0000000000000000E+00" cType="1" res="-5.6415391995062103E-03" rms="0.0e-00" purity="0.167736135379" nType="-99">
      </Node>
      <Node pos="r" depth="3" NCoef="0" IVar="-1" Cut="0.0000000000000000E+00" cType="1" res="-2.9139311839198206E-03" rms="0.0e-00" purity="0.227150971102" nType="-99">
      </Node>
    </Node>
    <Node pos="r" depth="2" NCoef="0" IVar="3" Cut="1.5813497924804688E+02" cType="1" res="6.9703187434894966E-04" rms="0.0" purity="0.229515860496" nType="0">
      <Node pos="l" depth="3" NCoef="0" IVar="-1" Cut="0.0000000000000000E+00" cType="1" res="3.4449444042094035E-03" rms="0.0e-00" purity="0.218946960063" nType="-99">
      </Node>
      <Node pos="r" depth="3" NCoef="0" IVar="-1" Cut="0.0000000000000000E+00" cType="1" res="1.5283177586736308E-03" rms="0.0e-00" purity="0.243760716161" nType="-99">
      </Node>
    </Node>
  </Node>
</Node>
</BinaryTree>
<BinaryTree type="DecisionTree" boostWeight="1.0" itree="5">
<Node pos="s" depth="0" NCoef="0" IVar="1" Cut="1.2203459739685059E+00" cType="1" res="7.5520352381142064E-11" rms="0.0" purity="0.247731195287" nType="0">
  <Node pos="l" depth="1" NCoef="0" IVar="4" Cut="3.1886003017425537E+00" cType="1" res="-9.6255626337753012E-04" rms="0.0" purity="0.210362986125" nType="0">
    <Node pos="l" depth="2" NCoef="0" IVar="0" Cut="6.0870495605468750E+02" cType="1" res="-7.1634695689328409E-04" rms="0.0" purity="0.22785829163" nType="0">
      <Node pos="l" depth="3" NCoef="0" IVar="-1" Cut="0.0000000000000000E+00" cType="1" res="-3.9556528983070750E-03" rms="0.0e-00" purity="0.209506901733" nType="-99">
      </Node>
      <Node pos="r" depth="3" NCoef="0" IVar="-1" Cut="0.0000000000000000E+00" cType="1" res="-1.6279575283170535E-03" rms="0.0e-00" purity="0.241491580838" nType="-99">
      </Node>
    </Node>
    <Node pos="r" depth="2" NCoef="0" IVar="2" Cut="8.1999542236328125E+01" cType="1" res="-1.1596736571992759E-03" rms="0.0" purity="0.19286059042" nType="0">
      <Node pos="l" depth="3" NCoef="0" IVar="-1" Cut="0.0000000000000000E+00" cType="1" res="-5.6367746439131908E-03" rms="0.0e-00" purity="0.166814740953" nType="-99">
      </Node>
      <Node pos="r" depth="3" NCoef="0" IVar="-1" Cut="0.0000000000000000E+00" cType="1" res="3.6363245704157006E-03" rms="0.0e-00" purity="0.217206666452" nType="-99">
      </Node>
    </Node>
  </Node>
  <Node pos="r" depth="1" NCoef="0" IVar="4" Cut="3.3875870704650879E+00" cType="1" res="6.4455718847342993E-04" rms="0.0" purity="0.231319032786" nType="0">
    <Node pos="l" depth="2" NCoef="0" IVar="2" Cut="6.9607818603515625E+01" cType="1" res="8.2119996967534804E-04" rms="0.0" purity="0.220547778169" nType="0">
      <Node pos="l" depth="3" NCoef="0" IVar="-1" Cut="0.0000000000000000E+00" cType="1" res="4.6807443232930145E-04" rms="0.0e-00" purity="0.248919768098" nType="-99">
      </Node>
      <Node pos="r" depth="3" NCoef="0" IVar="-1" Cut="0.0000000000000000E+00" cType="1" res="4.8329096218522856E-03" rms="0.0e-00" purity="0.188085498801" nType="-99">
      </Node>
    </Node>
    <Node pos="r" depth="2" NCoef="0" IVar="1" Cut="1.8868408203125000E+00" cType="1" res="3.6874188234405200E-04" rms="0.0" purity="0.243145796314" nType="0">
      <Node pos="l" depth="3" NCoef="0" IVar="-1" Cut="0.0000000000000000E+00" cType="1" res="5.3194351333293613E-05" rms="0.0e-00" purity="0.249021968266" nType="-99">
      </Node>
      <Node pos="r" depth="3" NCoef="0" IVar="-1" Cut="0.0000000000000000E+00" cType="1" res="2.6983851974400844E-03" rms="0.0e-00" purity="0.23000411879" nType="-99">
      </Node>
    </Node>
  </Node>
</Node>
</BinaryTree>
<BinaryTree type="DecisionTree" boostWeight="1.0" itree="6">
<Node pos="s" depth="0" NCoef="0" IVar="2" Cut="7.1318725585937500E+01" cType="1" res="7.3185501676076133E-11" rms="0.0" purity="0.246995906262" nType="0">
  <Node pos="l" depth="1" NCoef="0" IVar="0" Cut="5.3015356445312500E+02" cType="1" res="-7.6114957165078273E-04" rms="0.0" purity="0.224034896769" nType="0">
    <Node pos="l" depth="2" NCoef="0" IVar="1" Cut="1.4378132820129395E+00" cType="1" res="-5.1656959989518120E-04" rms="0.0" purity="0.237622205836" nType="0">
      <Node pos="l" depth="3" NCoef="0" IVar="-1" Cut="0.0000000000000000E+00" cType="1" res="-4.6507392816795964E-03" rms="0.0e-00" purity="0.193476769373" nType="-99">
      </Node>
      <Node pos="r" depth="3" NCoef="0" IVar="-1" Cut="0.0000000000000000E+00" cType="1" res="1.0795727418897122E-03" rms="0.0e-00" purity="0.246304572529" nType="-99">
      </Node>
    </Node>
    <Node pos="r" depth="2" NCoef="0" IVar="6" Cut="4.5000000000000000E+00" cType="1" res="-9.7016632199554390E-04" rms="0.0" purity="0.208630881788" nType="0">
      <Node pos="l" depth="3" NCoef="0" IVar="-1" Cut="0.0000000000000000E+00" cType="1" res="-2.7578162000007002E-03" rms="0.0e-00" purity="0.228718227973" nType="-99">
      </Node>
      <Node pos="r" depth="3" NCoef="0" IVar="-1" Cut="0.0000000000000000E+00" cType="1" res="-4.5846887550091411E-03" rms="0.0e-00" purity="0.192857767162" nType="-99">
      </Node>
    </Node>
  </Node>
  <Node pos="r" depth="1" NCoef="0" IVar="2" Cut="1.3295019531250000E+02" cType="1" res="9.1204652055197578E-04" rms="0.0" purity="0.213467600198" nType="0">
    <Node pos="l" depth="2" NCoef="0" IVar="1" Cut="1.1127800941467285E+00" cType="1" res="1.0316110075684424E-03" rms="0.0" purity="0.203815098585" nType="0">
      <Node pos="l" depth="3" NCoef="0" IVar="-1" Cut="0.0000000000000000E+00" cType="1" res="7.4924940496774576E-04" rms="0.0e-00" purity="0.24789192123" nType="-99">
      </Node>
      <Node pos="r" depth="3" NCoef="0" IVar="-1" Cut="0.0000000000000000E+00" cType="1" res="4.8337543961373278E-03" rms="0.0e-00" purity="0.187396982286" nType="-99">
      </Node>
    </Node>
    <Node pos="r" depth="2" NCoef="0" IVar="4" Cut="3.9654726982116699E+00" cType="1" res="-6.0082021137784184E-04" rms="0.0" purity="0.236816062605" nType="0">
      <Node pos="l" depth="3" NCoef="0" IVar="-1" Cut="0.0000000000000000E+00" cType="1" res="-1.9343033808105891E-03" rms="0.0e-00" purity="0.241764671659" nType="-99">
      </Node>
      <Node pos="r" depth="3" NCoef="0" IVar="-1" Cut="0.0000000000000000E+00" cType="1" res="-4.5604931556628816E-03" rms="0.0e-00" purity="0.199921628415" nType="-99">
      </Node>
    </Node>
  </Node>
</Node>
</BinaryTree>
<BinaryTree type="DecisionTree" boostWeight="1.0" itree="7">
<Node pos="s" depth="0" NCoef="0" IVar="3" Cut="5.7501525878906250E+01" cType="1" res="1.9669348084161550E-10" rms="0.0" purity="0.246190952293" nType="0">
  <Node pos="l" depth="1" NCoef="0" IVar="3" Cut="4.5827022552490234E+01" cType="1" res="6.3672347248369037E-04" rms="0.0" purity="0.230228464808" nType="0">
    <Node pos="l" depth="2" NCoef="0" IVar="2" Cut="6.7171722412109375E+01" cType="1" res="8.1223342318907199E-04" rms="0.0" purity="0.219744848616" nType="0">
      <Node pos="l" depth="3" NCoef="0" IVar="-1" Cut="0.0000000000000000E+00" cType="1" res="1.0020318699695743E-03" rms="0.0e-00" purity="0.24679416457" nType="-99">
      </Node>
      <Node pos="r" depth="3" NCoef="0" IVar="-1" Cut="0.0000000000000000E+00" cType="1" res="4.4567004813721002E-03" rms="0.0e-00" purity="0.194832363679" nType="-99">
      </Node>
    </Node>
    <Node pos="r" depth="2" NCoef="0" IVar="1" Cut="1.8887355327606201E+00" cType="1" res="2.9011651227422362E-04" rms="0.0" purity="0.243693327771" nType="0">
      <Node pos="l" depth="3" NCoef="0" IVar="-1" Cut="0.0000000000000000E+00" cType="1" res="-1.9753117768420503E-03" rms="0.0e-00" purity="0.23907517435" nType="-99">
      </Node>
      <Node pos="r" depth="3" NCoef="0" IVar="-1" Cut="0.0000000000000000E+00" cType="1" res="3.6154423965085083E-03" rms="0.0e-00" purity="0.213026760698" nType="-99">
      </Node>
    </Node>
  </Node>
  <Node pos="r" depth="1" NCoef="0" IVar="3" Cut="1.1431594848632812E+02" cType="1" res="-2.4226885552584298E-04" rms="0.0" purity="0.243746469107" nType="0">
    <Node pos="l" depth="2" NCoef="0" IVar="2" Cut="6.9647079467773438E+01" cType="1" res="-6.1786914299797013E-05" rms="0.0" purity="0.246189112804" nType="0">
      <Node pos="l" depth="3" NCoef="0" IVar="-1" Cut="0.0000000000000000E+00" cType="1" res="-3.2833482548326231E-03" rms="0.0e-00" purity="0.219940204444" nType="-99">
      </Node>
      <Node pos="r" depth="3" NCoef="0" IVar="-1" Cut="0.0000000000000000E+00" cType="1" res="4.0185298107931746E-03" rms="0.0e-00" purity="0.205248126311" nType="-99">
      </Node>
    </Node>
    <Node pos="r" depth="2" NCoef="0" IVar="2" Cut="8.0833564758300781E+01" cType="1" res="-4.5934011981735317E-04" rms="0.0" purity="0.23735673021" nType="0">
      <Node pos="l" depth="3" NCoef="0" IVar="-1" Cut="0.0000000000000000E+00" cType="1" res="-4.7164079041628459E-03" rms="0.0e-00" purity="0.189447350239" nType="-99">
      </Node>
      <Node pos="r" depth="3" NCoef="0" IVar="-1" Cut="0.0000000000000000E+00" cType="1" res="4.0398201382233377E-03" rms="0.0e-00" purity="0.206602205472" nType="-99">
      </Node>
    </Node>
  </Node>
</Node>
</BinaryTree>
<BinaryTree type="DecisionTree" boostWeight="1.0" itree="8">
<Node pos="s" depth="0" NCoef="0" IVar="4" Cut="3.3622708320617676E+00" cType="1" res="2.6523429568926766E-10" rms="0.0" purity="0.245440934666" nType="0">
  <Node pos="l" depth="1" NCoef="0" IVar="2" Cut="7.1808914184570312E+01" cType="1" res="2.0749763168720860E-04" rms="0.0" purity="0.243781332372" nType="0">
    <Node pos="l" depth="2" NCoef="0" IVar="3" Cut="7.2119094848632812E+01" cType="1" res="-5.4282281166754696E-04" rms="0.0" purity="0.235025669218" nType="0">
      <Node pos="l" depth="3" NCoef="0" IVar="-1" Cut="0.0000000000000000E+00" cType="1" res="3.5124977039374271E-04" rms="0.0e-00" purity="0.248219224661" nType="-99">
      </Node>
      <Node pos="r" depth="3" NCoef="0" IVar="-1" Cut="0.0000000000000000E+00" cType="1" res="-3.8243997050618388E-03" rms="0.0e-00" purity="0.209149689262" nType="-99">
      </Node>
    </Node>
    <Node pos="r" depth="2" NCoef="0" IVar="2" Cut="1.3447463989257812E+02" cType="1" res="1.0825730323503473E-03" rms="0.0" purity="0.197099033258" nType="0">
      <Node pos="l" depth="3" NCoef="0" IVar="-1" Cut="0.0000000000000000E+00" cType="1" res="4.7771372904045917E-03" rms="0.0e-00" purity="0.186464997256" nType="-99">
      </Node>
      <Node pos="r" depth="3" NCoef="0" IVar="-1" Cut="0.0000000000000000E+00" cType="1" res="-1.9153445509586112E-03" rms="0.0e-00" purity="0.242318217838" nType="-99">
      </Node>
    </Node>
  </Node>
  <Node pos="r" depth="1" NCoef="0" IVar="2" Cut="7.1230255126953125E+01" cType="1" res="-2.8490727038347325E-04" rms="0.0" purity="0.242108083117" nType="0">
    <Node pos="l" depth="2" NCoef="0" IVar="1" Cut="1.2127580642700195E+00" cType="1" res="-1.0024217001427863E-03" rms="0.0" purity="0.204326492676" nType="0">
      <Node pos="l" depth="3" NCoef="0" IVar="-1" Cut="0.0000000000000000E+00" cType="1" res="-6.0150547321306978E-03" rms="0.0e-00" purity="0.151007427364" nType="-99">
      </Node>
      <Node pos="r" depth="3" NCoef="0" IVar="-1" Cut="0.0000000000000000E+00" cType="1" res="-1.2019692992810938E-03" rms="0.0e-00" purity="0.245401843477" nType="-99">
      </Node>
    </Node>
    <Node pos="r" depth="2" NCoef="0" IVar="2" Cut="1.3118701171875000E+02" cType="1" res="6.3976815328977863E-04" rms="0.0" purity="0.230058282403" nType="0">
      <Node pos="l" depth="3" NCoef="0" IVar="-1" Cut="0.0000000000000000E+00" cType="1" res="3.0865131260342364E-03" rms="0.0e-00" purity="0.222171513933" nType="-99">
      </Node>
      <Node pos="r" depth="3" NCoef="0" IVar="-1" Cut="0.0000000000000000E+00" cType="1" res="-3.1193493706046138E-03" rms="0.0e-00" purity="0.227113374778" nType="-99">
      </Node>
    </Node>
  </Node>
</Node>
</BinaryTree>
<BinaryTree type="DecisionTree" boostWeight="1.0" itree="9">
<Node pos="s" depth="0" NCoef="0" IVar="6" Cut="4.5000000000000000E+00" cType="1" res="1.8903398011270717E-10" rms="0.0" purity="0.244674020086" nType="0">
  <Node pos="l" depth="1" NCoef="0" IVar="5" Cut="2.6004834175109863E+00" cType="1" res="2.2602704047783371E-04" rms="0.0" purity="0.242861048416" nType="0">
    <Node pos="l" depth="2" NCoef="0" IVar="2" Cut="7.2475311279296875E+01" cType="1" res="2.9026412955178232E-04" rms="0.0" purity="0.241406162455" nType="0">
      <Node pos="l" depth="3" NCoef="0" IVar="-1" Cut="0.0000000000000000E+00" cType="1" res="-1.7829991648735111E-03" rms="0.0e-00" purity="0.238892049791" nType="-99">
      </Node>
      <Node pos="r" depth="3" NCoef="0" IVar="-1" Cut="0.0000000000000000E+00" cType="1" res="4.5593808122865323E-03" rms="0.0e-00" purity="0.190525585771" nType="-99">
      </Node>
    </Node>
    <Node pos="r" depth="2" NCoef="0" IVar="1" Cut="1.3351203203201294E+00" cType="1" res="-1.1829694467063326E-04" rms="0.0" purity="0.245032440765" nType="0">
      <Node pos="l" depth="3" NCoef="0" IVar="-1" Cut="0.0000000000000000E+00" cType="1" res="-3.8733414560771146E-03" rms="0.0e-00" purity="0.206488220525" nType="-99">
      </Node>
      <Node pos="r" depth="3" NCoef="0" IVar="-1" Cut="0.0000000000000000E+00" cType="1" res="1.7921204911673827E-03" rms="0.0e-00" purity="0.238666139468" nType="-99">
      </Node>
    </Node>
  </Node>
  <Node pos="r" depth="1" NCoef="0" IVar="2" Cut="7.1516830444335938E+01" cType="1" res="-3.3305021192362615E-04" rms="0.0" purity="0.239897396397" nType="0">
    <Node pos="l" depth="2" NCoef="0" IVar="3" Cut="5.1168441772460938E+01" cType="1" res="-1.0174765500039209E-03" rms="0.0" purity="0.201671213084" nType="0">
      <Node pos="l" depth="3" NCoef="0" IVar="-1" Cut="0.0000000000000000E+00" cType="1" res="2.8918216102079188E-04" rms="0.0e-00" purity="0.24873349282" nType="-99">
      </Node>
      <Node pos="r" depth="3" NCoef="0" IVar="-1" Cut="0.0000000000000000E+00" cType="1" res="-4.8819966221056461E-03" rms="0.0e-00" purity="0.182512984393" nType="-99">
      </Node>
    </Node>
    <Node pos="r" depth="2" NCoef="0" IVar="2" Cut="1.3120356750488281E+02" cType="1" res="6.4018382584476563E-04" rms="0.0" purity="0.22972224" nType="0">
      <Node pos="l" depth="3" NCoef="0" IVar="-1" Cut="0.0000000000000000E+00" cType="1" res="3.0979187973027818E-03" rms="0.0e-00" purity="0.22172110341" nType="-99">
      </Node>
      <Node pos="r" depth="3" NCoef="0" IVar="-1" Cut="0.0000000000000000E+00" cType="1" res="-4.1866395341823015E-03" rms="0.0e-00" purity="0.207657977311" nType="-99">
      </Node>
    </Node>
  </Node>
</Node>
</BinaryTree>
<BinaryTree type="DecisionTree" boostWeight="1.0" itree="10">
<Node pos="s" depth="0" NCoef="0" IVar="0" Cut="5.5301562500000000E+02" cType="1" res="2.3835017241766601E-10" rms="0.0" purity="0.244032470185" nType="0">
  <Node pos="l" depth="1" NCoef="0" IVar="1" Cut="1.4140522480010986E+00" cType="1" res="2.2282388432038832E-04" rms="0.0" purity="0.242110496436" nType="0">
    <Node pos="l" depth="2" NCoef="0" IVar="1" Cut="1.0858206748962402E+00" cType="1" res="-8.8627928375646615E-04" rms="0.0" purity="0.213029821073" nType="0">
      <Node pos="l" depth="3" NCoef="0" IVar="-1" Cut="0.0000000000000000E+00" cType="1" res="-5.2168300799993669E-03" rms="0.0e-00" purity="0.174794464812" nType="-99">
      </Node>
      <Node pos="r" depth="3" NCoef="0" IVar="-1" Cut="0.0000000000000000E+00" cType="1" res="-1.5129304873595869E-03" rms="0.0e-00" purity="0.240816502155" nType="-99">
      </Node>
    </Node>
    <Node pos="r" depth="2" NCoef="0" IVar="4" Cut="3.3724739551544189E+00" cType="1" res="8.4098026666518002E-04" rms="0.0" purity="0.21560989077" nType="0">
      <Node pos="l" depth="3" NCoef="0" IVar="-1" Cut="0.0000000000000000E+00" cType="1" res="3.8899846737506520E-03" rms="0.0e-00" purity="0.205269809397" nType="-99">
      </Node>
      <Node pos="r" depth="3" NCoef="0" IVar="-1" Cut="0.0000000000000000E+00" cType="1" res="2.2943416997935166E-03" rms="0.0e-00" purity="0.232537007896" nType="-99">
      </Node>
    </Node>
  </Node>
  <Node pos="r" depth="1" NCoef="0" IVar="2" Cut="7.5845252990722656E+01" cType="1" res="-2.2692795327836847E-04" rms="0.0" purity="0.241907392999" nType="0">
    <Node pos="l" depth="2" NCoef="0" IVar="1" Cut="1.1106890439987183E+00" cType="1" res="-8.5419452692669581E-04" rms="0.0" purity="0.214140987256" nType="0">
      <Node pos="l" depth="3" NCoef="0" IVar="-1" Cut="0.0000000000000000E+00" cType="1" res="-5.1977017165456005E-03" rms="0.0e-00" purity="0.17299419136" nType="-99">
      </Node>
      <Node pos="r" depth="3" NCoef="0" IVar="-1" Cut="0.0000000000000000E+00" cType="1" res="-4.3781736548469395E-04" rms="0.0e-00" purity="0.247805229888" nType="-99">
      </Node>
    </Node>
    <Node pos="r" depth="2" NCoef="0" IVar="1" Cut="3.2738618850708008E+00" cType="1" res="7.9538121743244331E-04" rms="0.0" purity="0.219705586795" nType="0">
      <Node pos="l" depth="3" NCoef="0" IVar="-1" Cut="0.0000000000000000E+00" cType="1" res="3.3133328695690595E-03" rms="0.0e-00" purity="0.217468394637" nType="-99">
      </Node>
      <Node pos="r" depth="3" NCoef="0" IVar="-1" Cut="0.0000000000000000E+00" cType="1" res="-1.6965336383514221E-03" rms="0.0e-00" purity="0.242796855772" nType="-99">
      </Node>
    </Node>
  </Node>
</Node>
</BinaryTree>
<BinaryTree type="DecisionTree" boostWeight="1.0" itree="11">
<Node pos="s" depth="0" NCoef="0" IVar="1" Cut="1.2187893390655518E+00" cType="1" res="-1.3751496038975982E-11" rms="0.0" purity="0.243338058486" nType="0">
  <Node pos="l" depth="1" NCoef="0" IVar="6" Cut="4.5000000000000000E+00" cType="1" res="-9.1992098641477946E-04" rms="0.0" purity="0.207771762308" nType="0">
    <Node pos="l" depth="2" NCoef="0" IVar="2" Cut="8.0838714599609375E+01" cType="1" res="-7.1529350863235963E-04" rms="0.0" purity="0.223335478078" nType="0">
      <Node pos="l" depth="3" NCoef="0" IVar="-1" Cut="0.0000000000000000E+00" cType="1" res="-4.0850420496231742E-03" rms="0.0e-00" purity="0.201997894754" nType="-99">
      </Node>
      <Node pos="r" depth="3" NCoef="0" IVar="-1" Cut="0.0000000000000000E+00" cType="1" res="5.0917744384044459E-03" rms="0.0e-00" purity="0.180027732562" nType="-99">
      </Node>
    </Node>
    <Node pos="r" depth="2" NCoef="0" IVar="3" Cut="1.2537731933593750E+02" cType="1" res="-1.1550490523339588E-03" rms="0.0" purity="0.185752254276" nType="0">
      <Node pos="l" depth="3" NCoef="0" IVar="-1" Cut="0.0000000000000000E+00" cType="1" res="-5.4754047712694846E-03" rms="0.0e-00" purity="0.163501420145" nType="-99">
      </Node>
      <Node pos="r" depth="3" NCoef="0" IVar="-1" Cut="0.0000000000000000E+00" cType="1" res="-4.0371175610627473E-03" rms="0.0e-00" purity="0.199120672766" nType="-99">
      </Node>
    </Node>
  </Node>
  <Node pos="r" depth="1" NCoef="0" IVar="5" Cut="2.2984399795532227E+00" cType="1" res="6.1372867892179879E-04" rms="0.0" purity="0.229416452877" nType="0">
    <Node pos="l" depth="2" NCoef="0" IVar="6" Cut="4.5000000000000000E+00" cType="1" res="7.4771551020008458E-04" rms="0.0" purity="0.221438467659" nType="0">
      <Node pos="l" depth="3" NCoef="0" IVar="-1" Cut="0.0000000000000000E+00" cType="1" res="3.5338482861244145E-03" rms="0.0e-00" purity="0.211641494069" nType="-99">
      </Node>
      <Node pos="r" depth="3" NCoef="0" IVar="-1" Cut="0.0000000000000000E+00" cType="1" res="2.0105458996569282E-03" rms="0.0e-00" purity="0.235540696126" nType="-99">
      </Node>
    </Node>
    <Node pos="r" depth="2" NCoef="0" IVar="6" Cut="5.5000000000000000E+00" cType="1" res="3.9279545897540026E-04" rms="0.0" purity="0.239434946478" nType="0">
      <Node pos="l" depth="3" NCoef="0" IVar="-1" Cut="0.0000000000000000E+00" cType="1" res="1.8773799117417721E-03" rms="0.0e-00" purity="0.236572053149" nType="-99">
      </Node>
      <Node pos="r" depth="3" NCoef="0" IVar="-1" Cut="0.0000000000000000E+00" cType="1" res="1.0819623658730407E-04" rms="0.0e-00" purity="0.246712733936" nType="-99">
      </Node>
    </Node>
  </Node>
</Node>
</BinaryTree>
<BinaryTree type="DecisionTree" boostWeight="1.0" itree="12">
<Node pos="s" depth="0" NCoef="0" IVar="2" Cut="6.9595443725585938E+01" cType="1" res="-2.9362291360567254E-10" rms="0.0" purity="0.242736742665" nType="0">
  <Node pos="l" depth="1" NCoef="0" IVar="0" Cut="5.5280847167968750E+02" cType="1" res="-7.6548796842433055E-04" rms="0.0" purity="0.219523438215" nType="0">
    <Node pos="l" depth="2" NCoef="0" IVar="1" Cut="1.4278793334960938E+00" cType="1" res="-5.6147123784609646E-04" rms="0.0" purity="0.232497655306" nType="0">
      <Node pos="l" depth="3" NCoef="0" IVar="-1" Cut="0.0000000000000000E+00" cType="1" res="-4.4831635559536885E-03" rms="0.0e-00" purity="0.192097074093" nType="-99">
      </Node>
      <Node pos="r" depth="3" NCoef="0" IVar="-1" Cut="0.0000000000000000E+00" cType="1" res="7.7410194422624192E-04" rms="0.0e-00" purity="0.247484628239" nType="-99">
      </Node>
    </Node>
    <Node pos="r" depth="2" NCoef="0" IVar="5" Cut="2.1364235877990723E+00" cType="1" res="-9.6780912530100485E-04" rms="0.0" purity="0.203368619188" nType="0">
      <Node pos="l" depth="3" NCoef="0" IVar="-1" Cut="0.0000000000000000E+00" cType="1" res="-3.3047537931199648E-03" rms="0.0e-00" purity="0.215057647939" nType="-99">
      </Node>
      <Node pos="r" depth="3" NCoef="0" IVar="-1" Cut="0.0000000000000000E+00" cType="1" res="-4.3607944096010409E-03" rms="0.0e-00" purity="0.192214479605" nType="-99">
      </Node>
    </Node>
  </Node>
  <Node pos="r" depth="1" NCoef="0" IVar="0" Cut="5.5754174804687500E+02" cType="1" res="8.2065114008571857E-04" rms="0.0" purity="0.21555618689" nType="0">
    <Node pos="l" depth="2" NCoef="0" IVar="5" Cut="2.5453293323516846E+00" cType="1" res="1.0314428705536748E-03" rms="0.0" purity="0.197967025642" nType="0">
      <Node pos="l" depth="3" NCoef="0" IVar="-1" Cut="0.0000000000000000E+00" cType="1" res="4.4047730867624868E-03" rms="0.0e-00" purity="0.191455246931" nType="-99">
      </Node>
      <Node pos="r" depth="3" NCoef="0" IVar="-1" Cut="0.0000000000000000E+00" cType="1" res="2.9349070068427794E-03" rms="0.0e-00" purity="0.222174764308" nType="-99">
      </Node>
    </Node>
    <Node pos="r" depth="2" NCoef="0" IVar="3" Cut="1.5813497924804688E+02" cType="1" res="5.9259530171777946E-04" rms="0.0" purity="0.230582652562" nType="0">
      <Node pos="l" depth="3" NCoef="0" IVar="-1" Cut="0.0000000000000000E+00" cType="1" res="3.0670701091435582E-03" rms="0.0e-00" purity="0.220434588721" nType="-99">
      </Node>
      <Node pos="r" depth="3" NCoef="0" IVar="-1" Cut="0.0000000000000000E+00" cType="1" res="1.0702176256067806E-03" rms="0.0e-00" purity="0.243133786336" nType="-99">
      </Node>
    </Node>
  </Node>
</Node>
</BinaryTree>
<BinaryTree type="DecisionTree" boostWeight="1.0" itree="13">
<Node pos="s" depth="0" NCoef="0" IVar="2" Cut="7.1318725585937500E+01" cType="1" res="-3.4690717405216628E-10" rms="0.0" purity="0.242097169911" nType="0">
  <Node pos="l" depth="1" NCoef="0" IVar="3" Cut="6.1164695739746094E+01" cType="1" res="-7.1715267657984606E-04" rms="0.0" purity="0.221887364503" nType="0">
    <Node pos="l" depth="2" NCoef="0" IVar="2" Cut="5.0789093017578125E+01" cType="1" res="3.3586979157045653E-05" rms="0.0" purity="0.247935997724" nType="0">
      <Node pos="l" depth="3" NCoef="0" IVar="-1" Cut="0.0000000000000000E+00" cType="1" res="-2.6585569163968341E-03" rms="0.0e-00" purity="0.229209654223" nType="-99">
      </Node>
      <Node pos="r" depth="3" NCoef="0" IVar="-1" Cut="0.0000000000000000E+00" cType="1" res="1.4353502781523093E-03" rms="0.0e-00" purity="0.243356890034" nType="-99">
      </Node>
    </Node>
    <Node pos="r" depth="2" NCoef="0" IVar="1" Cut="1.0955374240875244E+00" cType="1" res="-1.0116106125675243E-03" rms="0.0" purity="0.199359802427" nType="0">
      <Node pos="l" depth="3" NCoef="0" IVar="-1" Cut="0.0000000000000000E+00" cType="1" res="-5.4124073026677218E-03" rms="0.0e-00" purity="0.163735175066" nType="-99">
      </Node>
      <Node pos="r" depth="3" NCoef="0" IVar="-1" Cut="0.0000000000000000E+00" cType="1" res="-1.4870884391358064E-03" rms="0.0e-00" purity="0.241651493089" nType="-99">
      </Node>
    </Node>
  </Node>
  <Node pos="r" depth="1" NCoef="0" IVar="1" Cut="9.2472726106643677E-01" cType="1" res="8.5932638199021181E-04" rms="0.0" purity="0.212125115944" nType="0">
    <Node pos="l" depth="2" NCoef="0" IVar="2" Cut="8.6007682800292969E+01" cType="1" res="-6.3444707009197563E-05" rms="0.0" purity="0.247149723838" nType="0">
      <Node pos="l" depth="3" NCoef="0" IVar="-1" Cut="0.0000000000000000E+00" cType="1" res="-2.9598257844597542E-03" rms="0.0e-00" purity="0.226018961557" nType="-99">
      </Node>
      <Node pos="r" depth="3" NCoef="0" IVar="-1" Cut="0.0000000000000000E+00" cType="1" res="4.8039117820626873E-03" rms="0.0e-00" purity="0.188524861771" nType="-99">
      </Node>
    </Node>
    <Node pos="r" depth="2" NCoef="0" IVar="2" Cut="1.3295019531250000E+02" cType="1" res="9.6271038912066134E-04" rms="0.0" purity="0.203957561796" nType="0">
      <Node pos="l" depth="3" NCoef="0" IVar="-1" Cut="0.0000000000000000E+00" cType="1" res="4.4173003442081445E-03" rms="0.0e-00" purity="0.191461286349" nType="-99">
      </Node>
      <Node pos="r" depth="3" NCoef="0" IVar="-1" Cut="0.0000000000000000E+00" cType="1" res="-2.4904737567222777E-03" rms="0.0e-00" purity="0.23632602549" nType="-99">
      </Node>
    </Node>
  </Node>
</Node>
</BinaryTree>
<BinaryTree type="DecisionTree" boostWeight="1.0" itree="14">
<Node pos="s" depth="0" NCoef="0" IVar="2" Cut="7.1318725585937500E+01" cType="1" res="-4.9175169436378022E-10" rms="0.0" purity="0.241277899951" nType="0">
  <Node pos="l" depth="1" NCoef="0" IVar="1" Cut="1.2187893390655518E+00" cType="1" res="-7.0998280832971735E-04" rms="0.0" purity="0.221536848165" nType="0">
    <Node pos="l" depth="2" NCoef="0" IVar="4" Cut="3.1883125305175781E+00" cType="1" res="-1.2409126537028571E-03" rms="0.0" purity="0.174947244377" nType="0">
      <Node pos="l" depth="3" NCoef="0" IVar="-1" Cut="0.0000000000000000E+00" cType="1" res="-4.1472084354047022E-03" rms="0.0e-00" purity="0.197523219487" nType="-99">
      </Node>
      <Node pos="r" depth="3" NCoef="0" IVar="-1" Cut="0.0000000000000000E+00" cType="1" res="-5.6197293652189631E-03" rms="0.0e-00" purity="0.155095174491" nType="-99">
      </Node>
    </Node>
    <Node pos="r" depth="2" NCoef="0" IVar="3" Cut="3.7834869384765625E+01" cType="1" res="-1.6625916577202464E-05" rms="0.0" purity="0.248424875386" nType="0">
      <Node pos="l" depth="3" NCoef="0" IVar="-1" Cut="0.0000000000000000E+00" cType="1" res="2.0479334490681022E-03" rms="0.0e-00" purity="0.237517149056" nType="-99">
      </Node>
      <Node pos="r" depth="3" NCoef="0" IVar="-1" Cut="0.0000000000000000E+00" cType="1" res="-7.2295304165772374E-04" rms="0.0e-00" purity="0.247266874244" nType="-99">
      </Node>
    </Node>
  </Node>
  <Node pos="r" depth="1" NCoef="0" IVar="4" Cut="3.3622646331787109E+00" cType="1" res="8.5073477945415922E-04" rms="0.0" purity="0.211822286333" nType="0">
    <Node pos="l" depth="2" NCoef="0" IVar="2" Cut="1.3447463989257812E+02" cType="1" res="1.0175181497217942E-03" rms="0.0" purity="0.197456772527" nType="0">
      <Node pos="l" depth="3" NCoef="0" IVar="-1" Cut="0.0000000000000000E+00" cType="1" res="4.5033243509372232E-03" rms="0.0e-00" purity="0.187481384847" nType="-99">
      </Node>
      <Node pos="r" depth="3" NCoef="0" IVar="-1" Cut="0.0000000000000000E+00" cType="1" res="-1.9895704310732946E-03" rms="0.0e-00" purity="0.2420181592" nType="-99">
      </Node>
    </Node>
    <Node pos="r" depth="2" NCoef="0" IVar="6" Cut="6.5000000000000000E+00" cType="1" res="6.0434917223857530E-04" rms="0.0" purity="0.228972205794" nType="0">
      <Node pos="l" depth="3" NCoef="0" IVar="-1" Cut="0.0000000000000000E+00" cType="1" res="2.6705267119473165E-03" rms="0.0e-00" purity="0.225414178383" nType="-99">
      </Node>
      <Node pos="r" depth="3" NCoef="0" IVar="-1" Cut="0.0000000000000000E+00" cType="1" res="6.8176274710257526E-04" rms="0.0e-00" purity="0.245100180835" nType="-99">
      </Node>
    </Node>
  </Node>
</Node>
</BinaryTree>
<BinaryTree type="DecisionTree" boostWeight="1.0" itree="15">
<Node pos="s" depth="0" NCoef="0" IVar="2" Cut="6.9595443725585938E+01" cType="1" res="-8.2469184415549380E-10" rms="0.0" purity="0.240559912935" nType="0">
  <Node pos="l" depth="1" NCoef="0" IVar="4" Cut="3.3607053756713867E+00" cType="1" res="-7.4319915409837918E-04" rms="0.0" purity="0.21865146567" nType="0">
    <Node pos="l" depth="2" NCoef="0" IVar="6" Cut="5.5000000000000000E+00" cType="1" res="-5.5520278402551809E-04" rms="0.0" purity="0.230525873685" nType="0">
      <Node pos="l" depth="3" NCoef="0" IVar="-1" Cut="0.0000000000000000E+00" cType="1" res="-1.9984916300272216E-03" rms="0.0e-00" purity="0.233522941842" nType="-99">
      </Node>
      <Node pos="r" depth="3" NCoef="0" IVar="-1" Cut="0.0000000000000000E+00" cType="1" res="-4.3290364275905468E-03" rms="0.0e-00" purity="0.190398480867" nType="-99">
      </Node>
    </Node>
    <Node pos="r" depth="2" NCoef="0" IVar="3" Cut="6.0564090728759766E+01" cType="1" res="-9.8409446739293059E-04" rms="0.0" purity="0.199303083735" nType="0">
      <Node pos="l" depth="3" NCoef="0" IVar="-1" Cut="0.0000000000000000E+00" cType="1" res="-1.0205954609959550E-03" rms="0.0e-00" purity="0.244947371228" nType="-99">
      </Node>
      <Node pos="r" depth="3" NCoef="0" IVar="-1" Cut="0.0000000000000000E+00" cType="1" res="-4.9571005060586376E-03" rms="0.0e-00" purity="0.173706276306" nType="-99">
      </Node>
    </Node>
  </Node>
  <Node pos="r" depth="1" NCoef="0" IVar="3" Cut="1.2180973815917969E+02" cType="1" res="7.9675501427781234E-04" rms="0.0" purity="0.214968461658" nType="0">
    <Node pos="l" depth="2" NCoef="0" IVar="2" Cut="1.2493174743652344E+02" cType="1" res="9.7491429480659462E-04" rms="0.0" purity="0.200850920977" nType="0">
      <Node pos="l" depth="3" NCoef="0" IVar="-1" Cut="0.0000000000000000E+00" cType="1" res="4.3957223084669875E-03" rms="0.0e-00" purity="0.189784969477" nType="-99">
      </Node>
      <Node pos="r" depth="3" NCoef="0" IVar="-1" Cut="0.0000000000000000E+00" cType="1" res="-1.4532959058290531E-03" rms="0.0e-00" purity="0.244898109325" nType="-99">
      </Node>
    </Node>
    <Node pos="r" depth="2" NCoef="0" IVar="4" Cut="3.3931834697723389E+00" cType="1" res="4.0761659394471781E-04" rms="0.0" purity="0.236973932133" nType="0">
      <Node pos="l" depth="3" NCoef="0" IVar="-1" Cut="0.0000000000000000E+00" cType="1" res="2.4047807582840337E-03" rms="0.0e-00" purity="0.228078710797" nType="-99">
      </Node>
      <Node pos="r" depth="3" NCoef="0" IVar="-1" Cut="0.0000000000000000E+00" cType="1" res="4.6433908793757305E-04" rms="0.0e-00" purity="0.244775179126" nType="-99">
      </Node>
    </Node>
  </Node>
</Node>
</BinaryTree>
<BinaryTree type="DecisionTree" boostWeight="1.0" itree="16">
<Node pos="s" depth="0" NCoef="0" IVar="2" Cut="7.2451004028320312E+01" cType="1" res="-7.1548297463709478E-10" rms="0.0" purity="0.239954324008" nType="0">
  <Node pos="l" depth="1" NCoef="0" IVar="3" Cut="6.1164695739746094E+01" cType="1" res="-6.7185462085442077E-04" rms="0.0" purity="0.222530317236" nType="0">
    <Node pos="l" depth="2" NCoef="0" IVar="1" Cut="1.6298615932464600E+00" cType="1" res="6.2475688698836946E-05" rms="0.0" purity="0.247213220889" nType="0">
      <Node pos="l" depth="3" NCoef="0" IVar="-1" Cut="0.0000000000000000E+00" cType="1" res="-2.9155959440508817E-03" rms="0.0e-00" purity="0.223958394022" nType="-99">
      </Node>
      <Node pos="r" depth="3" NCoef="0" IVar="-1" Cut="0.0000000000000000E+00" cType="1" res="1.3314401483054475E-03" rms="0.0e-00" purity="0.24369440567" nType="-99">
      </Node>
    </Node>
    <Node pos="r" depth="2" NCoef="0" IVar="2" Cut="5.6987472534179688E+01" cType="1" res="-9.6323255824475973E-04" rms="0.0" purity="0.200781536457" nType="0">
      <Node pos="l" depth="3" NCoef="0" IVar="-1" Cut="0.0000000000000000E+00" cType="1" res="-4.9673862236715690E-03" rms="0.0e-00" purity="0.173388190359" nType="-99">
      </Node>
      <Node pos="r" depth="3" NCoef="0" IVar="-1" Cut="0.0000000000000000E+00" cType="1" res="-2.3471770817249248E-03" rms="0.0e-00" purity="0.228581648042" nType="-99">
      </Node>
    </Node>
  </Node>
  <Node pos="r" depth="1" NCoef="0" IVar="1" Cut="1.1123752593994141E+00" cType="1" res="8.6500996612366840E-04" rms="0.0" purity="0.209211529691" nType="0">
    <Node pos="l" depth="2" NCoef="0" IVar="4" Cut="2.6458501815795898E+00" cType="1" res="2.1297306623306817E-04" rms="0.0" purity="0.244354403537" nType="0">
      <Node pos="l" depth="3" NCoef="0" IVar="-1" Cut="0.0000000000000000E+00" cType="1" res="3.1837705414424510E-03" rms="0.0e-00" purity="0.218235650188" nType="-99">
      </Node>
      <Node pos="r" depth="3" NCoef="0" IVar="-1" Cut="0.0000000000000000E+00" cType="1" res="3.5542927172820823E-04" rms="0.0e-00" purity="0.246413477987" nType="-99">
      </Node>
    </Node>
    <Node pos="r" depth="2" NCoef="0" IVar="1" Cut="3.3746047019958496E+00" cType="1" res="9.8597679787603646E-04" rms="0.0" purity="0.198951460249" nType="0">
      <Node pos="l" depth="3" NCoef="0" IVar="-1" Cut="0.0000000000000000E+00" cType="1" res="4.0737578324193859E-03" rms="0.0e-00" purity="0.196337753732" nType="-99">
      </Node>
      <Node pos="r" depth="3" NCoef="0" IVar="-1" Cut="0.0000000000000000E+00" cType="1" res="-4.7425769620542259E-04" rms="0.0e-00" purity="0.246188392924" nType="-99">
      </Node>
    </Node>
  </Node>
</Node>
</BinaryTree>
<BinaryTree type="DecisionTree" boostWeight="1.0" itree="17">
<Node pos="s" depth="0" NCoef="0" IVar="3" Cut="5.7501525878906250E+01" cType="1" res="-8.1129180921572472E-10" rms="0.0" purity="0.239294957364" nType="0">
  <Node pos="l" depth="1" NCoef="0" IVar="3" Cut="4.5827022552490234E+01" cType="1" res="5.8839859471674142E-04" rms="0.0" purity="0.227509063484" nType="0">
    <Node pos="l" depth="2" NCoef="0" IVar="0" Cut="7.0150976562500000E+02" cType="1" res="7.5367143151720795E-04" rms="0.0" purity="0.218049242041" nType="0">
      <Node pos="l" depth="3" NCoef="0" IVar="-1" Cut="0.0000000000000000E+00" cType="1" res="3.3033623311766141E-03" rms="0.0e-00" purity="0.212982675008" nType="-99">
      </Node>
      <Node pos="r" depth="3" NCoef="0" IVar="-1" Cut="0.0000000000000000E+00" cType="1" res="1.1162460879921888E-03" rms="0.0e-00" purity="0.241971710867" nType="-99">
      </Node>
    </Node>
    <Node pos="r" depth="2" NCoef="0" IVar="1" Cut="1.8887355327606201E+00" cType="1" res="2.6200846504971032E-04" rms="0.0" purity="0.239771895409" nType="0">
      <Node pos="l" depth="3" NCoef="0" IVar="-1" Cut="0.0000000000000000E+00" cType="1" res="-1.8681456165537270E-03" rms="0.0e-00" purity="0.238044841901" nType="-99">
      </Node>
      <Node pos="r" depth="3" NCoef="0" IVar="-1" Cut="0.0000000000000000E+00" cType="1" res="3.3378819083339957E-03" rms="0.0e-00" purity="0.211499503327" nType="-99">
      </Node>
    </Node>
  </Node>
  <Node pos="r" depth="1" NCoef="0" IVar="4" Cut="3.3617513179779053E+00" cType="1" res="-2.2388294634208305E-04" rms="0.0" purity="0.236505200062" nType="0">
    <Node pos="l" depth="2" NCoef="0" IVar="3" Cut="1.1350088500976562E+02" cType="1" res="-2.2720569859291255E-05" rms="0.0" purity="0.239219152938" nType="0">
      <Node pos="l" depth="3" NCoef="0" IVar="-1" Cut="0.0000000000000000E+00" cType="1" res="6.2997653057780692E-04" rms="0.0e-00" purity="0.238863224993" nType="-99">
      </Node>
      <Node pos="r" depth="3" NCoef="0" IVar="-1" Cut="0.0000000000000000E+00" cType="1" res="-9.5605359415767218E-04" rms="0.0e-00" purity="0.236233333204" nType="-99">
      </Node>
    </Node>
    <Node pos="r" depth="2" NCoef="0" IVar="4" Cut="3.8288965225219727E+00" cType="1" res="-4.9163114468033983E-04" rms="0.0" purity="0.227870915815" nType="0">
      <Node pos="l" depth="3" NCoef="0" IVar="-1" Cut="0.0000000000000000E+00" cType="1" res="-1.4205764647010194E-03" rms="0.0e-00" purity="0.233232617659" nType="-99">
      </Node>
      <Node pos="r" depth="3" NCoef="0" IVar="-1" Cut="0.0000000000000000E+00" cType="1" res="-2.5283866345845903E-03" rms="0.0e-00" purity="0.220938194158" nType="-99">
      </Node>
    </Node>
  </Node>
</Node>
</BinaryTree>
<BinaryTree type="DecisionTree" boostWeight="1.0" itree="18">
<Node pos="s" depth="0" NCoef="0" IVar="2" Cut="7.2451004028320312E+01" cType="1" res="-6.3113456201438199E-10" rms="0.0" purity="0.239094587113" nType="0">
  <Node pos="l" depth="1" NCoef="0" IVar="2" Cut="5.3234569549560547E+01" cType="1" res="-6.6444449695542487E-04" rms="0.0" purity="0.22205821945" nType="0">
    <Node pos="l" depth="2" NCoef="0" IVar="4" Cut="3.1883194446563721E+00" cType="1" res="-1.1067843842578046E-03" rms="0.0" purity="0.186464456429" nType="0">
      <Node pos="l" depth="3" NCoef="0" IVar="-1" Cut="0.0000000000000000E+00" cType="1" res="-3.6109077347295003E-03" rms="0.0e-00" purity="0.207429980463" nType="-99">
      </Node>
      <Node pos="r" depth="3" NCoef="0" IVar="-1" Cut="0.0000000000000000E+00" cType="1" res="-5.0911141122047454E-03" rms="0.0e-00" purity="0.167750125565" nType="-99">
      </Node>
    </Node>
    <Node pos="r" depth="2" NCoef="0" IVar="0" Cut="5.2899176025390625E+02" cType="1" res="-3.0564122215348153E-04" rms="0.0" purity="0.239431930398" nType="0">
      <Node pos="l" depth="3" NCoef="0" IVar="-1" Cut="0.0000000000000000E+00" cType="1" res="-1.7669356020326180E-04" rms="0.0e-00" purity="0.245144990097" nType="-99">
      </Node>
      <Node pos="r" depth="3" NCoef="0" IVar="-1" Cut="0.0000000000000000E+00" cType="1" res="-2.1803807602913754E-03" rms="0.0e-00" purity="0.229469209193" nType="-99">
      </Node>
    </Node>
  </Node>
  <Node pos="r" depth="1" NCoef="0" IVar="2" Cut="1.3295019531250000E+02" cType="1" res="8.5546963802356809E-04" rms="0.0" purity="0.209019225338" nType="0">
    <Node pos="l" depth="2" NCoef="0" IVar="1" Cut="1.1123752593994141E+00" cType="1" res="9.7755752949643302E-04" rms="0.0" purity="0.198951402198" nType="0">
      <Node pos="l" depth="3" NCoef="0" IVar="-1" Cut="0.0000000000000000E+00" cType="1" res="8.7930355168811957E-04" rms="0.0e-00" purity="0.244160330972" nType="-99">
      </Node>
      <Node pos="r" depth="3" NCoef="0" IVar="-1" Cut="0.0000000000000000E+00" cType="1" res="4.5405115646193041E-03" rms="0.0e-00" purity="0.184190271902" nType="-99">
      </Node>
    </Node>
    <Node pos="r" depth="2" NCoef="0" IVar="3" Cut="1.6585202026367188E+02" cType="1" res="-6.2429051399408428E-04" rms="0.0" purity="0.236231733484" nType="0">
      <Node pos="l" depth="3" NCoef="0" IVar="-1" Cut="0.0000000000000000E+00" cType="1" res="-2.0705787476313292E-03" rms="0.0e-00" purity="0.240731648623" nType="-99">
      </Node>
      <Node pos="r" depth="3" NCoef="0" IVar="-1" Cut="0.0000000000000000E+00" cType="1" res="-4.3591684284342673E-03" rms="0.0e-00" purity="0.206040511229" nType="-99">
      </Node>
    </Node>
  </Node>
</Node>
</BinaryTree>
<BinaryTree type="DecisionTree" boostWeight="1.0" itree="19">
<Node pos="s" depth="0" NCoef="0" IVar="2" Cut="7.1318725585937500E+01" cType="1" res="-3.5740048130411666E-10" rms="0.0" purity="0.238447920303" nType="0">
  <Node pos="l" depth="1" NCoef="0" IVar="1" Cut="1.2187893390655518E+00" cType="1" res="-6.8193389213895626E-04" rms="0.0" purity="0.220408537216" nType="0">
    <Node pos="l" depth="2" NCoef="0" IVar="4" Cut="3.1883125305175781E+00" cType="1" res="-1.1991258670150367E-03" rms="0.0" purity="0.174736095907" nType="0">
      <Node pos="l" depth="3" NCoef="0" IVar="-1" Cut="0.0000000000000000E+00" cType="1" res="-4.0186099506154087E-03" rms="0.0e-00" purity="0.197438967745" nType="-99">
      </Node>
      <Node pos="r" depth="3" NCoef="0" IVar="-1" Cut="0.0000000000000000E+00" cType="1" res="-5.4396789196055331E-03" rms="0.0e-00" purity="0.154971803919" nType="-99">
      </Node>
    </Node>
    <Node pos="r" depth="2" NCoef="0" IVar="2" Cut="5.2766933441162109E+01" cType="1" res="-6.5176892930779841E-06" rms="0.0" purity="0.247833245387" nType="0">
      <Node pos="l" depth="3" NCoef="0" IVar="-1" Cut="0.0000000000000000E+00" cType="1" res="-2.0144214787698759E-03" rms="0.0e-00" purity="0.23687853053" nType="-99">
      </Node>
      <Node pos="r" depth="3" NCoef="0" IVar="-1" Cut="0.0000000000000000E+00" cType="1" res="6.4098656966139690E-04" rms="0.0e-00" purity="0.247085351565" nType="-99">
      </Node>
    </Node>
  </Node>
  <Node pos="r" depth="1" NCoef="0" IVar="2" Cut="1.3295019531250000E+02" cType="1" res="8.1712550203817962E-04" rms="0.0" purity="0.211066776838" nType="0">
    <Node pos="l" depth="2" NCoef="0" IVar="3" Cut="1.3385891723632812E+02" cType="1" res="9.3054969888266075E-04" rms="0.0" purity="0.20205514765" nType="0">
      <Node pos="l" depth="3" NCoef="0" IVar="-1" Cut="0.0000000000000000E+00" cType="1" res="4.3093766545021644E-03" rms="0.0e-00" purity="0.18854275275" nType="-99">
      </Node>
      <Node pos="r" depth="3" NCoef="0" IVar="-1" Cut="0.0000000000000000E+00" cType="1" res="2.1575450373561198E-03" rms="0.0e-00" purity="0.230887233761" nType="-99">
      </Node>
    </Node>
    <Node pos="r" depth="2" NCoef="0" IVar="3" Cut="1.6585202026367188E+02" cType="1" res="-6.1804725103941336E-04" rms="0.0" purity="0.236192057262" nType="0">
      <Node pos="l" depth="3" NCoef="0" IVar="-1" Cut="0.0000000000000000E+00" cType="1" res="-2.0496787374416551E-03" rms="0.0e-00" purity="0.240731570036" nType="-99">
      </Node>
      <Node pos="r" depth="3" NCoef="0" IVar="-1" Cut="0.0000000000000000E+00" cType="1" res="-4.3149374942449492E-03" rms="0.0e-00" purity="0.20604045567" nType="-99">
      </Node>
    </Node>
  </Node>
</Node>
</BinaryTree>
<BinaryTree type="DecisionTree" boostWeight="1.0" itree="20">
<Node pos="s" depth="0" NCoef="0" IVar="1" Cut="1.2203459739685059E+00" cType="1" res="-6.6506149302860528E-10" rms="0.0" purity="0.23775131893" nType="0">
  <Node pos="l" depth="1" NCoef="0" IVar="6" Cut="4.5000000000000000E+00" cType="1" res="-8.5818221047150121E-04" rms="0.0" purity="0.204920901044" nType="0">
    <Node pos="l" depth="2" NCoef="0" IVar="0" Cut="6.1338092041015625E+02" cType="1" res="-6.6192621197533037E-04" rms="0.0" purity="0.220171235079" nType="0">
      <Node pos="l" depth="3" NCoef="0" IVar="-1" Cut="0.0000000000000000E+00" cType="1" res="-3.7005764378555740E-03" rms="0.0e-00" purity="0.202502142509" nType="-99">
      </Node>
      <Node pos="r" depth="3" NCoef="0" IVar="-1" Cut="0.0000000000000000E+00" cType="1" res="-1.0157891722088535E-03" rms="0.0e-00" purity="0.237007676269" nType="-99">
      </Node>
    </Node>
    <Node pos="r" depth="2" NCoef="0" IVar="2" Cut="8.6520584106445312E+01" cType="1" res="-1.0838682458480387E-03" rms="0.0" purity="0.183574609763" nType="0">
      <Node pos="l" depth="3" NCoef="0" IVar="-1" Cut="0.0000000000000000E+00" cType="1" res="-5.1073076501902924E-03" rms="0.0e-00" purity="0.164836556898" nType="-99">
      </Node>
      <Node pos="r" depth="3" NCoef="0" IVar="-1" Cut="0.0000000000000000E+00" cType="1" res="4.4516199848496224E-03" rms="0.0e-00" purity="0.195635280704" nType="-99">
      </Node>
    </Node>
  </Node>
  <Node pos="r" depth="1" NCoef="0" IVar="1" Cut="1.6297246217727661E+00" cType="1" res="5.7466389943807599E-04" rms="0.0" purity="0.226799333684" nType="0">
    <Node pos="l" depth="2" NCoef="0" IVar="4" Cut="2.9194464683532715E+00" cType="1" res="1.5912087330984554E-04" rms="0.0" purity="0.242269421725" nType="0">
      <Node pos="l" depth="3" NCoef="0" IVar="-1" Cut="0.0000000000000000E+00" cType="1" res="2.1622981429880572E-03" rms="0.0e-00" purity="0.230140858891" nType="-99">
      </Node>
      <Node pos="r" depth="3" NCoef="0" IVar="-1" Cut="0.0000000000000000E+00" cType="1" res="1.2634562274917494E-04" rms="0.0e-00" purity="0.243745970124" nType="-99">
      </Node>
    </Node>
    <Node pos="r" depth="2" NCoef="0" IVar="0" Cut="6.6027233886718750E+02" cType="1" res="7.5235565365727860E-04" rms="0.0" purity="0.215967600034" nType="0">
      <Node pos="l" depth="3" NCoef="0" IVar="-1" Cut="0.0000000000000000E+00" cType="1" res="3.4022131885789327E-03" rms="0.0e-00" purity="0.208777500972" nType="-99">
      </Node>
      <Node pos="r" depth="3" NCoef="0" IVar="-1" Cut="0.0000000000000000E+00" cType="1" res="1.5401729491473371E-03" rms="0.0e-00" purity="0.236927977705" nType="-99">
      </Node>
    </Node>
  </Node>
</Node>
</BinaryTree>
<BinaryTree type="DecisionTree" boostWeight="1.0" itree="21">
<Node pos="s" depth="0" NCoef="0" IVar="0" Cut="5.5301562500000000E+02" cType="1" res="-1.1066707038672260E-09" rms="0.0" purity="0.237212732653" nType="0">
  <Node pos="l" depth="1" NCoef="0" IVar="4" Cut="3.3904700279235840E+00" cType="1" res="2.0323416861283246E-04" rms="0.0" purity="0.235592186567" nType="0">
    <Node pos="l" depth="2" NCoef="0" IVar="5" Cut="1.4274804592132568E+00" cType="1" res="3.2581748027446495E-04" rms="0.0" purity="0.232610694015" nType="0">
      <Node pos="l" depth="3" NCoef="0" IVar="-1" Cut="0.0000000000000000E+00" cType="1" res="7.2970006234272398E-04" rms="0.0e-00" purity="0.235693361436" nType="-99">
      </Node>
      <Node pos="r" depth="3" NCoef="0" IVar="-1" Cut="0.0000000000000000E+00" cType="1" res="1.3630004985082714E-03" rms="0.0e-00" purity="0.232231371487" nType="-99">
      </Node>
    </Node>
    <Node pos="r" depth="2" NCoef="0" IVar="1" Cut="1.4414725303649902E+00" cType="1" res="-5.9801473096971089E-05" rms="0.0" purity="0.237932523879" nType="0">
      <Node pos="l" depth="3" NCoef="0" IVar="-1" Cut="0.0000000000000000E+00" cType="1" res="-4.2778493121636728E-03" rms="0.0e-00" purity="0.187685425664" nType="-99">
      </Node>
      <Node pos="r" depth="3" NCoef="0" IVar="-1" Cut="0.0000000000000000E+00" cType="1" res="2.1489792736859290E-03" rms="0.0e-00" purity="0.22958783047" nType="-99">
      </Node>
    </Node>
  </Node>
  <Node pos="r" depth="1" NCoef="0" IVar="3" Cut="4.7836715698242188E+01" cType="1" res="-2.0698009803586705E-04" rms="0.0" purity="0.235466900768" nType="0">
    <Node pos="l" depth="2" NCoef="0" IVar="4" Cut="3.3992171287536621E+00" cType="1" res="4.6770007635774780E-04" rms="0.0" purity="0.233952596691" nType="0">
      <Node pos="l" depth="3" NCoef="0" IVar="-1" Cut="0.0000000000000000E+00" cType="1" res="2.8042244237155194E-03" rms="0.0e-00" purity="0.220821609258" nType="-99">
      </Node>
      <Node pos="r" depth="3" NCoef="0" IVar="-1" Cut="0.0000000000000000E+00" cType="1" res="1.0422041340163385E-03" rms="0.0e-00" purity="0.242108447866" nType="-99">
      </Node>
    </Node>
    <Node pos="r" depth="2" NCoef="0" IVar="5" Cut="2.2653031349182129E+00" cType="1" res="-2.9416625861250262E-04" rms="0.0" purity="0.233005620068" nType="0">
      <Node pos="l" depth="3" NCoef="0" IVar="-1" Cut="0.0000000000000000E+00" cType="1" res="-6.8849943121972212E-04" rms="0.0e-00" purity="0.235815597033" nType="-99">
      </Node>
      <Node pos="r" depth="3" NCoef="0" IVar="-1" Cut="0.0000000000000000E+00" cType="1" res="-1.9546278081074421E-03" rms="0.0e-00" purity="0.226172022066" nType="-99">
      </Node>
    </Node>
  </Node>
</Node>
</BinaryTree>
<BinaryTree type="DecisionTree" boostWeight="1.0" itree="22">
<Node pos="s" depth="0" NCoef="0" IVar="6" Cut="4.5000000000000000E+00" cType="1" res="-1.1795725717450053E-09" rms="0.0" purity="0.237056184399" nType="0">
  <Node pos="l" depth="1" NCoef="0" IVar="1" Cut="1.2299466133117676E+00" cType="1" res="2.1051879801072147E-04" rms="0.0" purity="0.236007035852" nType="0">
    <Node pos="l" depth="2" NCoef="0" IVar="1" Cut="9.3213957548141479E-01" cType="1" res="-6.4618446878235859E-04" rms="0.0" purity="0.220550197475" nType="0">
      <Node pos="l" depth="3" NCoef="0" IVar="-1" Cut="0.0000000000000000E+00" cType="1" res="-3.7131595652314122E-03" rms="0.0e-00" purity="0.200264242028" nType="-99">
      </Node>
      <Node pos="r" depth="3" NCoef="0" IVar="-1" Cut="0.0000000000000000E+00" cType="1" res="-1.0276333929008638E-03" rms="0.0e-00" purity="0.238548186204" nType="-99">
      </Node>
    </Node>
    <Node pos="r" depth="2" NCoef="0" IVar="1" Cut="1.6296648979187012E+00" cType="1" res="7.0379882844869002E-04" rms="0.0" purity="0.21827011611" nType="0">
      <Node pos="l" depth="3" NCoef="0" IVar="-1" Cut="0.0000000000000000E+00" cType="1" res="1.2507150113386814E-03" rms="0.0e-00" purity="0.238888735444" nType="-99">
      </Node>
      <Node pos="r" depth="3" NCoef="0" IVar="-1" Cut="0.0000000000000000E+00" cType="1" res="3.4372242251140923E-03" rms="0.0e-00" purity="0.206967189002" nType="-99">
      </Node>
    </Node>
  </Node>
  <Node pos="r" depth="1" NCoef="0" IVar="1" Cut="1.1711215972900391E+00" cType="1" res="-3.1020221319233687E-04" rms="0.0" purity="0.232140976184" nType="0">
    <Node pos="l" depth="2" NCoef="0" IVar="1" Cut="8.8375902175903320E-01" cType="1" res="-1.1127890099766721E-03" rms="0.0" purity="0.178791738275" nType="0">
      <Node pos="l" depth="3" NCoef="0" IVar="-1" Cut="0.0000000000000000E+00" cType="1" res="-5.4418721663060396E-03" rms="0.0e-00" purity="0.151645783872" nType="-99">
      </Node>
      <Node pos="r" depth="3" NCoef="0" IVar="-1" Cut="0.0000000000000000E+00" cType="1" res="-2.9318382101428471E-03" rms="0.0e-00" purity="0.212888471197" nType="-99">
      </Node>
    </Node>
    <Node pos="r" depth="2" NCoef="0" IVar="5" Cut="2.5554375648498535E+00" cType="1" res="3.0987548572506221E-04" rms="0.0" purity="0.238072039135" nType="0">
      <Node pos="l" depth="3" NCoef="0" IVar="-1" Cut="0.0000000000000000E+00" cType="1" res="1.5302850830985638E-03" rms="0.0e-00" purity="0.235771256958" nType="-99">
      </Node>
      <Node pos="r" depth="3" NCoef="0" IVar="-1" Cut="0.0000000000000000E+00" cType="1" res="-3.8360883011321034E-04" rms="0.0e-00" purity="0.243334931954" nType="-99">
      </Node>
    </Node>
  </Node>
</Node>
</BinaryTree>
<BinaryTree type="DecisionTree" boostWeight="1.0" itree="23">
<Node pos="s" depth="0" NCoef="0" IVar="3" Cut="5.7501525878906250E+01" cType="1" res="-1.5968530058524793E-09" rms="0.0" purity="0.236589696802" nType="0">
  <Node pos="l" depth="1" NCoef="0" IVar="4" Cut="3.3597955703735352E+00" cType="1" res="5.5944905597598812E-04" rms="0.0" purity="0.226282742461" nType="0">
    <Node pos="l" depth="2" NCoef="0" IVar="0" Cut="1.0911391601562500E+03" cType="1" res="7.2011769744875125E-04" rms="0.0" purity="0.216218438431" nType="0">
      <Node pos="l" depth="3" NCoef="0" IVar="-1" Cut="0.0000000000000000E+00" cType="1" res="2.9601748603856272E-03" rms="0.0e-00" purity="0.215084862135" nType="-99">
      </Node>
      <Node pos="r" depth="3" NCoef="0" IVar="-1" Cut="0.0000000000000000E+00" cType="1" res="-2.4620484241554773E-03" rms="0.0e-00" purity="0.233922860114" nType="-99">
      </Node>
    </Node>
    <Node pos="r" depth="2" NCoef="0" IVar="1" Cut="1.8868408203125000E+00" cType="1" res="3.2192051905774438E-04" rms="0.0" purity="0.237378232337" nType="0">
      <Node pos="l" depth="3" NCoef="0" IVar="-1" Cut="0.0000000000000000E+00" cType="1" res="-3.0179885520766180E-03" rms="0.0e-00" purity="0.222229505393" nType="-99">
      </Node>
      <Node pos="r" depth="3" NCoef="0" IVar="-1" Cut="0.0000000000000000E+00" cType="1" res="2.3339471232297826E-03" rms="0.0e-00" purity="0.227175933814" nType="-99">
      </Node>
    </Node>
  </Node>
  <Node pos="r" depth="1" NCoef="0" IVar="6" Cut="4.5000000000000000E+00" cType="1" res="-2.1286892019085440E-04" rms="0.0" purity="0.233935375268" nType="0">
    <Node pos="l" depth="2" NCoef="0" IVar="1" Cut="1.2299466133117676E+00" cType="1" res="4.3375332803799536E-06" rms="0.0" purity="0.237275436993" nType="0">
      <Node pos="l" depth="3" NCoef="0" IVar="-1" Cut="0.0000000000000000E+00" cType="1" res="-2.5622905210589990E-03" rms="0.0e-00" purity="0.220453862632" nType="-99">
      </Node>
      <Node pos="r" depth="3" NCoef="0" IVar="-1" Cut="0.0000000000000000E+00" cType="1" res="2.7185271396644069E-03" rms="0.0e-00" purity="0.21949379019" nType="-99">
      </Node>
    </Node>
    <Node pos="r" depth="2" NCoef="0" IVar="1" Cut="1.1107057332992554E+00" cType="1" res="-5.0530600191083961E-04" rms="0.0" purity="0.2234769184" nType="0">
      <Node pos="l" depth="3" NCoef="0" IVar="-1" Cut="0.0000000000000000E+00" cType="1" res="-4.6484590208287577E-03" rms="0.0e-00" purity="0.173115118799" nType="-99">
      </Node>
      <Node pos="r" depth="3" NCoef="0" IVar="-1" Cut="0.0000000000000000E+00" cType="1" res="8.0015335506432588E-04" rms="0.0e-00" purity="0.24003521599" nType="-99">
      </Node>
    </Node>
  </Node>
</Node>
</BinaryTree>
<BinaryTree type="DecisionTree" boostWeight="1.0" itree="24">
<Node pos="s" depth="0" NCoef="0" IVar="4" Cut="3.3622708320617676E+00" cType="1" res="-1.9880310698059755E-09" rms="0.0" purity="0.236167874456" nType="0">
  <Node pos="l" depth="1" NCoef="0" IVar="1" Cut="1.2411875724792480E+00" cType="1" res="1.9008737279055962E-04" rms="0.0" purity="0.235071212545" nType="0">
    <Node pos="l" depth="2" NCoef="0" IVar="3" Cut="1.5888002014160156E+02" cType="1" res="-6.4648601335028880E-04" rms="0.0" purity="0.219545805105" nType="0">
      <Node pos="l" depth="3" NCoef="0" IVar="-1" Cut="0.0000000000000000E+00" cType="1" res="-3.2810667274226850E-03" rms="0.0e-00" purity="0.209382829182" nType="-99">
      </Node>
      <Node pos="r" depth="3" NCoef="0" IVar="-1" Cut="0.0000000000000000E+00" cType="1" res="-1.4704907943436554E-03" rms="0.0e-00" purity="0.231239473582" nType="-99">
      </Node>
    </Node>
    <Node pos="r" depth="2" NCoef="0" IVar="6" Cut="4.5000000000000000E+00" cType="1" res="7.3735684759273503E-04" rms="0.0" purity="0.214934223445" nType="0">
      <Node pos="l" depth="3" NCoef="0" IVar="-1" Cut="0.0000000000000000E+00" cType="1" res="3.2274259071490329E-03" rms="0.0e-00" purity="0.209803007899" nType="-99">
      </Node>
      <Node pos="r" depth="3" NCoef="0" IVar="-1" Cut="0.0000000000000000E+00" cType="1" res="2.0852100055054222E-03" rms="0.0e-00" purity="0.229426581525" nType="-99">
      </Node>
    </Node>
  </Node>
  <Node pos="r" depth="1" NCoef="0" IVar="1" Cut="1.2127543687820435E+00" cType="1" res="-2.6100718662542828E-04" rms="0.0" purity="0.232964142408" nType="0">
    <Node pos="l" depth="2" NCoef="0" IVar="3" Cut="1.9333023071289062E+02" cType="1" res="-1.0442985322333127E-03" rms="0.0" purity="0.183353046944" nType="0">
      <Node pos="l" depth="3" NCoef="0" IVar="-1" Cut="0.0000000000000000E+00" cType="1" res="-4.6539552374599133E-03" rms="0.0e-00" purity="0.172219174868" nType="-99">
      </Node>
      <Node pos="r" depth="3" NCoef="0" IVar="-1" Cut="0.0000000000000000E+00" cType="1" res="-2.8059461544121139E-03" rms="0.0e-00" purity="0.212126642437" nType="-99">
      </Node>
    </Node>
    <Node pos="r" depth="2" NCoef="0" IVar="6" Cut="5.5000000000000000E+00" cType="1" res="3.0698566250878136E-04" rms="0.0" purity="0.238238149415" nType="0">
      <Node pos="l" depth="3" NCoef="0" IVar="-1" Cut="0.0000000000000000E+00" cType="1" res="1.5524131593628440E-03" rms="0.0e-00" purity="0.235512017773" nType="-99">
      </Node>
      <Node pos="r" depth="3" NCoef="0" IVar="-1" Cut="0.0000000000000000E+00" cType="1" res="4.3098058475725452E-04" rms="0.0e-00" purity="0.242807270803" nType="-99">
      </Node>
    </Node>
  </Node>
</Node>
</BinaryTree>
<BinaryTree type="DecisionTree" boostWeight="1.0" itree="25">
<Node pos="s" depth="0" NCoef="0" IVar="6" Cut="4.5000000000000000E+00" cType="1" res="-2.3846939890590020E-09" rms="0.0" purity="0.235748180684" nType="0">
  <Node pos="l" depth="1" NCoef="0" IVar="3" Cut="5.0425468444824219E+01" cType="1" res="2.0499205361061961E-04" rms="0.0" purity="0.234884707455" nType="0">
    <Node pos="l" depth="2" NCoef="0" IVar="2" Cut="6.7317260742187500E+01" cType="1" res="7.5058132165098693E-04" rms="0.0" purity="0.21352553631" nType="0">
      <Node pos="l" depth="3" NCoef="0" IVar="-1" Cut="0.0000000000000000E+00" cType="1" res="9.7679969312036230E-04" rms="0.0e-00" purity="0.24486767593" nType="-99">
      </Node>
      <Node pos="r" depth="3" NCoef="0" IVar="-1" Cut="0.0000000000000000E+00" cType="1" res="4.1714842969419689E-03" rms="0.0e-00" purity="0.186887050634" nType="-99">
      </Node>
    </Node>
    <Node pos="r" depth="2" NCoef="0" IVar="2" Cut="7.7543273925781250E+01" cType="1" res="3.3321225804964999E-05" rms="0.0" purity="0.236680110872" nType="0">
      <Node pos="l" depth="3" NCoef="0" IVar="-1" Cut="0.0000000000000000E+00" cType="1" res="-2.2635752354562954E-03" rms="0.0e-00" purity="0.226423321257" nType="-99">
      </Node>
      <Node pos="r" depth="3" NCoef="0" IVar="-1" Cut="0.0000000000000000E+00" cType="1" res="4.2810916629963270E-03" rms="0.0e-00" purity="0.187195606454" nType="-99">
      </Node>
    </Node>
  </Node>
  <Node pos="r" depth="1" NCoef="0" IVar="1" Cut="1.3991980552673340E+00" cType="1" res="-3.0206154021158776E-04" rms="0.0" purity="0.230894100644" nType="0">
    <Node pos="l" depth="2" NCoef="0" IVar="6" Cut="5.5000000000000000E+00" cType="1" res="-9.3220998588379738E-04" rms="0.0" purity="0.194180498231" nType="0">
      <Node pos="l" depth="3" NCoef="0" IVar="-1" Cut="0.0000000000000000E+00" cType="1" res="-3.1777211534013403E-03" rms="0.0e-00" purity="0.206450994835" nType="-99">
      </Node>
      <Node pos="r" depth="3" NCoef="0" IVar="-1" Cut="0.0000000000000000E+00" cType="1" res="-4.3493257928936841E-03" rms="0.0e-00" purity="0.1798291177" nType="-99">
      </Node>
    </Node>
    <Node pos="r" depth="2" NCoef="0" IVar="2" Cut="7.6833625793457031E+01" cType="1" res="4.4893542461591331E-04" rms="0.0" purity="0.233159118638" nType="0">
      <Node pos="l" depth="3" NCoef="0" IVar="-1" Cut="0.0000000000000000E+00" cType="1" res="2.2205144343534024E-05" rms="0.0e-00" purity="0.247165931176" nType="-99">
      </Node>
      <Node pos="r" depth="3" NCoef="0" IVar="-1" Cut="0.0000000000000000E+00" cType="1" res="3.3668359434615731E-03" rms="0.0e-00" purity="0.207895907352" nType="-99">
      </Node>
    </Node>
  </Node>
</Node>
</BinaryTree>
<BinaryTree type="DecisionTree" boostWeight="1.0" itree="26">
<Node pos="s" depth="0" NCoef="0" IVar="1" Cut="1.2187893390655518E+00" cType="1" res="-2.0333926746079956E-09" rms="0.0" purity="0.235235696736" nType="0">
  <Node pos="l" depth="1" NCoef="0" IVar="6" Cut="4.5000000000000000E+00" cType="1" res="-8.1859567719137392E-04" rms="0.0" purity="0.204015459287" nType="0">
    <Node pos="l" depth="2" NCoef="0" IVar="1" Cut="9.3213957548141479E-01" cType="1" res="-6.3111513743634119E-04" rms="0.0" purity="0.2195371992" nType="0">
      <Node pos="l" depth="3" NCoef="0" IVar="-1" Cut="0.0000000000000000E+00" cType="1" res="-3.6132655085020036E-03" rms="0.0e-00" purity="0.199920667314" nType="-99">
      </Node>
      <Node pos="r" depth="3" NCoef="0" IVar="-1" Cut="0.0000000000000000E+00" cType="1" res="-9.6611928968367222E-04" rms="0.0e-00" purity="0.237922277165" nType="-99">
      </Node>
    </Node>
    <Node pos="r" depth="2" NCoef="0" IVar="3" Cut="1.2537731933593750E+02" cType="1" res="-1.0340209816900436E-03" rms="0.0" purity="0.182708294044" nType="0">
      <Node pos="l" depth="3" NCoef="0" IVar="-1" Cut="0.0000000000000000E+00" cType="1" res="-4.9319923525955652E-03" rms="0.0e-00" purity="0.162864795335" nType="-99">
      </Node>
      <Node pos="r" depth="3" NCoef="0" IVar="-1" Cut="0.0000000000000000E+00" cType="1" res="-3.6430290612370197E-03" rms="0.0e-00" purity="0.194870106767" nType="-99">
      </Node>
    </Node>
  </Node>
  <Node pos="r" depth="1" NCoef="0" IVar="4" Cut="3.3875870704650879E+00" cType="1" res="5.4612575558982504E-04" rms="0.0" purity="0.226251902127" nType="0">
    <Node pos="l" depth="2" NCoef="0" IVar="2" Cut="6.7290000915527344E+01" cType="1" res="7.0701953969535202E-04" rms="0.0" purity="0.215956560305" nType="0">
      <Node pos="l" depth="3" NCoef="0" IVar="-1" Cut="0.0000000000000000E+00" cType="1" res="1.9795380988637444E-04" rms="0.0e-00" purity="0.247790235123" nType="-99">
      </Node>
      <Node pos="r" depth="3" NCoef="0" IVar="-1" Cut="0.0000000000000000E+00" cType="1" res="4.0687797822943914E-03" rms="0.0e-00" purity="0.189609266384" nType="-99">
      </Node>
    </Node>
    <Node pos="r" depth="2" NCoef="0" IVar="2" Cut="7.1230255126953125E+01" cType="1" res="2.9485886030721398E-04" rms="0.0" purity="0.238187584741" nType="0">
      <Node pos="l" depth="3" NCoef="0" IVar="-1" Cut="0.0000000000000000E+00" cType="1" res="-1.1811808563137230E-03" rms="0.0e-00" purity="0.243669738972" nType="-99">
      </Node>
      <Node pos="r" depth="3" NCoef="0" IVar="-1" Cut="0.0000000000000000E+00" cType="1" res="2.8006658159370700E-03" rms="0.0e-00" purity="0.218490916498" nType="-99">
      </Node>
    </Node>
  </Node>
</Node>
</BinaryTree>
<BinaryTree type="DecisionTree" boostWeight="1.0" itree="27">
<Node pos="s" depth="0" NCoef="0" IVar="2" Cut="7.2451004028320312E+01" cType="1" res="-2.0179124188123222E-09" rms="0.0" purity="0.234725099257" nType="0">
  <Node pos="l" depth="1" NCoef="0" IVar="1" Cut="1.4261059761047363E+00" cType="1" res="-6.3083621789418497E-04" rms="0.0" purity="0.219404150848" nType="0">
    <Node pos="l" depth="2" NCoef="0" IVar="1" Cut="9.4167745113372803E-01" cType="1" res="-1.0209097541174789E-03" rms="0.0" purity="0.187786113963" nType="0">
      <Node pos="l" depth="3" NCoef="0" IVar="-1" Cut="0.0000000000000000E+00" cType="1" res="-5.2727897073725641E-03" rms="0.0e-00" purity="0.153682670482" nType="-99">
      </Node>
      <Node pos="r" depth="3" NCoef="0" IVar="-1" Cut="0.0000000000000000E+00" cType="1" res="-2.6910856706013693E-03" rms="0.0e-00" purity="0.22091701788" nType="-99">
      </Node>
    </Node>
    <Node pos="r" depth="2" NCoef="0" IVar="5" Cut="2.1340012550354004E+00" cType="1" res="1.6713640119010365E-04" rms="0.0" purity="0.246163970841" nType="0">
      <Node pos="l" depth="3" NCoef="0" IVar="-1" Cut="0.0000000000000000E+00" cType="1" res="1.6516532458196070E-03" rms="0.0e-00" purity="0.239554933209" nType="-99">
      </Node>
      <Node pos="r" depth="3" NCoef="0" IVar="-1" Cut="0.0000000000000000E+00" cType="1" res="-5.8977578068598904E-05" rms="0.0e-00" purity="0.247956710345" nType="-99">
      </Node>
    </Node>
  </Node>
  <Node pos="r" depth="1" NCoef="0" IVar="2" Cut="1.3295019531250000E+02" cType="1" res="8.1219586758668786E-04" rms="0.0" purity="0.207569688135" nType="0">
    <Node pos="l" depth="2" NCoef="0" IVar="4" Cut="3.3860709667205811E+00" cType="1" res="9.3314710234453980E-04" rms="0.0" purity="0.197560059891" nType="0">
      <Node pos="l" depth="3" NCoef="0" IVar="-1" Cut="0.0000000000000000E+00" cType="1" res="4.3375339231258867E-03" rms="0.0e-00" purity="0.182617359372" nType="-99">
      </Node>
      <Node pos="r" depth="3" NCoef="0" IVar="-1" Cut="0.0000000000000000E+00" cType="1" res="2.8296257184949251E-03" rms="0.0e-00" purity="0.217965597536" nType="-99">
      </Node>
    </Node>
    <Node pos="r" depth="2" NCoef="0" IVar="4" Cut="3.9654726982116699E+00" cType="1" res="-6.5378749384912519E-04" rms="0.0" purity="0.2358340956" nType="0">
      <Node pos="l" depth="3" NCoef="0" IVar="-1" Cut="0.0000000000000000E+00" cType="1" res="-2.1722654411384600E-03" rms="0.0e-00" purity="0.240976049493" nType="-99">
      </Node>
      <Node pos="r" depth="3" NCoef="0" IVar="-1" Cut="0.0000000000000000E+00" cType="1" res="-4.6690976214075596E-03" rms="0.0e-00" purity="0.199403472322" nType="-99">
      </Node>
    </Node>
  </Node>
</Node>
</BinaryTree>
<BinaryTree type="DecisionTree" boostWeight="1.0" itree="28">
<Node pos="s" depth="0" NCoef="0" IVar="6" Cut="4.5000000000000000E+00" cType="1" res="-2.4742355395362705E-09" rms="0.0" purity="0.234068216327" nType="0">
  <Node pos="l" depth="1" NCoef="0" IVar="1" Cut="1.2299466133117676E+00" cType="1" res="2.0046512115979271E-04" rms="0.0" purity="0.233339386729" nType="0">
    <Node pos="l" depth="2" NCoef="0" IVar="1" Cut="9.3213957548141479E-01" cType="1" res="-6.1087116930385666E-04" rms="0.0" purity="0.219483463089" nType="0">
      <Node pos="l" depth="3" NCoef="0" IVar="-1" Cut="0.0000000000000000E+00" cType="1" res="-3.5454232029806052E-03" rms="0.0e-00" purity="0.199510804409" nType="-99">
      </Node>
      <Node pos="r" depth="3" NCoef="0" IVar="-1" Cut="0.0000000000000000E+00" cType="1" res="-9.3636683695077984E-04" rms="0.0e-00" purity="0.23768914723" nType="-99">
      </Node>
    </Node>
    <Node pos="r" depth="2" NCoef="0" IVar="2" Cut="7.1764450073242188E+01" cType="1" res="6.6762336085400759E-04" rms="0.0" purity="0.21742710034" nType="0">
      <Node pos="l" depth="3" NCoef="0" IVar="-1" Cut="0.0000000000000000E+00" cType="1" res="5.0226434557773373E-04" rms="0.0e-00" purity="0.246674638335" nType="-99">
      </Node>
      <Node pos="r" depth="3" NCoef="0" IVar="-1" Cut="0.0000000000000000E+00" cType="1" res="4.0818824540131155E-03" rms="0.0e-00" purity="0.186668243041" nType="-99">
      </Node>
    </Node>
  </Node>
  <Node pos="r" depth="1" NCoef="0" IVar="1" Cut="1.3981912136077881E+00" cType="1" res="-2.9539133002382071E-04" rms="0.0" purity="0.229283327418" nType="0">
    <Node pos="l" depth="2" NCoef="0" IVar="6" Cut="5.5000000000000000E+00" cType="1" res="-9.0879342219505601E-04" rms="0.0" purity="0.19352597621" nType="0">
      <Node pos="l" depth="3" NCoef="0" IVar="-1" Cut="0.0000000000000000E+00" cType="1" res="-3.0933472449324851E-03" rms="0.0e-00" purity="0.205840352951" nType="-99">
      </Node>
      <Node pos="r" depth="3" NCoef="0" IVar="-1" Cut="0.0000000000000000E+00" cType="1" res="-4.2585354653572648E-03" rms="0.0e-00" purity="0.179160789797" nType="-99">
      </Node>
    </Node>
    <Node pos="r" depth="2" NCoef="0" IVar="2" Cut="7.6833625793457031E+01" cType="1" res="4.3392196532221028E-04" rms="0.0" purity="0.232627140298" nType="0">
      <Node pos="l" depth="3" NCoef="0" IVar="-1" Cut="0.0000000000000000E+00" cType="1" res="3.3170290637199770E-06" rms="0.0e-00" purity="0.246984255827" nType="-99">
      </Node>
      <Node pos="r" depth="3" NCoef="0" IVar="-1" Cut="0.0000000000000000E+00" cType="1" res="3.2752534017014682E-03" rms="0.0e-00" purity="0.207637246067" nType="-99">
      </Node>
    </Node>
  </Node>
</Node>
</BinaryTree>
<BinaryTree type="DecisionTree" boostWeight="1.0" itree="29">
<Node pos="s" depth="0" NCoef="0" IVar="6" Cut="4.5000000000000000E+00" cType="1" res="-2.2717108488286213E-09" rms="0.0" purity="0.233597055386" nType="0">
  <Node pos="l" depth="1" NCoef="0" IVar="3" Cut="6.1111190795898438E+01" cType="1" res="1.9846145520468044E-04" rms="0.0" purity="0.232914761995" nType="0">
    <Node pos="l" depth="2" NCoef="0" IVar="3" Cut="4.5806991577148438E+01" cType="1" res="6.1496180116415165E-04" rms="0.0" purity="0.220050141132" nType="0">
      <Node pos="l" depth="3" NCoef="0" IVar="-1" Cut="0.0000000000000000E+00" cType="1" res="3.1043530022831067E-03" rms="0.0e-00" purity="0.209689201145" nType="-99">
      </Node>
      <Node pos="r" depth="3" NCoef="0" IVar="-1" Cut="0.0000000000000000E+00" cType="1" res="1.5147739821597731E-03" rms="0.0e-00" purity="0.232141437251" nType="-99">
      </Node>
    </Node>
    <Node pos="r" depth="2" NCoef="0" IVar="2" Cut="7.8649383544921875E+01" cType="1" res="-1.2196448531515457E-05" rms="0.0" purity="0.234136807328" nType="0">
      <Node pos="l" depth="3" NCoef="0" IVar="-1" Cut="0.0000000000000000E+00" cType="1" res="-2.4495576145603906E-03" rms="0.0e-00" purity="0.221702298112" nType="-99">
      </Node>
      <Node pos="r" depth="3" NCoef="0" IVar="-1" Cut="0.0000000000000000E+00" cType="1" res="4.2766715614962923E-03" rms="0.0e-00" purity="0.184716737526" nType="-99">
      </Node>
    </Node>
  </Node>
  <Node pos="r" depth="1" NCoef="0" IVar="3" Cut="4.6568855285644531E+01" cType="1" res="-2.9243842875379983E-04" rms="0.0" purity="0.228860139179" nType="0">
    <Node pos="l" depth="2" NCoef="0" IVar="4" Cut="4.0429840087890625E+00" cType="1" res="5.1042536622142103E-04" rms="0.0" purity="0.229001741211" nType="0">
      <Node pos="l" depth="3" NCoef="0" IVar="-1" Cut="0.0000000000000000E+00" cType="1" res="2.4048258182865594E-03" rms="0.0e-00" purity="0.223952385702" nType="-99">
      </Node>
      <Node pos="r" depth="3" NCoef="0" IVar="-1" Cut="0.0000000000000000E+00" cType="1" res="9.1002119059300623E-04" rms="0.0e-00" purity="0.241080562925" nType="-99">
      </Node>
    </Node>
    <Node pos="r" depth="2" NCoef="0" IVar="1" Cut="1.1107057332992554E+00" cType="1" res="-4.4325840020946960E-04" rms="0.0" purity="0.223080156546" nType="0">
      <Node pos="l" depth="3" NCoef="0" IVar="-1" Cut="0.0000000000000000E+00" cType="1" res="-4.4383756393092432E-03" rms="0.0e-00" purity="0.172737245648" nType="-99">
      </Node>
      <Node pos="r" depth="3" NCoef="0" IVar="-1" Cut="0.0000000000000000E+00" cType="1" res="6.4783224185758104E-04" rms="0.0e-00" purity="0.23918834856" nType="-99">
      </Node>
    </Node>
  </Node>
</Node>
</BinaryTree>
<BinaryTree type="DecisionTree" boostWeight="1.0" itree="30">
<Node pos="s" depth="0" NCoef="0" IVar="3" Cut="5.1176128387451172E+01" cType="1" res="-2.4404229740467139E-09" rms="0.0" purity="0.233155392569" nType="0">
  <Node pos="l" depth="1" NCoef="0" IVar="1" Cut="2.2201166152954102E+00" cType="1" res="6.0487406908541451E-04" rms="0.0" purity="0.221139554496" nType="0">
    <Node pos="l" depth="2" NCoef="0" IVar="1" Cut="1.6753700971603394E+00" cType="1" res="-7.6336131461403187E-05" rms="0.0" purity="0.246531035584" nType="0">
      <Node pos="l" depth="3" NCoef="0" IVar="-1" Cut="0.0000000000000000E+00" cType="1" res="-2.8424706566304702E-03" rms="0.0e-00" purity="0.224852450255" nType="-99">
      </Node>
      <Node pos="r" depth="3" NCoef="0" IVar="-1" Cut="0.0000000000000000E+00" cType="1" res="3.8662451308400287E-04" rms="0.0e-00" purity="0.24687429976" nType="-99">
      </Node>
    </Node>
    <Node pos="r" depth="2" NCoef="0" IVar="0" Cut="6.5960418701171875E+02" cType="1" res="8.4004336834726388E-04" rms="0.0" purity="0.203753663066" nType="0">
      <Node pos="l" depth="3" NCoef="0" IVar="-1" Cut="0.0000000000000000E+00" cType="1" res="3.7217216353375589E-03" rms="0.0e-00" purity="0.196232349378" nType="-99">
      </Node>
      <Node pos="r" depth="3" NCoef="0" IVar="-1" Cut="0.0000000000000000E+00" cType="1" res="1.6202155475864418E-03" rms="0.0e-00" purity="0.234356134302" nType="-99">
      </Node>
    </Node>
  </Node>
  <Node pos="r" depth="1" NCoef="0" IVar="1" Cut="1.1102737188339233E+00" cType="1" res="-1.7372140084537482E-04" rms="0.0" purity="0.231196038189" nType="0">
    <Node pos="l" depth="2" NCoef="0" IVar="3" Cut="1.9244981384277344E+02" cType="1" res="-8.8625517401668492E-04" rms="0.0" purity="0.194866060839" nType="0">
      <Node pos="l" depth="3" NCoef="0" IVar="-1" Cut="0.0000000000000000E+00" cType="1" res="-4.1803357681210367E-03" rms="0.0e-00" purity="0.181612906873" nType="-99">
      </Node>
      <Node pos="r" depth="3" NCoef="0" IVar="-1" Cut="0.0000000000000000E+00" cType="1" res="-2.0221021881850596E-03" rms="0.0e-00" purity="0.221093768079" nType="-99">
      </Node>
    </Node>
    <Node pos="r" depth="2" NCoef="0" IVar="1" Cut="1.4220297336578369E+00" cType="1" res="3.9089370718187611E-04" rms="0.0" purity="0.231140180711" nType="0">
      <Node pos="l" depth="3" NCoef="0" IVar="-1" Cut="0.0000000000000000E+00" cType="1" res="-2.6376690054624800E-04" rms="0.0e-00" purity="0.240797859312" nType="-99">
      </Node>
      <Node pos="r" depth="3" NCoef="0" IVar="-1" Cut="0.0000000000000000E+00" cType="1" res="2.5170197750338493E-03" rms="0.0e-00" purity="0.219682475087" nType="-99">
      </Node>
    </Node>
  </Node>
</Node>
</BinaryTree>
<BinaryTree type="DecisionTree" boostWeight="1.0" itree="31">
<Node pos="s" depth="0" NCoef="0" IVar="6" Cut="4.5000000000000000E+00" cType="1" res="-2.8071196325486331E-09" rms="0.0" purity="0.23273360544" nType="0">
  <Node pos="l" depth="1" NCoef="0" IVar="1" Cut="1.2299466133117676E+00" cType="1" res="1.9579447898351420E-04" rms="0.0" purity="0.23210021397" nType="0">
    <Node pos="l" depth="2" NCoef="0" IVar="3" Cut="1.7248217773437500E+02" cType="1" res="-5.9407234425962175E-04" rms="0.0" purity="0.218959446274" nType="0">
      <Node pos="l" depth="3" NCoef="0" IVar="-1" Cut="0.0000000000000000E+00" cType="1" res="-3.0893784158253067E-03" rms="0.0e-00" purity="0.208836189871" nType="-99">
      </Node>
      <Node pos="r" depth="3" NCoef="0" IVar="-1" Cut="0.0000000000000000E+00" cType="1" res="-7.6735393704508662E-04" rms="0.0e-00" purity="0.23334110333" nType="-99">
      </Node>
    </Node>
    <Node pos="r" depth="2" NCoef="0" IVar="2" Cut="7.1764450073242188E+01" cType="1" res="6.5059084280481014E-04" rms="0.0" purity="0.217023787395" nType="0">
      <Node pos="l" depth="3" NCoef="0" IVar="-1" Cut="0.0000000000000000E+00" cType="1" res="4.7614853779942795E-04" rms="0.0e-00" purity="0.246494974341" nType="-99">
      </Node>
      <Node pos="r" depth="3" NCoef="0" IVar="-1" Cut="0.0000000000000000E+00" cType="1" res="3.9936669157315642E-03" rms="0.0e-00" purity="0.186590085468" nType="-99">
      </Node>
    </Node>
  </Node>
  <Node pos="r" depth="1" NCoef="0" IVar="2" Cut="6.8851669311523438E+01" cType="1" res="-2.8850996556785776E-04" rms="0.0" purity="0.228077895345" nType="0">
    <Node pos="l" depth="2" NCoef="0" IVar="6" Cut="5.5000000000000000E+00" cType="1" res="-9.3352793854500936E-04" rms="0.0" purity="0.191035723519" nType="0">
      <Node pos="l" depth="3" NCoef="0" IVar="-1" Cut="0.0000000000000000E+00" cType="1" res="-3.1894983271069451E-03" rms="0.0e-00" purity="0.204375458218" nType="-99">
      </Node>
      <Node pos="r" depth="3" NCoef="0" IVar="-1" Cut="0.0000000000000000E+00" cType="1" res="-4.4009399661303463E-03" rms="0.0e-00" purity="0.174800406042" nType="-99">
      </Node>
    </Node>
    <Node pos="r" depth="2" NCoef="0" IVar="1" Cut="9.2763090133666992E-01" cType="1" res="4.8311936985538553E-04" rms="0.0" purity="0.228666055288" nType="0">
      <Node pos="l" depth="3" NCoef="0" IVar="-1" Cut="0.0000000000000000E+00" cType="1" res="-1.9068256945978680E-03" rms="0.0e-00" purity="0.23126694995" nType="-99">
      </Node>
      <Node pos="r" depth="3" NCoef="0" IVar="-1" Cut="0.0000000000000000E+00" cType="1" res="2.5720033942040381E-03" rms="0.0e-00" purity="0.221259403492" nType="-99">
      </Node>
    </Node>
  </Node>
</Node>
</BinaryTree>
<BinaryTree type="DecisionTree" boostWeight="1.0" itree="32">
<Node pos="s" depth="0" NCoef="0" IVar="2" Cut="7.2784271240234375E+01" cType="1" res="-2.6628923877695805E-09" rms="0.0" purity="0.232267644836" nType="0">
  <Node pos="l" depth="1" NCoef="0" IVar="6" Cut="4.5000000000000000E+00" cType="1" res="-6.0239437649727207E-04" rms="0.0" purity="0.218459810296" nType="0">
    <Node pos="l" depth="2" NCoef="0" IVar="6" Cut="3.5000000000000000E+00" cType="1" res="-4.1853888030831142E-04" rms="0.0" purity="0.230705541358" nType="0">
      <Node pos="l" depth="3" NCoef="0" IVar="-1" Cut="0.0000000000000000E+00" cType="1" res="-1.2351287844001868E-03" rms="0.0e-00" purity="0.235782187269" nType="-99">
      </Node>
      <Node pos="r" depth="3" NCoef="0" IVar="-1" Cut="0.0000000000000000E+00" cType="1" res="-2.0547751849616398E-03" rms="0.0e-00" purity="0.225746676711" nType="-99">
      </Node>
    </Node>
    <Node pos="r" depth="2" NCoef="0" IVar="1" Cut="1.1893031597137451E+00" cType="1" res="-8.4390524442174060E-04" rms="0.0" purity="0.198264708001" nType="0">
      <Node pos="l" depth="3" NCoef="0" IVar="-1" Cut="0.0000000000000000E+00" cType="1" res="-5.1502764736728081E-03" rms="0.0e-00" purity="0.149490166748" nType="-99">
      </Node>
      <Node pos="r" depth="3" NCoef="0" IVar="-1" Cut="0.0000000000000000E+00" cType="1" res="-9.0332069970320205E-04" rms="0.0e-00" purity="0.243724706178" nType="-99">
      </Node>
    </Node>
  </Node>
  <Node pos="r" depth="1" NCoef="0" IVar="1" Cut="9.2459583282470703E-01" cType="1" res="7.9246527567508553E-04" rms="0.0" purity="0.206217085057" nType="0">
    <Node pos="l" depth="2" NCoef="0" IVar="2" Cut="8.6654556274414062E+01" cType="1" res="7.8479467152562461E-05" rms="0.0" purity="0.244918136649" nType="0">
      <Node pos="l" depth="3" NCoef="0" IVar="-1" Cut="0.0000000000000000E+00" cType="1" res="-2.3878202323654955E-03" rms="0.0e-00" purity="0.230381524377" nType="-99">
      </Node>
      <Node pos="r" depth="3" NCoef="0" IVar="-1" Cut="0.0000000000000000E+00" cType="1" res="5.0444337085109080E-03" rms="0.0e-00" purity="0.18259468915" nType="-99">
      </Node>
    </Node>
    <Node pos="r" depth="2" NCoef="0" IVar="0" Cut="5.5762463378906250E+02" cType="1" res="8.6873263447653976E-04" rms="0.0" purity="0.199672250659" nType="0">
      <Node pos="l" depth="3" NCoef="0" IVar="-1" Cut="0.0000000000000000E+00" cType="1" res="4.0180150454888174E-03" rms="0.0e-00" purity="0.185638973854" nType="-99">
      </Node>
      <Node pos="r" depth="3" NCoef="0" IVar="-1" Cut="0.0000000000000000E+00" cType="1" res="2.8439593542176635E-03" rms="0.0e-00" purity="0.215991956024" nType="-99">
      </Node>
    </Node>
  </Node>
</Node>
</BinaryTree>
<BinaryTree type="DecisionTree" boostWeight="1.0" itree="33">
<Node pos="s" depth="0" NCoef="0" IVar="2" Cut="6.9595443725585938E+01" cType="1" res="-2.8054499799775416E-09" rms="0.0" purity="0.231763372121" nType="0">
  <Node pos="l" depth="1" NCoef="0" IVar="2" Cut="5.3234569549560547E+01" cType="1" res="-6.6099825996134649E-04" rms="0.0" purity="0.214280648396" nType="0">
    <Node pos="l" depth="2" NCoef="0" IVar="6" Cut="5.5000000000000000E+00" cType="1" res="-1.0070787491419284E-03" rms="0.0" purity="0.184471327593" nType="0">
      <Node pos="l" depth="3" NCoef="0" IVar="-1" Cut="0.0000000000000000E+00" cType="1" res="-3.6720895586835217E-03" rms="0.0e-00" purity="0.195735006364" nType="-99">
      </Node>
      <Node pos="r" depth="3" NCoef="0" IVar="-1" Cut="0.0000000000000000E+00" cType="1" res="-5.4776414503940780E-03" rms="0.0e-00" purity="0.139174507702" nType="-99">
      </Node>
    </Node>
    <Node pos="r" depth="2" NCoef="0" IVar="6" Cut="4.5000000000000000E+00" cType="1" res="-3.3218388013041229E-04" rms="0.0" purity="0.233726163429" nType="0">
      <Node pos="l" depth="3" NCoef="0" IVar="-1" Cut="0.0000000000000000E+00" cType="1" res="-5.9842480895868700E-04" rms="0.0e-00" purity="0.240956606179" nType="-99">
      </Node>
      <Node pos="r" depth="3" NCoef="0" IVar="-1" Cut="0.0000000000000000E+00" cType="1" res="-2.3588939125194414E-03" rms="0.0e-00" purity="0.219332535967" nType="-99">
      </Node>
    </Node>
  </Node>
  <Node pos="r" depth="1" NCoef="0" IVar="2" Cut="1.3295019531250000E+02" cType="1" res="7.0862632768443152E-04" rms="0.0" purity="0.211683727601" nType="0">
    <Node pos="l" depth="2" NCoef="0" IVar="2" Cut="8.5101898193359375E+01" cType="1" res="8.1209236831830418E-04" rms="0.0" purity="0.203707741402" nType="0">
      <Node pos="l" depth="3" NCoef="0" IVar="-1" Cut="0.0000000000000000E+00" cType="1" res="1.2269866711506231E-03" rms="0.0e-00" purity="0.233546196146" nType="-99">
      </Node>
      <Node pos="r" depth="3" NCoef="0" IVar="-1" Cut="0.0000000000000000E+00" cType="1" res="5.2488035281290871E-03" rms="0.0e-00" purity="0.155648883313" nType="-99">
      </Node>
    </Node>
    <Node pos="r" depth="2" NCoef="0" IVar="0" Cut="7.0109954833984375E+02" cType="1" res="-6.8657150570099602E-04" rms="0.0" purity="0.235599381428" nType="0">
      <Node pos="l" depth="3" NCoef="0" IVar="-1" Cut="0.0000000000000000E+00" cType="1" res="-1.9427010541333515E-03" rms="0.0e-00" purity="0.244149284026" nType="-99">
      </Node>
      <Node pos="r" depth="3" NCoef="0" IVar="-1" Cut="0.0000000000000000E+00" cType="1" res="-4.2364936529764611E-03" rms="0.0e-00" purity="0.211440799787" nType="-99">
      </Node>
    </Node>
  </Node>
</Node>
</BinaryTree>
<BinaryTree type="DecisionTree" boostWeight="1.0" itree="34">
<Node pos="s" depth="0" NCoef="0" IVar="6" Cut="4.5000000000000000E+00" cType="1" res="-2.3900441181746877E-09" rms="0.0" purity="0.231182474468" nType="0">
  <Node pos="l" depth="1" NCoef="0" IVar="2" Cut="7.0208595275878906E+01" cType="1" res="1.9107987959653811E-04" rms="0.0" purity="0.230816334111" nType="0">
    <Node pos="l" depth="2" NCoef="0" IVar="3" Cut="7.2128738403320312E+01" cType="1" res="-4.6360910316541255E-04" rms="0.0" purity="0.22840028329" nType="0">
      <Node pos="l" depth="3" NCoef="0" IVar="-1" Cut="0.0000000000000000E+00" cType="1" res="8.1872218649711731E-05" rms="0.0e-00" purity="0.245060765291" nType="-99">
      </Node>
      <Node pos="r" depth="3" NCoef="0" IVar="-1" Cut="0.0000000000000000E+00" cType="1" res="-3.2472021501370562E-03" rms="0.0e-00" purity="0.205370540061" nType="-99">
      </Node>
    </Node>
    <Node pos="r" depth="2" NCoef="0" IVar="4" Cut="3.4135632514953613E+00" cType="1" res="8.4566463815216630E-04" rms="0.0" purity="0.198950774871" nType="0">
      <Node pos="l" depth="3" NCoef="0" IVar="-1" Cut="0.0000000000000000E+00" cType="1" res="3.7885575585680309E-03" rms="0.0e-00" purity="0.190016897543" nType="-99">
      </Node>
      <Node pos="r" depth="3" NCoef="0" IVar="-1" Cut="0.0000000000000000E+00" cType="1" res="2.3273622264159402E-03" rms="0.0e-00" purity="0.221458730244" nType="-99">
      </Node>
    </Node>
  </Node>
  <Node pos="r" depth="1" NCoef="0" IVar="1" Cut="1.3991980552673340E+00" cType="1" res="-2.8156197516942974E-04" rms="0.0" purity="0.226398908237" nType="0">
    <Node pos="l" depth="2" NCoef="0" IVar="4" Cut="3.2756595611572266E+00" cType="1" res="-8.6534653927636469E-04" rms="0.0" purity="0.19221639545" nType="0">
      <Node pos="l" depth="3" NCoef="0" IVar="-1" Cut="0.0000000000000000E+00" cType="1" res="-2.6613907358996967E-03" rms="0.0e-00" purity="0.210770274214" nType="-99">
      </Node>
