<?xml version="1.0"?>
<MethodSetup Method="BDT::BDTG">
  <GeneralInfo>
    <Info name="TMVA Release" value="4.2.1 [262657]"/>
    <Info name="ROOT Release" value="6.06/01 [394753]"/>
    <Info name="Creator" value="mwolf3"/>
    <Info name="Date" value="Tue Oct 18 07:31:42 2016"/>
    <Info name="Host" value="Linux vocms0315.cern.ch 2.6.32-573.26.1.el6.x86_64 #1 SMP Wed May 4 09:23:05 CEST 2016 x86_64 x86_64 x86_64 GNU/Linux"/>
    <Info name="Dir" value="/afs/crc.nd.edu/user/m/mwolf3/work/ttH/releases/CMSSW_8_0_15/src/ttH/TauRoast"/>
    <Info name="Training events" value="186506"/>
    <Info name="TrainingTime" value="2.30662933e+02"/>
    <Info name="AnalysisType" value="Classification"/>
  </GeneralInfo>
  <Options>
    <Option name="V" modified="Yes">False</Option>
    <Option name="VerbosityLevel" modified="No">Default</Option>
    <Option name="VarTransform" modified="No">None</Option>
    <Option name="H" modified="Yes">False</Option>
    <Option name="CreateMVAPdfs" modified="No">False</Option>
    <Option name="IgnoreNegWeightsInTraining" modified="No">False</Option>
    <Option name="NTrees" modified="Yes">1000</Option>
    <Option name="MaxDepth" modified="No">2</Option>
    <Option name="MinNodeSize" modified="No">5%</Option>
    <Option name="nCuts" modified="Yes">20</Option>
    <Option name="BoostType" modified="Yes">Grad</Option>
    <Option name="AdaBoostR2Loss" modified="No">quadratic</Option>
    <Option name="UseBaggedBoost" modified="No">True</Option>
    <Option name="Shrinkage" modified="Yes">1.000000e-01</Option>
    <Option name="AdaBoostBeta" modified="No">5.000000e-01</Option>
    <Option name="UseRandomisedTrees" modified="No">False</Option>
    <Option name="UseNvars" modified="No">2</Option>
    <Option name="UsePoissonNvars" modified="No">True</Option>
    <Option name="BaggedSampleFraction" modified="No">5.000000e-01</Option>
    <Option name="UseYesNoLeaf" modified="No">True</Option>
    <Option name="NegWeightTreatment" modified="No">ignorenegweightsintraining</Option>
    <Option name="Css" modified="No">1.000000e+00</Option>
    <Option name="Cts_sb" modified="No">1.000000e+00</Option>
    <Option name="Ctb_ss" modified="No">1.000000e+00</Option>
    <Option name="Cbb" modified="No">1.000000e+00</Option>
    <Option name="NodePurityLimit" modified="No">5.000000e-01</Option>
    <Option name="SeparationType" modified="No">giniindex</Option>
    <Option name="DoBoostMonitor" modified="No">False</Option>
    <Option name="UseFisherCuts" modified="No">False</Option>
    <Option name="MinLinCorrForFisher" modified="No">8.000000e-01</Option>
    <Option name="UseExclusiveVars" modified="No">False</Option>
    <Option name="DoPreselection" modified="No">False</Option>
    <Option name="SigToBkgFraction" modified="No">1.000000e+00</Option>
    <Option name="PruneMethod" modified="No">nopruning</Option>
    <Option name="PruneStrength" modified="No">0.000000e+00</Option>
    <Option name="PruningValFraction" modified="No">5.000000e-01</Option>
    <Option name="nEventsMin" modified="No">0</Option>
    <Option name="UseBaggedGrad" modified="Yes">True</Option>
    <Option name="GradBaggingFraction" modified="Yes">5.000000e-01</Option>
    <Option name="UseNTrainEvents" modified="No">0</Option>
    <Option name="NNodesMax" modified="Yes">5</Option>
  </Options>
  <Variables NVar="4">
    <Variable VarIndex="0" Expression="pt" Label="pt" Title="pt" Unit="" Internal="pt" Type="f" Min="0.00000000e+00" Max="1.13632056e+03"/>
    <Variable VarIndex="1" Expression="chargedPt" Label="chargedPt" Title="chargedPt" Unit="" Internal="chargedPt" Type="f" Min="0.00000000e+00" Max="7.41947205e+02"/>
    <Variable VarIndex="2" Expression="constituents" Label="constituents" Title="constituents" Unit="" Internal="constituents" Type="i" Min="0.00000000e+00" Max="9.90000000e+01"/>
    <Variable VarIndex="3" Expression="chargedConstituents" Label="chargedConstituents" Title="chargedConstituents" Unit="" Internal="chargedConstituents" Type="i" Min="0.00000000e+00" Max="5.10000000e+01"/>
  </Variables>
  <Spectators NSpec="0"/>
  <Classes NClass="2">
    <Class Name="Signal" Index="0"/>
    <Class Name="Background" Index="1"/>
  </Classes>
  <Transformations NTransformations="0"/>
  <MVAPdfs/>
  <Weights NTrees="1000" AnalysisType="1">
    <BinaryTree type="DecisionTree" boostWeight="1.0000000000000000e+00" itree="0">
      <Node pos="s" depth="0" NCoef="0" IVar="3" Cut="6.5714287757873535e+00" cType="1" res="-3.3366729039698839e-03" rms="4.9998885393142700e-01" purity="4.9666336178779602e-01" nType="0">
        <Node pos="l" depth="1" NCoef="0" IVar="0" Cut="2.7197832107543945e+01" cType="1" res="1.0710903257131577e-01" rms="4.8839291930198669e-01" purity="6.0710901021957397e-01" nType="0">
          <Node pos="l" depth="2" NCoef="0" IVar="-1" Cut="0.0000000000000000e+00" cType="1" res="-1.2472597882151604e-03" rms="4.2408600449562073e-01" purity="2.3513954877853394e-01" nType="-99"/>
          <Node pos="r" depth="2" NCoef="0" IVar="-1" Cut="0.0000000000000000e+00" cType="1" res="4.1333228000439703e-04" rms="4.0452155470848083e-01" purity="7.9387462139129639e-01" nType="-99"/>
        </Node>
        <Node pos="r" depth="1" NCoef="0" IVar="2" Cut="1.9857143402099609e+01" cType="1" res="-2.8153711557388306e-01" rms="4.1320315003395081e-01" purity="2.1846288442611694e-01" nType="0">
          <Node pos="l" depth="2" NCoef="0" IVar="-1" Cut="0.0000000000000000e+00" cType="1" res="-6.6797790350392461e-04" rms="4.6339461207389832e-01" purity="3.1220906972885132e-01" nType="-99"/>
          <Node pos="r" depth="2" NCoef="0" IVar="-1" Cut="0.0000000000000000e+00" cType="1" res="-8.4632374346256256e-03" rms="2.2988122701644897e-01" purity="5.5979024618864059e-02" nType="-99"/>
        </Node>
      </Node>
    </BinaryTree>
    <BinaryTree type="DecisionTree" boostWeight="1.0000000000000000e+00" itree="1">
      <Node pos="s" depth="0" NCoef="0" IVar="2" Cut="1.4142857551574707e+01" cType="1" res="-6.7682377994060516e-03" rms="4.9941337108612061e-01" purity="4.9266251921653748e-01" nType="0">
        <Node pos="l" depth="1" NCoef="0" IVar="0" Cut="2.9686845779418945e+01" cType="1" res="9.3653067946434021e-02" rms="4.9097615480422974e-01" purity="5.9352433681488037e-01" nType="0">
          <Node pos="l" depth="2" NCoef="0" IVar="-1" Cut="0.0000000000000000e+00" cType="1" res="-6.8543490488082170e-04" rms="4.6194013953208923e-01" purity="3.0885335803031921e-01" nType="-99"/>
          <Node pos="r" depth="2" NCoef="0" IVar="-1" Cut="0.0000000000000000e+00" cType="1" res="4.1176922968588769e-04" rms="4.0560686588287354e-01" purity="7.9232501983642578e-01" nType="-99"/>
        </Node>
        <Node pos="r" depth="1" NCoef="0" IVar="2" Cut="1.9000000000000000e+01" cType="1" res="-3.0542027950286865e-01" rms="3.9380279183387756e-01" purity="1.9270043075084686e-01" nType="0">
          <Node pos="l" depth="2" NCoef="0" IVar="-1" Cut="0.0000000000000000e+00" cType="1" res="-5.1773939048871398e-04" rms="4.7396755218505859e-01" purity="3.4095972776412964e-01" nType="-99"/>
          <Node pos="r" depth="2" NCoef="0" IVar="-1" Cut="0.0000000000000000e+00" cType="1" res="-1.0341123677790165e-02" rms="2.0965211093425751e-01" purity="4.6004299074411392e-02" nType="-99"/>
        </Node>
      </Node>
    </BinaryTree>
    <BinaryTree type="DecisionTree" boostWeight="1.0000000000000000e+00" itree="2">
      <Node pos="s" depth="0" NCoef="0" IVar="3" Cut="4.3809523582458496e+00" cType="1" res="6.9455187767744064e-03" rms="4.9886915087699890e-01" purity="5.0558787584304810e-01" nType="0">
        <Node pos="l" depth="1" NCoef="0" IVar="0" Cut="1.8159820556640625e+01" cType="1" res="1.7539113759994507e-01" rms="4.6801877021789551e-01" purity="6.7517769336700439e-01" nType="0">
          <Node pos="l" depth="2" NCoef="0" IVar="-1" Cut="0.0000000000000000e+00" cType="1" res="-1.1909984983503819e-02" rms="1.9676804542541504e-01" purity="4.0345601737499237e-02" nType="-99"/>
          <Node pos="r" depth="2" NCoef="0" IVar="-1" Cut="0.0000000000000000e+00" cType="1" res="4.3935771100223064e-04" rms="3.8053053617477417e-01" purity="8.2425218820571899e-01" nType="-99"/>
        </Node>
        <Node pos="r" depth="1" NCoef="0" IVar="2" Cut="1.3761904716491699e+01" cType="1" res="-1.5724602341651917e-01" rms="4.7257781028747559e-01" purity="3.4028112888336182e-01" nType="0">
          <Node pos="l" depth="2" NCoef="0" IVar="-1" Cut="0.0000000000000000e+00" cType="1" res="2.4561836653447244e-06" rms="4.9969568848609924e-01" purity="5.0089043378829956e-01" nType="-99"/>
          <Node pos="r" depth="2" NCoef="0" IVar="-1" Cut="0.0000000000000000e+00" cType="1" res="-1.7920181853696704e-03" rms="3.9058083295822144e-01" purity="1.8887516856193542e-01" nType="-99"/>
        </Node>
      </Node>
    </BinaryTree>
    <BinaryTree type="DecisionTree" boostWeight="1.0000000000000000e+00" itree="3">
      <Node pos="s" depth="0" NCoef="0" IVar="3" Cut="5.1428570747375488e+00" cType="1" res="2.0003864541649818e-02" rms="4.9778005480766296e-01" purity="5.1807492971420288e-01" nType="0">
        <Node pos="l" depth="1" NCoef="0" IVar="0" Cut="2.8368995666503906e+01" cType="1" res="1.5823641419410706e-01" rms="4.7298878431320190e-01" purity="6.5736734867095947e-01" nType="0">
          <Node pos="l" depth="2" NCoef="0" IVar="-1" Cut="0.0000000000000000e+00" cType="1" res="-5.1974505186080933e-04" rms="4.7147291898727417e-01" purity="3.3846026659011841e-01" nType="-99"/>
          <Node pos="r" depth="2" NCoef="0" IVar="-1" Cut="0.0000000000000000e+00" cType="1" res="4.4902428635396063e-04" rms="3.6918625235557556e-01" purity="8.3700424432754517e-01" nType="-99"/>
        </Node>
        <Node pos="r" depth="1" NCoef="0" IVar="2" Cut="2.1619047164916992e+01" cType="1" res="-2.0966759324073792e-01" rms="4.5085942745208740e-01" purity="2.8664249181747437e-01" nType="0">
          <Node pos="l" depth="2" NCoef="0" IVar="-1" Cut="0.0000000000000000e+00" cType="1" res="-4.6145549276843667e-04" rms="4.7707656025886536e-01" purity="3.5187366604804993e-01" nType="-99"/>
          <Node pos="r" depth="2" NCoef="0" IVar="-1" Cut="0.0000000000000000e+00" cType="1" res="-1.8893282860517502e-02" rms="1.5547394752502441e-01" purity="2.4781502783298492e-02" nType="-99"/>
        </Node>
      </Node>
    </BinaryTree>
    <BinaryTree type="DecisionTree" boostWeight="1.0000000000000000e+00" itree="4">
      <Node pos="s" depth="0" NCoef="0" IVar="3" Cut="4.8571429252624512e+00" cType="1" res="-1.0074834339320660e-02" rms="4.9710267782211304e-01" purity="4.8707723617553711e-01" nType="0">
        <Node pos="l" depth="1" NCoef="0" IVar="0" Cut="2.9686845779418945e+01" cType="1" res="1.8150627613067627e-01" rms="4.6423876285552979e-01" purity="6.8047112226486206e-01" nType="0">
          <Node pos="l" depth="2" NCoef="0" IVar="-1" Cut="0.0000000000000000e+00" cType="1" res="-3.5811579436995089e-04" rms="4.8197281360626221e-01" purity="3.7515527009963989e-01" nType="-99"/>
          <Node pos="r" depth="2" NCoef="0" IVar="-1" Cut="0.0000000000000000e+00" cType="1" res="4.6924824710004032e-04" rms="3.4316229820251465e-01" purity="8.6360400915145874e-01" nType="-99"/>
        </Node>
        <Node pos="r" depth="1" NCoef="0" IVar="2" Cut="1.8428571701049805e+01" cType="1" res="-2.1657061576843262e-01" rms="4.4605255126953125e-01" purity="2.7862757444381714e-01" nType="0">
          <Node pos="l" depth="2" NCoef="0" IVar="-1" Cut="0.0000000000000000e+00" cType="1" res="-4.3589173583313823e-04" rms="4.7917178273200989e-01" purity="3.5863831639289856e-01" nType="-99"/>
          <Node pos="r" depth="2" NCoef="0" IVar="-1" Cut="0.0000000000000000e+00" cType="1" res="-7.4424068443477154e-03" rms="2.3917223513126373e-01" purity="6.0975033789873123e-02" nType="-99"/>
        </Node>
      </Node>
    </BinaryTree>
    <BinaryTree type="DecisionTree" boostWeight="1.0000000000000000e+00" itree="5">
      <Node pos="s" depth="0" NCoef="0" IVar="3" Cut="5.4285712242126465e+00" cType="1" res="1.0577267035841942e-02" rms="4.9679267406463623e-01" purity="5.0732457637786865e-01" nType="0">
        <Node pos="l" depth="1" NCoef="0" IVar="0" Cut="2.9686845779418945e+01" cType="1" res="1.4990341663360596e-01" rms="4.7552201151847839e-01" purity="6.4898842573165894e-01" nType="0">
          <Node pos="l" depth="2" NCoef="0" IVar="-1" Cut="0.0000000000000000e+00" cType="1" res="-4.5120084541849792e-04" rms="4.7627469897270203e-01" purity="3.5310876369476318e-01" nType="-99"/>
          <Node pos="r" depth="2" NCoef="0" IVar="-1" Cut="0.0000000000000000e+00" cType="1" res="4.4621370034292340e-04" rms="3.7191286683082581e-01" purity="8.3396571874618530e-01" nType="-99"/>
        </Node>
        <Node pos="r" depth="1" NCoef="0" IVar="1" Cut="2.6919509887695312e+01" cType="1" res="-2.2142657637596130e-01" rms="4.4169217348098755e-01" purity="2.7142807841300964e-01" nType="0">
          <Node pos="l" depth="2" NCoef="0" IVar="-1" Cut="0.0000000000000000e+00" cType="1" res="-4.7760852612555027e-03" rms="2.8776019811630249e-01" purity="9.1849356889724731e-02" nType="-99"/>
          <Node pos="r" depth="2" NCoef="0" IVar="-1" Cut="0.0000000000000000e+00" cType="1" res="-3.1490717083215714e-04" rms="4.8110559582710266e-01" purity="3.8293579220771790e-01" nType="-99"/>
        </Node>
      </Node>
    </BinaryTree>
    <BinaryTree type="DecisionTree" boostWeight="1.0000000000000000e+00" itree="6">
      <Node pos="s" depth="0" NCoef="0" IVar="2" Cut="1.3857142448425293e+01" cType="1" res="1.0881423950195312e-02" rms="4.9643871188163757e-01" purity="5.0720441341400146e-01" nType="0">
        <Node pos="l" depth="1" NCoef="0" IVar="0" Cut="2.5077165603637695e+01" cType="1" res="1.2301559001207352e-01" rms="4.8315507173538208e-01" purity="6.2192219495773315e-01" nType="0">
          <Node pos="l" depth="2" NCoef="0" IVar="-1" Cut="0.0000000000000000e+00" cType="1" res="-2.0140525884926319e-03" rms="3.7924462556838989e-01" purity="1.7529574036598206e-01" nType="-99"/>
          <Node pos="r" depth="2" NCoef="0" IVar="-1" Cut="0.0000000000000000e+00" cType="1" res="4.3210611329413950e-04" rms="3.8702559471130371e-01" purity="8.1629544496536255e-01" nType="-99"/>
        </Node>
        <Node pos="r" depth="1" NCoef="0" IVar="3" Cut="6.5714287757873535e+00" cType="1" res="-2.6644575595855713e-01" rms="4.1306835412979126e-01" purity="2.2348766028881073e-01" nType="0">
          <Node pos="l" depth="2" NCoef="0" IVar="-1" Cut="0.0000000000000000e+00" cType="1" res="-5.1601677114376798e-05" rms="4.9767181277275085e-01" purity="4.7569558024406433e-01" nType="-99"/>
          <Node pos="r" depth="2" NCoef="0" IVar="-1" Cut="0.0000000000000000e+00" cType="1" res="-3.6024462897330523e-03" rms="3.1541079282760620e-01" purity="1.1332985013723373e-01" nType="-99"/>
        </Node>
      </Node>
    </BinaryTree>
    <BinaryTree type="DecisionTree" boostWeight="1.0000000000000000e+00" itree="7">
      <Node pos="s" depth="0" NCoef="0" IVar="3" Cut="5.8571429252624512e+00" cType="1" res="7.7507174573838711e-03" rms="4.9600234627723694e-01" purity="5.0360107421875000e-01" nType="0">
        <Node pos="l" depth="1" NCoef="0" IVar="0" Cut="2.5077165603637695e+01" cType="1" res="1.5607300400733948e-01" rms="4.7324267029762268e-01" purity="6.5501493215560913e-01" nType="0">
          <Node pos="l" depth="2" NCoef="0" IVar="-1" Cut="0.0000000000000000e+00" cType="1" res="-9.2667026910930872e-04" rms="4.4245627522468567e-01" purity="2.6931965351104736e-01" nType="-99"/>
          <Node pos="r" depth="2" NCoef="0" IVar="-1" Cut="0.0000000000000000e+00" cType="1" res="4.4006601092405617e-04" rms="3.7817615270614624e-01" purity="8.2679617404937744e-01" nType="-99"/>
        </Node>
        <Node pos="r" depth="1" NCoef="0" IVar="2" Cut="1.6285715103149414e+01" cType="1" res="-2.5729143619537354e-01" rms="4.1937881708145142e-01" purity="2.3303447663784027e-01" nType="0">
          <Node pos="l" depth="2" NCoef="0" IVar="-1" Cut="0.0000000000000000e+00" cType="1" res="-4.5584054896607995e-04" rms="4.7666665911674500e-01" purity="3.5246023535728455e-01" nType="-99"/>
          <Node pos="r" depth="2" NCoef="0" IVar="-1" Cut="0.0000000000000000e+00" cType="1" res="-5.1789521239697933e-03" rms="2.7521076798439026e-01" purity="8.3495467901229858e-02" nType="-99"/>
        </Node>
      </Node>
    </BinaryTree>
    <BinaryTree type="DecisionTree" boostWeight="1.0000000000000000e+00" itree="8">
      <Node pos="s" depth="0" NCoef="0" IVar="2" Cut="1.4142857551574707e+01" cType="1" res="2.6916529983282089e-02" rms="4.9493676424026489e-01" purity="5.2258902788162231e-01" nType="0">
        <Node pos="l" depth="1" NCoef="0" IVar="0" Cut="3.7305938720703125e+01" cType="1" res="1.3006633520126343e-01" rms="4.8091304302215576e-01" purity="6.2881875038146973e-01" nType="0">
          <Node pos="l" depth="2" NCoef="0" IVar="-1" Cut="0.0000000000000000e+00" cType="1" res="-2.1013109289924614e-05" rms="4.9733674526214600e-01" purity="4.8785835504531860e-01" nType="-99"/>
          <Node pos="r" depth="2" NCoef="0" IVar="-1" Cut="0.0000000000000000e+00" cType="1" res="4.2510704952292144e-04" rms="3.9288610219955444e-01" purity="8.0883222818374634e-01" nType="-99"/>
        </Node>
        <Node pos="r" depth="1" NCoef="0" IVar="2" Cut="1.8714284896850586e+01" cType="1" res="-3.1204149127006531e-01" rms="3.7426799535751343e-01" purity="1.7350995540618896e-01" nType="0">
          <Node pos="l" depth="2" NCoef="0" IVar="-1" Cut="0.0000000000000000e+00" cType="1" res="-6.0260400641709566e-04" rms="4.6578225493431091e-01" purity="3.2131806015968323e-01" nType="-99"/>
          <Node pos="r" depth="2" NCoef="0" IVar="-1" Cut="0.0000000000000000e+00" cType="1" res="-1.4784896746277809e-02" rms="1.7323878407478333e-01" purity="3.0983611941337585e-02" nType="-99"/>
        </Node>
      </Node>
    </BinaryTree>
    <BinaryTree type="DecisionTree" boostWeight="1.0000000000000000e+00" itree="9">
      <Node pos="s" depth="0" NCoef="0" IVar="3" Cut="5.7142858505249023e+00" cType="1" res="5.5050541413947940e-04" rms="4.9470865726470947e-01" purity="4.9497872591018677e-01" nType="0">
        <Node pos="l" depth="1" NCoef="0" IVar="0" Cut="3.2696857452392578e+01" cType="1" res="1.3643860816955566e-01" rms="4.7862720489501953e-01" purity="6.3556903600692749e-01" nType="0">
          <Node pos="l" depth="2" NCoef="0" IVar="-1" Cut="0.0000000000000000e+00" cType="1" res="-2.7353281620889902e-04" rms="4.8676967620849609e-01" purity="3.9827388525009155e-01" nType="-99"/>
          <Node pos="r" depth="2" NCoef="0" IVar="-1" Cut="0.0000000000000000e+00" cType="1" res="4.4189870823174715e-04" rms="3.7523803114891052e-01" purity="8.2995724678039551e-01" nType="-99"/>
        </Node>
        <Node pos="r" depth="1" NCoef="0" IVar="3" Cut="9.2380952835083008e+00" cType="1" res="-2.1829454600811005e-01" rms="4.3853545188903809e-01" purity="2.6856079697608948e-01" nType="0">
          <Node pos="l" depth="2" NCoef="0" IVar="-1" Cut="0.0000000000000000e+00" cType="1" res="-4.5374539331533015e-04" rms="4.7433662414550781e-01" purity="3.4964251518249512e-01" nType="-99"/>
          <Node pos="r" depth="2" NCoef="0" IVar="-1" Cut="0.0000000000000000e+00" cType="1" res="-8.0810384824872017e-03" rms="2.2733721137046814e-01" purity="5.5202815681695938e-02" nType="-99"/>
        </Node>
      </Node>
    </BinaryTree>
    <BinaryTree type="DecisionTree" boostWeight="1.0000000000000000e+00" itree="10">
      <Node pos="s" depth="0" NCoef="0" IVar="3" Cut="4.3809523582458496e+00" cType="1" res="-2.2041425108909607e-03" rms="4.9417072534561157e-01" purity="4.9179470539093018e-01" nType="0">
        <Node pos="l" depth="1" NCoef="0" IVar="0" Cut="3.7305904388427734e+01" cType="1" res="1.7099682986736298e-01" rms="4.6726280450820923e-01" purity="6.7004406452178955e-01" nType="0">
          <Node pos="l" depth="2" NCoef="0" IVar="-1" Cut="0.0000000000000000e+00" cType="1" res="5.6977205531438813e-06" rms="4.9668532609939575e-01" purity="4.9900329113006592e-01" nType="-99"/>
          <Node pos="r" depth="2" NCoef="0" IVar="-1" Cut="0.0000000000000000e+00" cType="1" res="4.6498735900968313e-04" rms="3.4694966673851013e-01" purity="8.5993427038192749e-01" nType="-99"/>
        </Node>
        <Node pos="r" depth="1" NCoef="0" IVar="2" Cut="1.8142856597900391e+01" cType="1" res="-1.7406184971332550e-01" rms="4.5888262987136841e-01" purity="3.1492775678634644e-01" nType="0">
          <Node pos="l" depth="2" NCoef="0" IVar="-1" Cut="0.0000000000000000e+00" cType="1" res="-2.6612167130224407e-04" rms="4.8843321204185486e-01" purity="4.0097936987876892e-01" nType="-99"/>
          <Node pos="r" depth="2" NCoef="0" IVar="-1" Cut="0.0000000000000000e+00" cType="1" res="-7.0846788585186005e-03" rms="2.3882687091827393e-01" purity="6.1376035213470459e-02" nType="-99"/>
        </Node>
      </Node>
    </BinaryTree>
    <BinaryTree type="DecisionTree" boostWeight="1.0000000000000000e+00" itree="11">
      <Node pos="s" depth="0" NCoef="0" IVar="3" Cut="5.7142858505249023e+00" cType="1" res="1.3759794645011425e-02" rms="4.9390912055969238e-01" purity="5.0742900371551514e-01" nType="0">
        <Node pos="l" depth="1" NCoef="0" IVar="0" Cut="2.9686845779418945e+01" cType="1" res="1.4496360719203949e-01" rms="4.7606828808784485e-01" purity="6.4414036273956299e-01" nType="0">
          <Node pos="l" depth="2" NCoef="0" IVar="-1" Cut="0.0000000000000000e+00" cType="1" res="-7.3468952905386686e-04" rms="4.5529073476791382e-01" purity="2.9768496751785278e-01" nType="-99"/>
          <Node pos="r" depth="2" NCoef="0" IVar="-1" Cut="0.0000000000000000e+00" cType="1" res="4.4943252578377724e-04" rms="3.6658057570457458e-01" purity="8.3956229686737061e-01" nType="-99"/>
        </Node>
        <Node pos="r" depth="1" NCoef="0" IVar="2" Cut="1.6428571701049805e+01" cType="1" res="-1.9993536174297333e-01" rms="4.4545304775238037e-01" purity="2.8476348519325256e-01" nType="0">
          <Node pos="l" depth="2" NCoef="0" IVar="-1" Cut="0.0000000000000000e+00" cType="1" res="-2.3696267453487962e-04" rms="4.9058285355567932e-01" purity="4.0909859538078308e-01" nType="-99"/>
          <Node pos="r" depth="2" NCoef="0" IVar="-1" Cut="0.0000000000000000e+00" cType="1" res="-3.2925766427069902e-03" rms="3.1821861863136292e-01" purity="1.1726166307926178e-01" nType="-99"/>
        </Node>
      </Node>
    </BinaryTree>
    <BinaryTree type="DecisionTree" boostWeight="1.0000000000000000e+00" itree="12">
      <Node pos="s" depth="0" NCoef="0" IVar="3" Cut="4.8571429252624512e+00" cType="1" res="5.8138584718108177e-03" rms="4.9331077933311462e-01" purity="4.9940052628517151e-01" nType="0">
        <Node pos="l" depth="1" NCoef="0" IVar="0" Cut="2.9181186676025391e+01" cType="1" res="1.8650256097316742e-01" rms="4.6103361248970032e-01" purity="6.8583989143371582e-01" nType="0">
          <Node pos="l" depth="2" NCoef="0" IVar="-1" Cut="0.0000000000000000e+00" cType="1" res="-6.3328759279102087e-04" rms="4.6168428659439087e-01" purity="3.1444436311721802e-01" nType="-99"/>
          <Node pos="r" depth="2" NCoef="0" IVar="-1" Cut="0.0000000000000000e+00" cType="1" res="4.7365773934870958e-04" rms="3.3415788412094116e-01" purity="8.7186318635940552e-01" nType="-99"/>
        </Node>
        <Node pos="r" depth="1" NCoef="0" IVar="2" Cut="1.8428571701049805e+01" cType="1" res="-1.8566071987152100e-01" rms="4.5247983932495117e-01" purity="3.0183205008506775e-01" nType="0">
          <Node pos="l" depth="2" NCoef="0" IVar="-1" Cut="0.0000000000000000e+00" cType="1" res="-2.9978630482219160e-04" rms="4.8620551824569702e-01" purity="3.9106690883636475e-01" nType="-99"/>
          <Node pos="r" depth="2" NCoef="0" IVar="-1" Cut="0.0000000000000000e+00" cType="1" res="-1.3868616893887520e-02" rms="1.7477291822433472e-01" purity="3.1964335590600967e-02" nType="-99"/>
        </Node>
      </Node>
    </BinaryTree>
    <BinaryTree type="DecisionTree" boostWeight="1.0000000000000000e+00" itree="13">
      <Node pos="s" depth="0" NCoef="0" IVar="3" Cut="5.7142858505249023e+00" cType="1" res="-6.5099750645458698e-03" rms="4.9285522103309631e-01" purity="4.8549327254295349e-01" nType="0">
        <Node pos="l" depth="1" NCoef="0" IVar="0" Cut="3.2696445465087891e+01" cType="1" res="1.3411991298198700e-01" rms="4.7900116443634033e-01" purity="6.3313126564025879e-01" nType="0">
          <Node pos="l" depth="2" NCoef="0" IVar="-1" Cut="0.0000000000000000e+00" cType="1" res="-2.0453368779271841e-04" rms="4.9049887061119080e-01" purity="4.1860213875770569e-01" nType="-99"/>
          <Node pos="r" depth="2" NCoef="0" IVar="-1" Cut="0.0000000000000000e+00" cType="1" res="4.3361354619264603e-04" rms="3.8298714160919189e-01" purity="8.2074803113937378e-01" nType="-99"/>
        </Node>
        <Node pos="r" depth="1" NCoef="0" IVar="3" Cut="9.2380952835083008e+00" cType="1" res="-2.4503818154335022e-01" rms="4.1869255900382996e-01" purity="2.3507827520370483e-01" nType="0">
          <Node pos="l" depth="2" NCoef="0" IVar="-1" Cut="0.0000000000000000e+00" cType="1" res="-6.5429229289293289e-04" rms="4.5970410108566284e-01" purity="3.0753797292709351e-01" nType="-99"/>
          <Node pos="r" depth="2" NCoef="0" IVar="-1" Cut="0.0000000000000000e+00" cType="1" res="-7.7563831582665443e-03" rms="2.2559539973735809e-01" purity="5.5705316364765167e-02" nType="-99"/>
        </Node>
      </Node>
    </BinaryTree>
    <BinaryTree type="DecisionTree" boostWeight="1.0000000000000000e+00" itree="14">
      <Node pos="s" depth="0" NCoef="0" IVar="3" Cut="4.3809523582458496e+00" cType="1" res="-5.9700789861381054e-03" rms="4.9264279007911682e-01" purity="4.8529928922653198e-01" nType="0">
        <Node pos="l" depth="1" NCoef="0" IVar="0" Cut="2.5077165603637695e+01" cType="1" res="1.7279842495918274e-01" rms="4.6661525964736938e-01" purity="6.7166966199874878e-01" nType="0">
          <Node pos="l" depth="2" NCoef="0" IVar="-1" Cut="0.0000000000000000e+00" cType="1" res="-6.8106898106634617e-04" rms="4.5840066671371460e-01" purity="3.0526062846183777e-01" nType="-99"/>
          <Node pos="r" depth="2" NCoef="0" IVar="-1" Cut="0.0000000000000000e+00" cType="1" res="4.5269483234733343e-04" rms="3.6290568113327026e-01" purity="8.4394955635070801e-01" nType="-99"/>
        </Node>
        <Node pos="r" depth="1" NCoef="0" IVar="3" Cut="8.9047622680664062e+00" cType="1" res="-1.8999417126178741e-01" rms="4.4903841614723206e-01" purity="2.9344981908798218e-01" nType="0">
          <Node pos="l" depth="2" NCoef="0" IVar="-1" Cut="0.0000000000000000e+00" cType="1" res="-3.2019786885939538e-04" rms="4.8367092013359070e-01" purity="3.8289093971252441e-01" nType="-99"/>
          <Node pos="r" depth="2" NCoef="0" IVar="-1" Cut="0.0000000000000000e+00" cType="1" res="-5.0815194845199585e-03" rms="2.7216261625289917e-01" purity="8.1322535872459412e-02" nType="-99"/>
        </Node>
      </Node>
    </BinaryTree>
    <BinaryTree type="DecisionTree" boostWeight="1.0000000000000000e+00" itree="15">
      <Node pos="s" depth="0" NCoef="0" IVar="3" Cut="4.8571429252624512e+00" cType="1" res="2.5918476283550262e-02" rms="4.9199256300926208e-01" purity="5.1740753650665283e-01" nType="0">
        <Node pos="l" depth="1" NCoef="0" IVar="0" Cut="2.5077165603637695e+01" cType="1" res="1.9033774733543396e-01" rms="4.5951712131500244e-01" purity="6.8944585323333740e-01" nType="0">
          <Node pos="l" depth="2" NCoef="0" IVar="-1" Cut="0.0000000000000000e+00" cType="1" res="-8.5957214469090104e-04" rms="4.4599592685699463e-01" purity="2.7703386545181274e-01" nType="-99"/>
          <Node pos="r" depth="2" NCoef="0" IVar="-1" Cut="0.0000000000000000e+00" cType="1" res="4.6484675840474665e-04" rms="3.4672635793685913e-01" purity="8.6018300056457520e-01" nType="-99"/>
        </Node>
        <Node pos="r" depth="1" NCoef="0" IVar="2" Cut="1.8428571701049805e+01" cType="1" res="-1.4169609546661377e-01" rms="4.6680209040641785e-01" purity="3.4202590584754944e-01" nType="0">
          <Node pos="l" depth="2" NCoef="0" IVar="-1" Cut="0.0000000000000000e+00" cType="1" res="-1.7639693396631628e-04" rms="4.9273577332496643e-01" purity="4.2772200703620911e-01" nType="-99"/>
          <Node pos="r" depth="2" NCoef="0" IVar="-1" Cut="0.0000000000000000e+00" cType="1" res="-4.4293887913227081e-03" rms="2.8413227200508118e-01" purity="8.9107386767864227e-02" nType="-99"/>
        </Node>
      </Node>
    </BinaryTree>
    <BinaryTree type="DecisionTree" boostWeight="1.0000000000000000e+00" itree="16">
      <Node pos="s" depth="0" NCoef="0" IVar="3" Cut="7.2857141494750977e+00" cType="1" res="-1.4441651292145252e-02" rms="4.9126791954040527e-01" purity="4.7636288404464722e-01" nType="0">
        <Node pos="l" depth="1" NCoef="0" IVar="0" Cut="3.4816890716552734e+01" cType="1" res="7.9170420765876770e-02" rms="4.9076232314109802e-01" purity="5.7640516757965088e-01" nType="0">
          <Node pos="l" depth="2" NCoef="0" IVar="-1" Cut="0.0000000000000000e+00" cType="1" res="-2.1066011686343700e-04" rms="4.8957291245460510e-01" purity="4.1664984822273254e-01" nType="-99"/>
          <Node pos="r" depth="2" NCoef="0" IVar="-1" Cut="0.0000000000000000e+00" cType="1" res="3.6672828719019890e-04" rms="4.3453526496887207e-01" purity="7.4309521913528442e-01" nType="-99"/>
        </Node>
        <Node pos="r" depth="1" NCoef="0" IVar="1" Cut="3.3229400634765625e+01" cType="1" res="-4.1113868355751038e-01" rms="2.2123317420482635e-01" purity="5.2416626363992691e-02" nType="0">
          <Node pos="l" depth="2" NCoef="0" IVar="-1" Cut="0.0000000000000000e+00" cType="1" res="-1.8874026834964752e-01" rms="2.2282429039478302e-02" purity="0.0000000000000000e+00" nType="-99"/>
          <Node pos="r" depth="2" NCoef="0" IVar="-1" Cut="0.0000000000000000e+00" cType="1" res="-4.4989050365984440e-03" rms="2.8100275993347168e-01" purity="8.9517787098884583e-02" nType="-99"/>
        </Node>
      </Node>
    </BinaryTree>
    <BinaryTree type="DecisionTree" boostWeight="1.0000000000000000e+00" itree="17">
      <Node pos="s" depth="0" NCoef="0" IVar="3" Cut="4.8571429252624512e+00" cType="1" res="7.0415635127574205e-04" rms="4.8686578869819641e-01" purity="4.8262032866477966e-01" nType="0">
        <Node pos="l" depth="1" NCoef="0" IVar="0" Cut="1.6947439193725586e+01" cType="1" res="1.5869490802288055e-01" rms="4.7067216038703918e-01" purity="6.5798676013946533e-01" nType="0">
          <Node pos="l" depth="2" NCoef="0" IVar="-1" Cut="0.0000000000000000e+00" cType="1" res="-5.4496279917657375e-03" rms="2.7303418517112732e-01" purity="8.1126943230628967e-02" nType="-99"/>
          <Node pos="r" depth="2" NCoef="0" IVar="-1" Cut="0.0000000000000000e+00" cType="1" res="4.1738440631888807e-04" rms="3.9801600575447083e-01" purity="8.0133086442947388e-01" nType="-99"/>
        </Node>
        <Node pos="r" depth="1" NCoef="0" IVar="2" Cut="1.8428571701049805e+01" cType="1" res="-1.5231375396251678e-01" rms="4.5217955112457275e-01" purity="3.1277361512184143e-01" nType="0">
          <Node pos="l" depth="2" NCoef="0" IVar="-1" Cut="0.0000000000000000e+00" cType="1" res="-2.4985527852550149e-04" rms="4.8355886340141296e-01" purity="3.9271220564842224e-01" nType="-99"/>
          <Node pos="r" depth="2" NCoef="0" IVar="-1" Cut="0.0000000000000000e+00" cType="1" res="-4.1053313761949539e-03" rms="2.7954101562500000e-01" purity="8.9096263051033020e-02" nType="-99"/>
        </Node>
      </Node>
    </BinaryTree>
    <BinaryTree type="DecisionTree" boostWeight="1.0000000000000000e+00" itree="18">
      <Node pos="s" depth="0" NCoef="0" IVar="3" Cut="4.8571429252624512e+00" cType="1" res="-2.1650588139891624e-02" rms="4.8427531123161316e-01" purity="4.5992878079414368e-01" nType="0">
        <Node pos="l" depth="1" NCoef="0" IVar="0" Cut="1.8159820556640625e+01" cType="1" res="1.5738417208194733e-01" rms="4.7037142515182495e-01" purity="6.5640896558761597e-01" nType="0">
          <Node pos="l" depth="2" NCoef="0" IVar="-1" Cut="0.0000000000000000e+00" cType="1" res="-7.6814717613160610e-03" rms="2.3642684519290924e-01" purity="5.9532769024372101e-02" nType="-99"/>
          <Node pos="r" depth="2" NCoef="0" IVar="-1" Cut="0.0000000000000000e+00" cType="1" res="4.2595245759002864e-04" rms="3.9001318812370300e-01" purity="8.1196498870849609e-01" nType="-99"/>
        </Node>
        <Node pos="r" depth="1" NCoef="0" IVar="2" Cut="1.3952381134033203e+01" cType="1" res="-2.0429515838623047e-01" rms="4.2662012577056885e-01" purity="2.5948697328567505e-01" nType="0">
          <Node pos="l" depth="2" NCoef="0" IVar="-1" Cut="0.0000000000000000e+00" cType="1" res="-1.6409016097895801e-04" rms="4.8966607451438904e-01" purity="4.2753979563713074e-01" nType="-99"/>
          <Node pos="r" depth="2" NCoef="0" IVar="-1" Cut="0.0000000000000000e+00" cType="1" res="-3.3140024170279503e-03" rms="3.1209689378738403e-01" purity="1.1052974313497543e-01" nType="-99"/>
        </Node>
      </Node>
    </BinaryTree>
    <BinaryTree type="DecisionTree" boostWeight="1.0000000000000000e+00" itree="19">
      <Node pos="s" depth="0" NCoef="0" IVar="3" Cut="4.8571429252624512e+00" cType="1" res="4.3515790253877640e-02" rms="4.8414897918701172e-01" purity="5.2657258510589600e-01" nType="0">
        <Node pos="l" depth="1" NCoef="0" IVar="0" Cut="2.5077165603637695e+01" cType="1" res="2.0922650396823883e-01" rms="4.4936329126358032e-01" purity="7.0814090967178345e-01" nType="0">
          <Node pos="l" depth="2" NCoef="0" IVar="-1" Cut="0.0000000000000000e+00" cType="1" res="-1.9783736206591129e-03" rms="3.7662887573242188e-01" purity="1.7401680350303650e-01" nType="-99"/>
          <Node pos="r" depth="2" NCoef="0" IVar="-1" Cut="0.0000000000000000e+00" cType="1" res="4.7585373977199197e-04" rms="3.2924151420593262e-01" purity="8.7623465061187744e-01" nType="-99"/>
        </Node>
        <Node pos="r" depth="1" NCoef="0" IVar="2" Cut="1.3952381134033203e+01" cType="1" res="-1.3693130016326904e-01" rms="4.5529955625534058e-01" purity="3.2885774970054626e-01" nType="0">
          <Node pos="l" depth="2" NCoef="0" IVar="-1" Cut="0.0000000000000000e+00" cType="1" res="-3.9779086364433169e-05" rms="4.9494516849517822e-01" purity="4.7356697916984558e-01" nType="-99"/>
          <Node pos="r" depth="2" NCoef="0" IVar="-1" Cut="0.0000000000000000e+00" cType="1" res="-1.3071984285488725e-03" rms="3.8947743177413940e-01" purity="2.0411419868469238e-01" nType="-99"/>
        </Node>
      </Node>
    </BinaryTree>
    <BinaryTree type="DecisionTree" boostWeight="1.0000000000000000e+00" itree="20">
      <Node pos="s" depth="0" NCoef="0" IVar="3" Cut="4.8571429252624512e+00" cType="1" res="3.1789403408765793e-02" rms="4.8438075184822083e-01" purity="5.1425838470458984e-01" nType="0">
        <Node pos="l" depth="1" NCoef="0" IVar="0" Cut="2.9181407928466797e+01" cType="1" res="1.9591192901134491e-01" rms="4.5474445819854736e-01" purity="6.9464552402496338e-01" nType="0">
          <Node pos="l" depth="2" NCoef="0" IVar="-1" Cut="0.0000000000000000e+00" cType="1" res="-2.6846255059354007e-04" rms="4.8246684670448303e-01" purity="3.9483058452606201e-01" nType="-99"/>
          <Node pos="r" depth="2" NCoef="0" IVar="-1" Cut="0.0000000000000000e+00" cType="1" res="4.7090611769817770e-04" rms="3.3509805798530579e-01" purity="8.7102186679840088e-01" nType="-99"/>
        </Node>
        <Node pos="r" depth="1" NCoef="0" IVar="2" Cut="1.3952381134033203e+01" cType="1" res="-1.4005513489246368e-01" rms="4.5390781760215759e-01" purity="3.2538393139839172e-01" nType="0">
          <Node pos="l" depth="2" NCoef="0" IVar="-1" Cut="0.0000000000000000e+00" cType="1" res="8.6803822796355234e-07" rms="4.9597060680389404e-01" purity="4.9054241180419922e-01" nType="-99"/>
          <Node pos="r" depth="2" NCoef="0" IVar="-1" Cut="0.0000000000000000e+00" cType="1" res="-1.7657995922490954e-03" rms="3.6437070369720459e-01" purity="1.7057360708713531e-01" nType="-99"/>
        </Node>
      </Node>
    </BinaryTree>
    <BinaryTree type="DecisionTree" boostWeight="1.0000000000000000e+00" itree="21">
      <Node pos="s" depth="0" NCoef="0" IVar="3" Cut="5.2857141494750977e+00" cType="1" res="1.3309831731021404e-02" rms="4.8468086123466492e-01" purity="4.9485492706298828e-01" nType="0">
        <Node pos="l" depth="1" NCoef="0" IVar="0" Cut="2.9686845779418945e+01" cType="1" res="1.3815747201442719e-01" rms="4.7599151730537415e-01" purity="6.3636547327041626e-01" nType="0">
          <Node pos="l" depth="2" NCoef="0" IVar="-1" Cut="0.0000000000000000e+00" cType="1" res="-4.3089999235235155e-04" rms="4.7344678640365601e-01" purity="3.5377752780914307e-01" nType="-99"/>
          <Node pos="r" depth="2" NCoef="0" IVar="-1" Cut="0.0000000000000000e+00" cType="1" res="4.3479111627675593e-04" rms="3.8025322556495667e-01" purity="8.2377266883850098e-01" nType="-99"/>
        </Node>
        <Node pos="r" depth="1" NCoef="0" IVar="1" Cut="2.7215486526489258e+01" cType="1" res="-1.8957141041755676e-01" rms="4.2660355567932129e-01" purity="2.6489603519439697e-01" nType="0">
          <Node pos="l" depth="2" NCoef="0" IVar="-1" Cut="0.0000000000000000e+00" cType="1" res="-2.7671719435602427e-03" rms="3.2290202379226685e-01" purity="1.2681347131729126e-01" nType="-99"/>
          <Node pos="r" depth="2" NCoef="0" IVar="-1" Cut="0.0000000000000000e+00" cType="1" res="-3.2002569059841335e-04" rms="4.6400085091590881e-01" purity="3.5760673880577087e-01" nType="-99"/>
        </Node>
      </Node>
    </BinaryTree>
    <BinaryTree type="DecisionTree" boostWeight="1.0000000000000000e+00" itree="22">
      <Node pos="s" depth="0" NCoef="0" IVar="3" Cut="6.5714287757873535e+00" cType="1" res="5.0891060382127762e-03" rms="4.8412612080574036e-01" purity="4.8616334795951843e-01" nType="0">
        <Node pos="l" depth="1" NCoef="0" IVar="0" Cut="2.9686845779418945e+01" cType="1" res="1.0867322981357574e-01" rms="4.8377370834350586e-01" purity="6.0579359531402588e-01" nType="0">
          <Node pos="l" depth="2" NCoef="0" IVar="-1" Cut="0.0000000000000000e+00" cType="1" res="-4.1459331987425685e-04" rms="4.7509741783142090e-01" purity="3.5758984088897705e-01" nType="-99"/>
          <Node pos="r" depth="2" NCoef="0" IVar="-1" Cut="0.0000000000000000e+00" cType="1" res="4.0100043406710029e-04" rms="4.1053664684295654e-01" purity="7.8256899118423462e-01" nType="-99"/>
        </Node>
        <Node pos="r" depth="1" NCoef="0" IVar="3" Cut="8.8571424484252930e+00" cType="1" res="-2.7604421973228455e-01" rms="3.5657665133476257e-01" purity="1.6147990524768829e-01" nType="0">
          <Node pos="l" depth="2" NCoef="0" IVar="-1" Cut="0.0000000000000000e+00" cType="1" res="-7.9701346112415195e-04" rms="4.3261861801147461e-01" purity="2.6912254095077515e-01" nType="-99"/>
          <Node pos="r" depth="2" NCoef="0" IVar="-1" Cut="0.0000000000000000e+00" cType="1" res="-5.6053800508379936e-03" rms="2.5297909975051880e-01" purity="6.8426020443439484e-02" nType="-99"/>
        </Node>
      </Node>
    </BinaryTree>
    <BinaryTree type="DecisionTree" boostWeight="1.0000000000000000e+00" itree="23">
      <Node pos="s" depth="0" NCoef="0" IVar="3" Cut="5.7142858505249023e+00" cType="1" res="3.5268317908048630e-02" rms="4.8308226466178894e-01" purity="5.1777452230453491e-01" nType="0">
        <Node pos="l" depth="1" NCoef="0" IVar="0" Cut="2.2592475891113281e+01" cType="1" res="1.6991803050041199e-01" rms="4.6536085009574890e-01" purity="6.6878193616867065e-01" nType="0">
          <Node pos="l" depth="2" NCoef="0" IVar="-1" Cut="0.0000000000000000e+00" cType="1" res="-5.7049528695642948e-03" rms="2.6571100950241089e-01" purity="7.7477753162384033e-02" nType="-99"/>
          <Node pos="r" depth="2" NCoef="0" IVar="-1" Cut="0.0000000000000000e+00" cType="1" res="4.4623666326515377e-04" rms="3.6860716342926025e-01" purity="8.3685618638992310e-01" nType="-99"/>
        </Node>
        <Node pos="r" depth="1" NCoef="0" IVar="3" Cut="9.2380952835083008e+00" cType="1" res="-2.1154150366783142e-01" rms="4.1234543919563293e-01" purity="2.4098141491413116e-01" nType="0">
          <Node pos="l" depth="2" NCoef="0" IVar="-1" Cut="0.0000000000000000e+00" cType="1" res="-4.6699398080818355e-04" rms="4.5947536826133728e-01" purity="3.2908397912979126e-01" nType="-99"/>
          <Node pos="r" depth="2" NCoef="0" IVar="-1" Cut="0.0000000000000000e+00" cType="1" res="-1.7135041952133179e-01" rms="4.0955141186714172e-02" purity="0.0000000000000000e+00" nType="-99"/>
        </Node>
      </Node>
    </BinaryTree>
    <BinaryTree type="DecisionTree" boostWeight="1.0000000000000000e+00" itree="24">
      <Node pos="s" depth="0" NCoef="0" IVar="3" Cut="4.8571429252624512e+00" cType="1" res="1.8688686192035675e-02" rms="4.7661834955215454e-01" purity="4.9100011587142944e-01" nType="0">
        <Node pos="l" depth="1" NCoef="0" IVar="0" Cut="2.2592475891113281e+01" cType="1" res="1.7121626436710358e-01" rms="4.6363675594329834e-01" purity="6.6911125183105469e-01" nType="0">
          <Node pos="l" depth="2" NCoef="0" IVar="-1" Cut="0.0000000000000000e+00" cType="1" res="-3.5476300399750471e-03" rms="3.1450381875038147e-01" purity="1.1335255205631256e-01" nType="-99"/>
          <Node pos="r" depth="2" NCoef="0" IVar="-1" Cut="0.0000000000000000e+00" cType="1" res="4.5256808516569436e-04" rms="3.6054569482803345e-01" purity="8.4619545936584473e-01" nType="-99"/>
        </Node>
        <Node pos="r" depth="1" NCoef="0" IVar="3" Cut="9.3809528350830078e+00" cType="1" res="-1.3258849084377289e-01" rms="4.3967291712760925e-01" purity="3.1434914469718933e-01" nType="0">
          <Node pos="l" depth="2" NCoef="0" IVar="-1" Cut="0.0000000000000000e+00" cType="1" res="-2.4322317040059716e-04" rms="4.7698491811752319e-01" purity="3.9088553190231323e-01" nType="-99"/>
          <Node pos="r" depth="2" NCoef="0" IVar="-1" Cut="0.0000000000000000e+00" cType="1" res="-1.7995856702327728e-02" rms="1.3910782337188721e-01" purity="1.8863739445805550e-02" nType="-99"/>
        </Node>
      </Node>
    </BinaryTree>
    <BinaryTree type="DecisionTree" boostWeight="1.0000000000000000e+00" itree="25">
      <Node pos="s" depth="0" NCoef="0" IVar="3" Cut="4.8571429252624512e+00" cType="1" res="1.8511258065700531e-02" rms="4.7629177570343018e-01" purity="4.9011901021003723e-01" nType="0">
        <Node pos="l" depth="1" NCoef="0" IVar="1" Cut="1.8567142486572266e+01" cType="1" res="1.8251644074916840e-01" rms="4.5899286866188049e-01" purity="6.8028831481933594e-01" nType="0">
          <Node pos="l" depth="2" NCoef="0" IVar="-1" Cut="0.0000000000000000e+00" cType="1" res="4.2486211896175519e-05" rms="4.9069988727569580e-01" purity="5.1122224330902100e-01" nType="-99"/>
          <Node pos="r" depth="2" NCoef="0" IVar="-1" Cut="0.0000000000000000e+00" cType="1" res="4.5949852210469544e-04" rms="3.5046818852424622e-01" purity="8.5632914304733276e-01" nType="-99"/>
        </Node>
        <Node pos="r" depth="1" NCoef="0" IVar="2" Cut="9.4761905670166016e+00" cType="1" res="-1.5680202841758728e-01" rms="4.2972287535667419e-01" purity="2.8683763742446899e-01" nType="0">
          <Node pos="l" depth="2" NCoef="0" IVar="-1" Cut="0.0000000000000000e+00" cType="1" res="9.6165538707282394e-05" rms="4.9419268965721130e-01" purity="5.4303956031799316e-01" nType="-99"/>
          <Node pos="r" depth="2" NCoef="0" IVar="-1" Cut="0.0000000000000000e+00" cType="1" res="-9.4733037985861301e-04" rms="4.0253859758377075e-01" purity="2.3394937813282013e-01" nType="-99"/>
        </Node>
      </Node>
    </BinaryTree>
    <BinaryTree type="DecisionTree" boostWeight="1.0000000000000000e+00" itree="26">
      <Node pos="s" depth="0" NCoef="0" IVar="3" Cut="4.8571429252624512e+00" cType="1" res="2.2202916443347931e-02" rms="4.7776618599891663e-01" purity="4.9227592349052429e-01" nType="0">
        <Node pos="l" depth="1" NCoef="0" IVar="0" Cut="3.7306125640869141e+01" cType="1" res="1.7882880568504333e-01" rms="4.5981764793395996e-01" purity="6.7713361978530884e-01" nType="0">
          <Node pos="l" depth="2" NCoef="0" IVar="-1" Cut="0.0000000000000000e+00" cType="1" res="2.1991945686750114e-05" rms="4.9081954360008240e-01" purity="5.0155663490295410e-01" nType="-99"/>
          <Node pos="r" depth="2" NCoef="0" IVar="-1" Cut="0.0000000000000000e+00" cType="1" res="4.6434666728600860e-04" rms="3.4161779284477234e-01" purity="8.6498099565505981e-01" nType="-99"/>
        </Node>
        <Node pos="r" depth="1" NCoef="0" IVar="2" Cut="1.8428571701049805e+01" cType="1" res="-1.3878850638866425e-01" rms="4.4093555212020874e-01" purity="3.0226585268974304e-01" nType="0">
          <Node pos="l" depth="2" NCoef="0" IVar="-1" Cut="0.0000000000000000e+00" cType="1" res="-2.7020217385143042e-04" rms="4.7708964347839355e-01" purity="3.8063400983810425e-01" nType="-99"/>
          <Node pos="r" depth="2" NCoef="0" IVar="-1" Cut="0.0000000000000000e+00" cType="1" res="-3.5208242479711771e-03" rms="2.8614485263824463e-01" purity="8.8848635554313660e-02" nType="-99"/>
        </Node>
      </Node>
    </BinaryTree>
    <BinaryTree type="DecisionTree" boostWeight="1.0000000000000000e+00" itree="27">
      <Node pos="s" depth="0" NCoef="0" IVar="3" Cut="3.9047617912292480e+00" cType="1" res="2.3156682029366493e-02" rms="4.7691920399665833e-01" purity="4.9380013346672058e-01" nType="0">
        <Node pos="l" depth="1" NCoef="0" IVar="0" Cut="3.0212165832519531e+01" cType="1" res="2.2366921603679657e-01" rms="4.4022274017333984e-01" purity="7.2261738777160645e-01" nType="0">
          <Node pos="l" depth="2" NCoef="0" IVar="-1" Cut="0.0000000000000000e+00" cType="1" res="-9.2011337983421981e-05" rms="4.8883086442947388e-01" purity="4.5117318630218506e-01" nType="-99"/>
          <Node pos="r" depth="2" NCoef="0" IVar="-1" Cut="0.0000000000000000e+00" cType="1" res="4.8088817857205868e-04" rms="3.1632468104362488e-01" purity="8.8724881410598755e-01" nType="-99"/>
        </Node>
        <Node pos="r" depth="1" NCoef="0" IVar="2" Cut="1.4285714149475098e+01" cType="1" res="-9.7999669611454010e-02" rms="4.5696356892585754e-01" purity="3.5554116964340210e-01" nType="0">
          <Node pos="l" depth="2" NCoef="0" IVar="-1" Cut="0.0000000000000000e+00" cType="1" res="-1.8661387002794072e-05" rms="4.9150818586349487e-01" purity="4.8121732473373413e-01" nType="-99"/>
          <Node pos="r" depth="2" NCoef="0" IVar="-1" Cut="0.0000000000000000e+00" cType="1" res="-1.8817135132849216e-03" rms="3.4582981467247009e-01" purity="1.4858360588550568e-01" nType="-99"/>
        </Node>
      </Node>
    </BinaryTree>
    <BinaryTree type="DecisionTree" boostWeight="1.0000000000000000e+00" itree="28">
      <Node pos="s" depth="0" NCoef="0" IVar="3" Cut="4.8571429252624512e+00" cType="1" res="3.6485407501459122e-02" rms="4.7498819231987000e-01" purity="5.0912499427795410e-01" nType="0">
        <Node pos="l" depth="1" NCoef="0" IVar="0" Cut="2.3050556182861328e+01" cType="1" res="2.0146372914314270e-01" rms="4.5092546939849854e-01" purity="6.9996553659439087e-01" nType="0">
          <Node pos="l" depth="2" NCoef="0" IVar="-1" Cut="0.0000000000000000e+00" cType="1" res="-1.6696205129846931e-03" rms="3.8884037733078003e-01" purity="1.9139513373374939e-01" nType="-99"/>
          <Node pos="r" depth="2" NCoef="0" IVar="-1" Cut="0.0000000000000000e+00" cType="1" res="4.6347038005478680e-04" rms="3.4491127729415894e-01" purity="8.6174547672271729e-01" nType="-99"/>
        </Node>
        <Node pos="r" depth="1" NCoef="0" IVar="2" Cut="1.3952381134033203e+01" cType="1" res="-1.4861777424812317e-01" rms="4.3105733394622803e-01" purity="2.9500481486320496e-01" nType="0">
          <Node pos="l" depth="2" NCoef="0" IVar="-1" Cut="0.0000000000000000e+00" cType="1" res="-1.0364467016188428e-04" rms="4.9067780375480652e-01" purity="4.4679257273674011e-01" nType="-99"/>
          <Node pos="r" depth="2" NCoef="0" IVar="-1" Cut="0.0000000000000000e+00" cType="1" res="-1.6424539498984814e-03" rms="3.4602263569831848e-01" purity="1.6361957788467407e-01" nType="-99"/>
        </Node>
      </Node>
    </BinaryTree>
    <BinaryTree type="DecisionTree" boostWeight="1.0000000000000000e+00" itree="29">
      <Node pos="s" depth="0" NCoef="0" IVar="3" Cut="4.8571429252624512e+00" cType="1" res="4.0444128215312958e-02" rms="4.7546479105949402e-01" purity="5.1211196184158325e-01" nType="0">
        <Node pos="l" depth="1" NCoef="0" IVar="0" Cut="2.9686845779418945e+01" cType="1" res="1.8837279081344604e-01" rms="4.5569446682929993e-01" purity="6.8702000379562378e-01" nType="0">
          <Node pos="l" depth="2" NCoef="0" IVar="-1" Cut="0.0000000000000000e+00" cType="1" res="-4.3298659147694707e-04" rms="4.6838724613189697e-01" purity="3.4982943534851074e-01" nType="-99"/>
          <Node pos="r" depth="2" NCoef="0" IVar="-1" Cut="0.0000000000000000e+00" cType="1" res="4.6831098734401166e-04" rms="3.3589994907379150e-01" purity="8.7035888433456421e-01" nType="-99"/>
        </Node>
        <Node pos="r" depth="1" NCoef="0" IVar="2" Cut="1.3952381134033203e+01" cType="1" res="-1.0782080143690109e-01" rms="4.4788703322410583e-01" purity="3.3680629730224609e-01" nType="0">
          <Node pos="l" depth="2" NCoef="0" IVar="-1" Cut="0.0000000000000000e+00" cType="1" res="3.5337052395334467e-05" rms="4.9292325973510742e-01" purity="5.0548690557479858e-01" nType="-99"/>
          <Node pos="r" depth="2" NCoef="0" IVar="-1" Cut="0.0000000000000000e+00" cType="1" res="-1.4482703991234303e-03" rms="3.6257731914520264e-01" purity="1.7563281953334808e-01" nType="-99"/>
        </Node>
      </Node>
    </BinaryTree>
    <BinaryTree type="DecisionTree" boostWeight="1.0000000000000000e+00" itree="30">
      <Node pos="s" depth="0" NCoef="0" IVar="3" Cut="5.8571429252624512e+00" cType="1" res="2.8059609234333038e-02" rms="4.7741281986236572e-01" purity="4.9703672528266907e-01" nType="0">
        <Node pos="l" depth="1" NCoef="0" IVar="0" Cut="1.8600997924804688e+01" cType="1" res="1.3889771699905396e-01" rms="4.7423341870307922e-01" purity="6.3623023033142090e-01" nType="0">
          <Node pos="l" depth="2" NCoef="0" IVar="-1" Cut="0.0000000000000000e+00" cType="1" res="-7.4985697865486145e-03" rms="2.3825672268867493e-01" purity="5.9961091727018356e-02" nType="-99"/>
          <Node pos="r" depth="2" NCoef="0" IVar="-1" Cut="0.0000000000000000e+00" cType="1" res="4.0722559788264334e-04" rms="4.0527343750000000e-01" purity="7.9048705101013184e-01" nType="-99"/>
        </Node>
        <Node pos="r" depth="1" NCoef="0" IVar="1" Cut="3.2146270751953125e+01" cType="1" res="-1.4602895081043243e-01" rms="4.2787003517150879e-01" purity="2.7841165661811829e-01" nType="0">
          <Node pos="l" depth="2" NCoef="0" IVar="-1" Cut="0.0000000000000000e+00" cType="1" res="-1.7515876097604632e-03" rms="3.6496177315711975e-01" purity="1.6526886820793152e-01" nType="-99"/>
          <Node pos="r" depth="2" NCoef="0" IVar="-1" Cut="0.0000000000000000e+00" cType="1" res="-1.2327838339842856e-04" rms="4.5480921864509583e-01" purity="3.8340222835540771e-01" nType="-99"/>
        </Node>
      </Node>
    </BinaryTree>
    <BinaryTree type="DecisionTree" boostWeight="1.0000000000000000e+00" itree="31">
      <Node pos="s" depth="0" NCoef="0" IVar="3" Cut="3.9047617912292480e+00" cType="1" res="3.0648976564407349e-02" rms="4.7705769538879395e-01" purity="4.9910199642181396e-01" nType="0">
        <Node pos="l" depth="1" NCoef="0" IVar="0" Cut="2.2592475891113281e+01" cType="1" res="2.1309474110603333e-01" rms="4.4499069452285767e-01" purity="7.1066296100616455e-01" nType="0">
          <Node pos="l" depth="2" NCoef="0" IVar="-1" Cut="0.0000000000000000e+00" cType="1" res="-2.0297591108828783e-03" rms="3.6947229504585266e-01" purity="1.6745063662528992e-01" nType="-99"/>
          <Node pos="r" depth="2" NCoef="0" IVar="-1" Cut="0.0000000000000000e+00" cType="1" res="4.7096615890040994e-04" rms="3.3460393548011780e-01" purity="8.7157136201858521e-01" nType="-99"/>
        </Node>
        <Node pos="r" depth="1" NCoef="0" IVar="2" Cut="2.0000000000000000e+01" cType="1" res="-6.8089567124843597e-02" rms="4.6456640958786011e-01" purity="3.8460648059844971e-01" nType="0">
          <Node pos="l" depth="2" NCoef="0" IVar="-1" Cut="0.0000000000000000e+00" cType="1" res="-6.6657834395300597e-05" rms="4.8562744259834290e-01" purity="4.4799920916557312e-01" nType="-99"/>
          <Node pos="r" depth="2" NCoef="0" IVar="-1" Cut="0.0000000000000000e+00" cType="1" res="-3.6017121747136116e-03" rms="2.7338019013404846e-01" purity="8.4760881960391998e-02" nType="-99"/>
        </Node>
      </Node>
    </BinaryTree>
    <BinaryTree type="DecisionTree" boostWeight="1.0000000000000000e+00" itree="32">
      <Node pos="s" depth="0" NCoef="0" IVar="3" Cut="4.8571429252624512e+00" cType="1" res="1.1191387660801411e-02" rms="4.7463652491569519e-01" purity="4.7992786765098572e-01" nType="0">
        <Node pos="l" depth="1" NCoef="0" IVar="0" Cut="2.9686845779418945e+01" cType="1" res="1.5128323435783386e-01" rms="4.6801558136940002e-01" purity="6.4834892749786377e-01" nType="0">
          <Node pos="l" depth="2" NCoef="0" IVar="-1" Cut="0.0000000000000000e+00" cType="1" res="-6.3363474328070879e-04" rms="4.5300686359405518e-01" purity="3.0654099583625793e-01" nType="-99"/>
          <Node pos="r" depth="2" NCoef="0" IVar="-1" Cut="0.0000000000000000e+00" cType="1" res="4.5151781523600221e-04" rms="3.5713806748390198e-01" purity="8.4980058670043945e-01" nType="-99"/>
        </Node>
        <Node pos="r" depth="1" NCoef="0" IVar="3" Cut="7.1904764175415039e+00" cType="1" res="-1.1656281352043152e-01" rms="4.4356846809387207e-01" purity="3.2633930444717407e-01" nType="0">
          <Node pos="l" depth="2" NCoef="0" IVar="-1" Cut="0.0000000000000000e+00" cType="1" res="-7.5473712058737874e-05" rms="4.9460738897323608e-01" purity="4.5904687047004700e-01" nType="-99"/>
          <Node pos="r" depth="2" NCoef="0" IVar="-1" Cut="0.0000000000000000e+00" cType="1" res="-2.3850002326071262e-03" rms="3.0378204584121704e-01" purity="1.1829659342765808e-01" nType="-99"/>
        </Node>
      </Node>
    </BinaryTree>
    <BinaryTree type="DecisionTree" boostWeight="1.0000000000000000e+00" itree="33">
      <Node pos="s" depth="0" NCoef="0" IVar="3" Cut="4.3809523582458496e+00" cType="1" res="3.1558766961097717e-02" rms="4.7493624687194824e-01" purity="5.0138837099075317e-01" nType="0">
        <Node pos="l" depth="1" NCoef="0" IVar="0" Cut="3.7306259155273438e+01" cType="1" res="1.8625096976757050e-01" rms="4.5556190609931946e-01" purity="6.8400150537490845e-01" nType="0">
          <Node pos="l" depth="2" NCoef="0" IVar="-1" Cut="0.0000000000000000e+00" cType="1" res="1.0579849913483486e-04" rms="4.8717102408409119e-01" purity="5.4175496101379395e-01" nType="-99"/>
          <Node pos="r" depth="2" NCoef="0" IVar="-1" Cut="0.0000000000000000e+00" cType="1" res="4.5810936717316508e-04" rms="3.4761908650398254e-01" purity="8.5922807455062866e-01" nType="-99"/>
        </Node>
        <Node pos="r" depth="1" NCoef="0" IVar="2" Cut="1.8142856597900391e+01" cType="1" res="-1.3073895871639252e-01" rms="4.3935391306877136e-01" purity="3.0979692935943604e-01" nType="0">
          <Node pos="l" depth="2" NCoef="0" IVar="-1" Cut="0.0000000000000000e+00" cType="1" res="-2.2456962324213237e-04" rms="4.7775483131408691e-01" purity="3.9324417710304260e-01" nType="-99"/>
          <Node pos="r" depth="2" NCoef="0" IVar="-1" Cut="0.0000000000000000e+00" cType="1" res="-4.1948528960347176e-03" rms="2.5531822443008423e-01" purity="7.4819475412368774e-02" nType="-99"/>
        </Node>
      </Node>
    </BinaryTree>
    <BinaryTree type="DecisionTree" boostWeight="1.0000000000000000e+00" itree="34">
      <Node pos="s" depth="0" NCoef="0" IVar="3" Cut="4.3809523582458496e+00" cType="1" res="8.7662683799862862e-03" rms="4.7510153055191040e-01" purity="4.7656571865081787e-01" nType="0">
        <Node pos="l" depth="1" NCoef="0" IVar="0" Cut="2.9181407928466797e+01" cType="1" res="1.7769280076026917e-01" rms="4.5834979414939880e-01" purity="6.7582571506500244e-01" nType="0">
          <Node pos="l" depth="2" NCoef="0" IVar="-1" Cut="0.0000000000000000e+00" cType="1" res="-4.6474579721689224e-04" rms="4.6434155106544495e-01" purity="3.4028935432434082e-01" nType="-99"/>
          <Node pos="r" depth="2" NCoef="0" IVar="-1" Cut="0.0000000000000000e+00" cType="1" res="4.6161861973814666e-04" rms="3.4278893470764160e-01" purity="8.6379337310791016e-01" nType="-99"/>
        </Node>
        <Node pos="r" depth="1" NCoef="0" IVar="3" Cut="1.0857142448425293e+01" cType="1" res="-1.7917335033416748e-01" rms="4.1958200931549072e-01" purity="2.5487849116325378e-01" nType="0">
          <Node pos="l" depth="2" NCoef="0" IVar="-1" Cut="0.0000000000000000e+00" cType="1" res="-5.6274217786267400e-04" rms="4.5298233628273010e-01" purity="3.0395409464836121e-01" nType="-99"/>
          <Node pos="r" depth="2" NCoef="0" IVar="-1" Cut="0.0000000000000000e+00" cType="1" res="-1.4735597372055054e-01" rms="3.4507427364587784e-02" purity="0.0000000000000000e+00" nType="-99"/>
        </Node>
      </Node>
    </BinaryTree>
    <BinaryTree type="DecisionTree" boostWeight="1.0000000000000000e+00" itree="35">
      <Node pos="s" depth="0" NCoef="0" IVar="3" Cut="4.8571429252624512e+00" cType="1" res="4.8535861074924469e-02" rms="4.7159650921821594e-01" purity="5.1444953680038452e-01" nType="0">
        <Node pos="l" depth="1" NCoef="0" IVar="1" Cut="1.8567142486572266e+01" cType="1" res="1.9706767797470093e-01" rms="4.5108178257942200e-01" purity="6.9521164894104004e-01" nType="0">
          <Node pos="l" depth="2" NCoef="0" IVar="-1" Cut="0.0000000000000000e+00" cType="1" res="1.3244347064755857e-04" rms="4.8386108875274658e-01" purity="5.5865889787673950e-01" nType="-99"/>
          <Node pos="r" depth="2" NCoef="0" IVar="-1" Cut="0.0000000000000000e+00" cType="1" res="4.5505512389354408e-04" rms="3.5529401898384094e-01" purity="8.5185259580612183e-01" nType="-99"/>
        </Node>
        <Node pos="r" depth="1" NCoef="0" IVar="2" Cut="1.3952381134033203e+01" cType="1" res="-1.0735969990491867e-01" rms="4.4137430191040039e-01" purity="3.2472583651542664e-01" nType="0">
          <Node pos="l" depth="2" NCoef="0" IVar="-1" Cut="0.0000000000000000e+00" cType="1" res="2.5819826987572014e-05" rms="4.9178829789161682e-01" purity="5.0019943714141846e-01" nType="-99"/>
          <Node pos="r" depth="2" NCoef="0" IVar="-1" Cut="0.0000000000000000e+00" cType="1" res="-1.6986593836918473e-03" rms="3.4746381640434265e-01" purity="1.5173225104808807e-01" nType="-99"/>
        </Node>
      </Node>
    </BinaryTree>
    <BinaryTree type="DecisionTree" boostWeight="1.0000000000000000e+00" itree="36">
      <Node pos="s" depth="0" NCoef="0" IVar="3" Cut="4.8571429252624512e+00" cType="1" res="3.9323598146438599e-02" rms="4.7004988789558411e-01" purity="5.0561994314193726e-01" nType="0">
        <Node pos="l" depth="1" NCoef="0" IVar="0" Cut="3.2696224212646484e+01" cType="1" res="1.8918907642364502e-01" rms="4.5400166511535645e-01" purity="6.8746376037597656e-01" nType="0">
          <Node pos="l" depth="2" NCoef="0" IVar="-1" Cut="0.0000000000000000e+00" cType="1" res="-1.3359667718759738e-05" rms="4.8851388692855835e-01" purity="4.8189753293991089e-01" nType="-99"/>
          <Node pos="r" depth="2" NCoef="0" IVar="-1" Cut="0.0000000000000000e+00" cType="1" res="4.6009314246475697e-04" rms="3.4420081973075867e-01" purity="8.6252963542938232e-01" nType="-99"/>
        </Node>
        <Node pos="r" depth="1" NCoef="0" IVar="2" Cut="1.3952381134033203e+01" cType="1" res="-1.1417756974697113e-01" rms="4.3539509177207947e-01" purity="3.1936469674110413e-01" nType="0">
          <Node pos="l" depth="2" NCoef="0" IVar="-1" Cut="0.0000000000000000e+00" cType="1" res="1.0602408110571560e-05" rms="4.9182713031768799e-01" purity="4.9318593740463257e-01" nType="-99"/>
          <Node pos="r" depth="2" NCoef="0" IVar="-1" Cut="0.0000000000000000e+00" cType="1" res="-1.6835880232974887e-03" rms="3.3485734462738037e-01" purity="1.5134307742118835e-01" nType="-99"/>
        </Node>
      </Node>
    </BinaryTree>
    <BinaryTree type="DecisionTree" boostWeight="1.0000000000000000e+00" itree="37">
      <Node pos="s" depth="0" NCoef="0" IVar="3" Cut="5.7142858505249023e+00" cType="1" res="4.7057785093784332e-02" rms="4.7176522016525269e-01" purity="5.1221638917922974e-01" nType="0">
        <Node pos="l" depth="1" NCoef="0" IVar="0" Cut="3.0211755752563477e+01" cType="1" res="1.6216056048870087e-01" rms="4.6526992321014404e-01" purity="6.5977293252944946e-01" nType="0">
          <Node pos="l" depth="2" NCoef="0" IVar="-1" Cut="0.0000000000000000e+00" cType="1" res="-2.7357722865417600e-04" rms="4.7906744480133057e-01" purity="3.9005383849143982e-01" nType="-99"/>
          <Node pos="r" depth="2" NCoef="0" IVar="-1" Cut="0.0000000000000000e+00" cType="1" res="4.4496828923001885e-04" rms="3.6538928747177124e-01" purity="8.4004813432693481e-01" nType="-99"/>
        </Node>
        <Node pos="r" depth="1" NCoef="0" IVar="1" Cut="3.1858757019042969e+01" cType="1" res="-1.6085952520370483e-01" rms="4.0791553258895874e-01" purity="2.4567581713199615e-01" nType="0">
          <Node pos="l" depth="2" NCoef="0" IVar="-1" Cut="0.0000000000000000e+00" cType="1" res="-1.9917292520403862e-03" rms="3.4280857443809509e-01" purity="1.4953400194644928e-01" nType="-99"/>
          <Node pos="r" depth="2" NCoef="0" IVar="-1" Cut="0.0000000000000000e+00" cType="1" res="-1.9547977717593312e-04" rms="4.3761479854583740e-01" purity="3.3782106637954712e-01" nType="-99"/>
        </Node>
      </Node>
    </BinaryTree>
    <BinaryTree type="DecisionTree" boostWeight="1.0000000000000000e+00" itree="38">
      <Node pos="s" depth="0" NCoef="0" IVar="3" Cut="5.7142858505249023e+00" cType="1" res="2.7714861556887627e-02" rms="4.7126996517181396e-01" purity="4.9175164103507996e-01" nType="0">
        <Node pos="l" depth="1" NCoef="0" IVar="0" Cut="2.9181186676025391e+01" cType="1" res="1.4302292466163635e-01" rms="4.7136348485946655e-01" purity="6.4018779993057251e-01" nType="0">
          <Node pos="l" depth="2" NCoef="0" IVar="-1" Cut="0.0000000000000000e+00" cType="1" res="-4.0837822598405182e-04" rms="4.7044876217842102e-01" purity="3.5424563288688660e-01" nType="-99"/>
          <Node pos="r" depth="2" NCoef="0" IVar="-1" Cut="0.0000000000000000e+00" cType="1" res="4.3392457882873714e-04" rms="3.7730473279953003e-01" purity="8.2670050859451294e-01" nType="-99"/>
        </Node>
        <Node pos="r" depth="1" NCoef="0" IVar="3" Cut="7.6190476417541504e+00" cType="1" res="-1.6687932610511780e-01" rms="4.0204656124114990e-01" purity="2.4125050008296967e-01" nType="0">
          <Node pos="l" depth="2" NCoef="0" IVar="-1" Cut="0.0000000000000000e+00" cType="1" res="-2.2979840287007391e-04" rms="4.8800715804100037e-01" purity="4.0120553970336914e-01" nType="-99"/>
          <Node pos="r" depth="2" NCoef="0" IVar="-1" Cut="0.0000000000000000e+00" cType="1" res="-3.0881366692483425e-03" rms="2.7770286798477173e-01" purity="9.1415897011756897e-02" nType="-99"/>
        </Node>
      </Node>
    </BinaryTree>
    <BinaryTree type="DecisionTree" boostWeight="1.0000000000000000e+00" itree="39">
      <Node pos="s" depth="0" NCoef="0" IVar="3" Cut="4.8571429252624512e+00" cType="1" res="4.1935302317142487e-02" rms="4.7109851241111755e-01" purity="5.0655454397201538e-01" nType="0">
        <Node pos="l" depth="1" NCoef="0" IVar="0" Cut="2.9686845779418945e+01" cType="1" res="1.9665752351284027e-01" rms="4.5085471868515015e-01" purity="6.9513761997222900e-01" nType="0">
          <Node pos="l" depth="2" NCoef="0" IVar="-1" Cut="0.0000000000000000e+00" cType="1" res="-1.9518627959769219e-04" rms="4.8239380121231079e-01" purity="4.1135185956954956e-01" nType="-99"/>
          <Node pos="r" depth="2" NCoef="0" IVar="-1" Cut="0.0000000000000000e+00" cType="1" res="4.6379739069379866e-04" rms="3.3848768472671509e-01" purity="8.6793959140777588e-01" nType="-99"/>
        </Node>
        <Node pos="r" depth="1" NCoef="0" IVar="2" Cut="1.8428571701049805e+01" cType="1" res="-1.2707094848155975e-01" rms="4.3313801288604736e-01" purity="3.0056139826774597e-01" nType="0">
          <Node pos="l" depth="2" NCoef="0" IVar="-1" Cut="0.0000000000000000e+00" cType="1" res="-2.0558667893055826e-04" rms="4.8043057322502136e-01" purity="3.9361882209777832e-01" nType="-99"/>
          <Node pos="r" depth="2" NCoef="0" IVar="-1" Cut="0.0000000000000000e+00" cType="1" res="-1.8272563815116882e-02" rms="1.3444444537162781e-01" purity="1.6046088188886642e-02" nType="-99"/>
        </Node>
      </Node>
    </BinaryTree>
    <BinaryTree type="DecisionTree" boostWeight="1.0000000000000000e+00" itree="40">
      <Node pos="s" depth="0" NCoef="0" IVar="3" Cut="4.8571429252624512e+00" cType="1" res="3.0870065093040466e-02" rms="4.7122728824615479e-01" purity="4.9308845400810242e-01" nType="0">
        <Node pos="l" depth="1" NCoef="0" IVar="0" Cut="2.2592475891113281e+01" cType="1" res="1.7326886951923370e-01" rms="4.5995751023292542e-01" purity="6.7137199640274048e-01" nType="0">
          <Node pos="l" depth="2" NCoef="0" IVar="-1" Cut="0.0000000000000000e+00" cType="1" res="-3.4772320650517941e-03" rms="3.1551444530487061e-01" purity="1.1332171410322189e-01" nType="-99"/>
          <Node pos="r" depth="2" NCoef="0" IVar="-1" Cut="0.0000000000000000e+00" cType="1" res="4.4892323785461485e-04" rms="3.6054348945617676e-01" purity="8.4599912166595459e-01" nType="-99"/>
        </Node>
        <Node pos="r" depth="1" NCoef="0" IVar="1" Cut="3.0583343505859375e+01" cType="1" res="-1.1218723654747009e-01" rms="4.3790563941001892e-01" purity="3.1398051977157593e-01" nType="0">
          <Node pos="l" depth="2" NCoef="0" IVar="-1" Cut="0.0000000000000000e+00" cType="1" res="-9.2467479407787323e-04" rms="4.1474062204360962e-01" purity="2.4025011062622070e-01" nType="-99"/>
          <Node pos="r" depth="2" NCoef="0" IVar="-1" Cut="0.0000000000000000e+00" cType="1" res="-3.8737663999199867e-05" rms="4.4276255369186401e-01" purity="3.9794087409973145e-01" nType="-99"/>
        </Node>
      </Node>
    </BinaryTree>
    <BinaryTree type="DecisionTree" boostWeight="1.0000000000000000e+00" itree="41">
      <Node pos="s" depth="0" NCoef="0" IVar="3" Cut="4.3809523582458496e+00" cType="1" res="3.6455336958169937e-02" rms="4.7170576453208923e-01" purity="4.9843996763229370e-01" nType="0">
        <Node pos="l" depth="1" NCoef="0" IVar="0" Cut="2.6220058441162109e+01" cType="1" res="1.9536828994750977e-01" rms="4.5068755745887756e-01" purity="6.9381463527679443e-01" nType="0">
          <Node pos="l" depth="2" NCoef="0" IVar="-1" Cut="0.0000000000000000e+00" cType="1" res="-9.0371118858456612e-04" rms="4.3129432201385498e-01" purity="2.6326182484626770e-01" nType="-99"/>
          <Node pos="r" depth="2" NCoef="0" IVar="-1" Cut="0.0000000000000000e+00" cType="1" res="4.6499952441081405e-04" rms="3.3831191062927246e-01" purity="8.6818575859069824e-01" nType="-99"/>
        </Node>
        <Node pos="r" depth="1" NCoef="0" IVar="1" Cut="3.6136585235595703e+01" cType="1" res="-1.4311489462852478e-01" rms="4.2852309346199036e-01" purity="2.7766823768615723e-01" nType="0">
          <Node pos="l" depth="2" NCoef="0" IVar="-1" Cut="0.0000000000000000e+00" cType="1" res="-9.1588567011058331e-04" rms="4.1252279281616211e-01" purity="2.3944656550884247e-01" nType="-99"/>
          <Node pos="r" depth="2" NCoef="0" IVar="-1" Cut="0.0000000000000000e+00" cType="1" res="-1.7555359227117151e-04" rms="4.4008648395538330e-01" purity="3.4302061796188354e-01" nType="-99"/>
        </Node>
      </Node>
    </BinaryTree>
    <BinaryTree type="DecisionTree" boostWeight="1.0000000000000000e+00" itree="42">
      <Node pos="s" depth="0" NCoef="0" IVar="3" Cut="4.3809523582458496e+00" cType="1" res="3.7701990455389023e-02" rms="4.7073364257812500e-01" purity="4.9990817904472351e-01" nType="0">
        <Node pos="l" depth="1" NCoef="0" IVar="0" Cut="2.1562126159667969e+01" cType="1" res="1.7616653442382812e-01" rms="4.5894631743431091e-01" purity="6.7343771457672119e-01" nType="0">
          <Node pos="l" depth="2" NCoef="0" IVar="-1" Cut="0.0000000000000000e+00" cType="1" res="-3.8986210711300373e-03" rms="3.0292373895645142e-01" purity="1.0301443189382553e-01" nType="-99"/>
          <Node pos="r" depth="2" NCoef="0" IVar="-1" Cut="0.0000000000000000e+00" cType="1" res="4.4665171299129725e-04" rms="3.6445778608322144e-01" purity="8.4194862842559814e-01" nType="-99"/>
        </Node>
        <Node pos="r" depth="1" NCoef="0" IVar="2" Cut="1.3761904716491699e+01" cType="1" res="-9.6923507750034332e-02" rms="4.4213107228279114e-01" purity="3.3118984103202820e-01" nType="0">
          <Node pos="l" depth="2" NCoef="0" IVar="-1" Cut="0.0000000000000000e+00" cType="1" res="-1.9232766135246493e-05" rms="4.9172416329383850e-01" purity="4.7775465250015259e-01" nType="-99"/>
          <Node pos="r" depth="2" NCoef="0" IVar="-1" Cut="0.0000000000000000e+00" cType="1" res="-9.8804931621998549e-04" rms="3.7579655647277832e-01" purity="2.0115686953067780e-01" nType="-99"/>
        </Node>
      </Node>
    </BinaryTree>
    <BinaryTree type="DecisionTree" boostWeight="1.0000000000000000e+00" itree="43">
      <Node pos="s" depth="0" NCoef="0" IVar="3" Cut="5.4285712242126465e+00" cType="1" res="4.4789407402276993e-02" rms="4.6869015693664551e-01" purity="5.0899547338485718e-01" nType="0">
        <Node pos="l" depth="1" NCoef="0" IVar="0" Cut="3.2696224212646484e+01" cType="1" res="1.6252885758876801e-01" rms="4.6365916728973389e-01" purity="6.5998309850692749e-01" nType="0">
          <Node pos="l" depth="2" NCoef="0" IVar="-1" Cut="0.0000000000000000e+00" cType="1" res="-2.0554130605887622e-04" rms="4.8055303096771240e-01" purity="4.1023489832878113e-01" nType="-99"/>
          <Node pos="r" depth="2" NCoef="0" IVar="-1" Cut="0.0000000000000000e+00" cType="1" res="4.5014920760877430e-04" rms="3.5816901922225952e-01" purity="8.4763097763061523e-01" nType="-99"/>
        </Node>
        <Node pos="r" depth="1" NCoef="0" IVar="0" Cut="5.2975719451904297e+01" cType="1" res="-1.6698512434959412e-01" rms="3.9790034294128418e-01" purity="2.3741850256919861e-01" nType="0">
          <Node pos="l" depth="2" NCoef="0" IVar="-1" Cut="0.0000000000000000e+00" cType="1" res="-1.8143233610317111e-03" rms="3.5685008764266968e-01" purity="1.5944226086139679e-01" nType="-99"/>
          <Node pos="r" depth="2" NCoef="0" IVar="-1" Cut="0.0000000000000000e+00" cType="1" res="-2.6962958509102464e-04" rms="4.1481494903564453e-01" purity="3.1426510214805603e-01" nType="-99"/>
        </Node>
      </Node>
    </BinaryTree>
    <BinaryTree type="DecisionTree" boostWeight="1.0000000000000000e+00" itree="44">
      <Node pos="s" depth="0" NCoef="0" IVar="3" Cut="5.4285712242126465e+00" cType="1" res="6.7664809525012970e-02" rms="4.7027844190597534e-01" purity="5.3052473068237305e-01" nType="0">
        <Node pos="l" depth="1" NCoef="0" IVar="0" Cut="2.5077165603637695e+01" cType="1" res="1.6873066127300262e-01" rms="4.6178662776947021e-01" purity="6.6616493463516235e-01" nType="0">
          <Node pos="l" depth="2" NCoef="0" IVar="-1" Cut="0.0000000000000000e+00" cType="1" res="-1.6237217932939529e-03" rms="3.8955047726631165e-01" purity="1.9276611506938934e-01" nType="-99"/>
          <Node pos="r" depth="2" NCoef="0" IVar="-1" Cut="0.0000000000000000e+00" cType="1" res="4.4547027209773660e-04" rms="3.6464786529541016e-01" purity="8.4062284231185913e-01" nType="-99"/>
        </Node>
        <Node pos="r" depth="1" NCoef="0" IVar="1" Cut="2.5435909271240234e+01" cType="1" res="-9.9783748388290405e-02" rms="4.3510127067565918e-01" purity="3.0579242110252380e-01" nType="0">
          <Node pos="l" depth="2" NCoef="0" IVar="-1" Cut="0.0000000000000000e+00" cType="1" res="-3.6490887869149446e-03" rms="2.9070487618446350e-01" purity="9.7050435841083527e-02" nType="-99"/>
          <Node pos="r" depth="2" NCoef="0" IVar="-1" Cut="0.0000000000000000e+00" cType="1" res="4.8893747589318082e-05" rms="4.5199859142303467e-01" purity="4.1555842757225037e-01" nType="-99"/>
        </Node>
      </Node>
    </BinaryTree>
    <BinaryTree type="DecisionTree" boostWeight="1.0000000000000000e+00" itree="45">
      <Node pos="s" depth="0" NCoef="0" IVar="3" Cut="4.3809523582458496e+00" cType="1" res="5.5014062672853470e-02" rms="4.7018080949783325e-01" purity="5.1732164621353149e-01" nType="0">
        <Node pos="l" depth="1" NCoef="0" IVar="0" Cut="2.2229413986206055e+01" cType="1" res="1.7717820405960083e-01" rms="4.5600932836532593e-01" purity="6.7568123340606689e-01" nType="0">
          <Node pos="l" depth="2" NCoef="0" IVar="-1" Cut="0.0000000000000000e+00" cType="1" res="-6.3237906433641911e-03" rms="2.4818772077560425e-01" purity="6.8164698779582977e-02" nType="-99"/>
          <Node pos="r" depth="2" NCoef="0" IVar="-1" Cut="0.0000000000000000e+00" cType="1" res="4.5131059596315026e-04" rms="3.5532617568969727e-01" purity="8.5105776786804199e-01" nType="-99"/>
        </Node>
        <Node pos="r" depth="1" NCoef="0" IVar="2" Cut="1.3761904716491699e+01" cType="1" res="-5.9568233788013458e-02" rms="4.5415183901786804e-01" purity="3.6879032850265503e-01" nType="0">
          <Node pos="l" depth="2" NCoef="0" IVar="-1" Cut="0.0000000000000000e+00" cType="1" res="8.4761792095378041e-05" rms="4.9117544293403625e-01" purity="5.2588802576065063e-01" nType="-99"/>
          <Node pos="r" depth="2" NCoef="0" IVar="-1" Cut="0.0000000000000000e+00" cType="1" res="-7.8659580321982503e-04" rms="3.9441153407096863e-01" purity="2.2178827226161957e-01" nType="-99"/>
        </Node>
      </Node>
    </BinaryTree>
    <BinaryTree type="DecisionTree" boostWeight="1.0000000000000000e+00" itree="46">
      <Node pos="s" depth="0" NCoef="0" IVar="3" Cut="4.3809523582458496e+00" cType="1" res="2.8906723484396935e-02" rms="4.6854916214942932e-01" purity="4.9044632911682129e-01" nType="0">
        <Node pos="l" depth="1" NCoef="0" IVar="0" Cut="2.9686845779418945e+01" cType="1" res="1.7901127040386200e-01" rms="4.5597854256629944e-01" purity="6.7575132846832275e-01" nType="0">
          <Node pos="l" depth="2" NCoef="0" IVar="-1" Cut="0.0000000000000000e+00" cType="1" res="-1.3972120359539986e-04" rms="4.8191535472869873e-01" purity="4.2563417553901672e-01" nType="-99"/>
          <Node pos="r" depth="2" NCoef="0" IVar="-1" Cut="0.0000000000000000e+00" cType="1" res="4.5028727618046105e-04" rms="3.5381618142127991e-01" purity="8.5314822196960449e-01" nType="-99"/>
        </Node>
        <Node pos="r" depth="1" NCoef="0" IVar="2" Cut="1.8142856597900391e+01" cType="1" res="-1.2664645910263062e-01" rms="4.2899417877197266e-01" purity="2.9841494560241699e-01" nType="0">
          <Node pos="l" depth="2" NCoef="0" IVar="-1" Cut="0.0000000000000000e+00" cType="1" res="-2.1028418268542737e-04" rms="4.7734615206718445e-01" purity="3.9201867580413818e-01" nType="-99"/>
          <Node pos="r" depth="2" NCoef="0" IVar="-1" Cut="0.0000000000000000e+00" cType="1" res="-1.7883971333503723e-02" rms="1.3300472497940063e-01" purity="1.5984298661351204e-02" nType="-99"/>
        </Node>
      </Node>
    </BinaryTree>
    <BinaryTree type="DecisionTree" boostWeight="1.0000000000000000e+00" itree="47">
      <Node pos="s" depth="0" NCoef="0" IVar="3" Cut="4.3809523582458496e+00" cType="1" res="4.6898465603590012e-02" rms="4.6892219781875610e-01" purity="5.0781285762786865e-01" nType="0">
        <Node pos="l" depth="1" NCoef="0" IVar="0" Cut="3.2696224212646484e+01" cType="1" res="1.8370966613292694e-01" rms="4.5368498563766479e-01" purity="6.8102520704269409e-01" nType="0">
          <Node pos="l" depth="2" NCoef="0" IVar="-1" Cut="0.0000000000000000e+00" cType="1" res="3.0992837309895549e-06" rms="4.8567113280296326e-01" purity="4.8470354080200195e-01" nType="-99"/>
          <Node pos="r" depth="2" NCoef="0" IVar="-1" Cut="0.0000000000000000e+00" cType="1" res="4.5303610386326909e-04" rms="3.4927624464035034e-01" purity="8.5759824514389038e-01" nType="-99"/>
        </Node>
        <Node pos="r" depth="1" NCoef="0" IVar="2" Cut="1.3761904716491699e+01" cType="1" res="-8.9840494096279144e-02" rms="4.4332110881805420e-01" purity="3.3469191193580627e-01" nType="0">
          <Node pos="l" depth="2" NCoef="0" IVar="-1" Cut="0.0000000000000000e+00" cType="1" res="2.9957787774037570e-05" rms="4.9335736036300659e-01" purity="4.9765321612358093e-01" nType="-99"/>
          <Node pos="r" depth="2" NCoef="0" IVar="-1" Cut="0.0000000000000000e+00" cType="1" res="-1.1694525601342320e-03" rms="3.6513721942901611e-01" purity="1.8206636607646942e-01" nType="-99"/>
        </Node>
      </Node>
    </BinaryTree>
    <BinaryTree type="DecisionTree" boostWeight="1.0000000000000000e+00" itree="48">
      <Node pos="s" depth="0" NCoef="0" IVar="3" Cut="4.3809523582458496e+00" cType="1" res="3.8628362119197845e-02" rms="4.6904602646827698e-01" purity="4.9861410260200500e-01" nType="0">
        <Node pos="l" depth="1" NCoef="0" IVar="0" Cut="1.8600997924804688e+01" cType="1" res="1.7949545383453369e-01" rms="4.5545682311058044e-01" purity="6.7678123712539673e-01" nType="0">
          <Node pos="l" depth="2" NCoef="0" IVar="-1" Cut="0.0000000000000000e+00" cType="1" res="-7.4264085851609707e-03" rms="2.3478928208351135e-01" purity="5.8463525027036667e-02" nType="-99"/>
          <Node pos="r" depth="2" NCoef="0" IVar="-1" Cut="0.0000000000000000e+00" cType="1" res="4.3440627632662654e-04" rms="3.7595000863075256e-01" purity="8.2771205902099609e-01" nType="-99"/>
        </Node>
        <Node pos="r" depth="1" NCoef="0" IVar="2" Cut="1.3761904716491699e+01" cType="1" res="-1.0421833395957947e-01" rms="4.3842494487762451e-01" purity="3.1794321537017822e-01" nType="0">
          <Node pos="l" depth="2" NCoef="0" IVar="-1" Cut="0.0000000000000000e+00" cType="1" res="-8.1058868090622127e-05" rms="4.8895364999771118e-01" purity="4.5208787918090820e-01" nType="-99"/>
          <Node pos="r" depth="2" NCoef="0" IVar="-1" Cut="0.0000000000000000e+00" cType="1" res="-9.0742827160283923e-04" rms="3.8130554556846619e-01" purity="2.0615057647228241e-01" nType="-99"/>
        </Node>
      </Node>
    </BinaryTree>
    <BinaryTree type="DecisionTree" boostWeight="1.0000000000000000e+00" itree="49">
      <Node pos="s" depth="0" NCoef="0" IVar="3" Cut="4.3809523582458496e+00" cType="1" res="4.4889081269502640e-02" rms="4.7127428650856018e-01" purity="5.0286757946014404e-01" nType="0">
        <Node pos="l" depth="1" NCoef="0" IVar="0" Cut="2.5077165603637695e+01" cType="1" res="1.6498221457004547e-01" rms="4.5869928598403931e-01" purity="6.6222703456878662e-01" nType="0">
          <Node pos="l" depth="2" NCoef="0" IVar="-1" Cut="0.0000000000000000e+00" cType="1" res="-3.0934088863432407e-03" rms="3.1942093372344971e-01" purity="1.2180490791797638e-01" nType="-99"/>
          <Node pos="r" depth="2" NCoef="0" IVar="-1" Cut="0.0000000000000000e+00" cType="1" res="4.5198376756161451e-04" rms="3.5281324386596680e-01" purity="8.5409772396087646e-01" nType="-99"/>
        </Node>
        <Node pos="r" depth="1" NCoef="0" IVar="1" Cut="2.3597488403320312e+01" cType="1" res="-6.4060449600219727e-02" rms="4.5580112934112549e-01" purity="3.5829532146453857e-01" nType="0">
          <Node pos="l" depth="2" NCoef="0" IVar="-1" Cut="0.0000000000000000e+00" cType="1" res="-8.8091776706278324e-04" rms="4.1667392849922180e-01" purity="2.5047785043716431e-01" nType="-99"/>
          <Node pos="r" depth="2" NCoef="0" IVar="-1" Cut="0.0000000000000000e+00" cType="1" res="8.6587177065666765e-05" rms="4.5810773968696594e-01" purity="4.3605652451515198e-01" nType="-99"/>
        </Node>
      </Node>
    </BinaryTree>
    <BinaryTree type="DecisionTree" boostWeight="1.0000000000000000e+00" itree="50">
      <Node pos="s" depth="0" NCoef="0" IVar="3" Cut="5.7142858505249023e+00" cType="1" res="3.7765484303236008e-02" rms="4.6915066242218018e-01" purity="4.9583333730697632e-01" nType="0">
        <Node pos="l" depth="1" NCoef="0" IVar="0" Cut="1.7669805526733398e+01" cType="1" res="1.4340171217918396e-01" rms="4.6781355142593384e-01" purity="6.3928943872451782e-01" nType="0">
          <Node pos="l" depth="2" NCoef="0" IVar="-1" Cut="0.0000000000000000e+00" cType="1" res="-2.6441561058163643e-02" rms="1.2778991460800171e-01" purity="1.6252838075160980e-02" nType="-99"/>
          <Node pos="r" depth="2" NCoef="0" IVar="-1" Cut="0.0000000000000000e+00" cType="1" res="4.0216968045569956e-04" rms="4.0583673119544983e-01" purity="7.8721678256988525e-01" nType="-99"/>
        </Node>
        <Node pos="r" depth="1" NCoef="0" IVar="2" Cut="2.1619047164916992e+01" cType="1" res="-1.3538549840450287e-01" rms="4.1699346899986267e-01" purity="2.6069092750549316e-01" nType="0">
          <Node pos="l" depth="2" NCoef="0" IVar="-1" Cut="0.0000000000000000e+00" cType="1" res="-3.4719996619969606e-04" rms="4.6056297421455383e-01" purity="3.2852524518966675e-01" nType="-99"/>
          <Node pos="r" depth="2" NCoef="0" IVar="-1" Cut="0.0000000000000000e+00" cType="1" res="-1.3947211205959320e-01" rms="6.2334232032299042e-02" purity="0.0000000000000000e+00" nType="-99"/>
        </Node>
      </Node>
    </BinaryTree>
    <BinaryTree type="DecisionTree" boostWeight="1.0000000000000000e+00" itree="51">
      <Node pos="s" depth="0" NCoef="0" IVar="3" Cut="4.8571429252624512e+00" cType="1" res="3.9197251200675964e-02" rms="4.6429690718650818e-01" purity="4.9256417155265808e-01" nType="0">
        <Node pos="l" depth="1" NCoef="0" IVar="0" Cut="2.9686845779418945e+01" cType="1" res="1.8130891025066376e-01" rms="4.5120462775230408e-01" purity="6.7519414424896240e-01" nType="0">
          <Node pos="l" depth="2" NCoef="0" IVar="-1" Cut="0.0000000000000000e+00" cType="1" res="-1.6637922090012580e-04" rms="4.7270372509956360e-01" purity="4.0890821814537048e-01" nType="-99"/>
          <Node pos="r" depth="2" NCoef="0" IVar="-1" Cut="0.0000000000000000e+00" cType="1" res="4.5216453145258129e-04" rms="3.5002890229225159e-01" purity="8.5699462890625000e-01" nType="-99"/>
        </Node>
        <Node pos="r" depth="1" NCoef="0" IVar="1" Cut="3.0315471649169922e+01" cType="1" res="-1.0555650293827057e-01" rms="4.3157342076301575e-01" purity="3.0653876066207886e-01" nType="0">
          <Node pos="l" depth="2" NCoef="0" IVar="-1" Cut="0.0000000000000000e+00" cType="1" res="-8.3465373609215021e-04" rms="4.1339433193206787e-01" purity="2.4696137011051178e-01" nType="-99"/>
          <Node pos="r" depth="2" NCoef="0" IVar="-1" Cut="0.0000000000000000e+00" cType="1" res="-3.7485435314010829e-05" rms="4.3399116396903992e-01" purity="3.7677490711212158e-01" nType="-99"/>
        </Node>
      </Node>
    </BinaryTree>
    <BinaryTree type="DecisionTree" boostWeight="1.0000000000000000e+00" itree="52">
      <Node pos="s" depth="0" NCoef="0" IVar="3" Cut="5.4285712242126465e+00" cType="1" res="5.3876675665378571e-02" rms="4.6352210640907288e-01" purity="5.0882619619369507e-01" nType="0">
        <Node pos="l" depth="1" NCoef="0" IVar="0" Cut="1.7669805526733398e+01" cType="1" res="1.5525160729885101e-01" rms="4.6168324351310730e-01" purity="6.4915895462036133e-01" nType="0">
          <Node pos="l" depth="2" NCoef="0" IVar="-1" Cut="0.0000000000000000e+00" cType="1" res="-1.3654410839080811e-02" rms="1.7724335193634033e-01" purity="3.1900066882371902e-02" nType="-99"/>
          <Node pos="r" depth="2" NCoef="0" IVar="-1" Cut="0.0000000000000000e+00" cType="1" res="4.0758392424322665e-04" rms="4.0084943175315857e-01" purity="7.9412192106246948e-01" nType="-99"/>
        </Node>
        <Node pos="r" depth="1" NCoef="0" IVar="2" Cut="1.4285714149475098e+01" cType="1" res="-1.1240701377391815e-01" rms="4.1609629988670349e-01" purity="2.7864059805870056e-01" nType="0">
          <Node pos="l" depth="2" NCoef="0" IVar="-1" Cut="0.0000000000000000e+00" cType="1" res="-4.3414809624664485e-05" rms="4.8857483267784119e-01" purity="4.5335245132446289e-01" nType="-99"/>
          <Node pos="r" depth="2" NCoef="0" IVar="-1" Cut="0.0000000000000000e+00" cType="1" res="-1.6326169716194272e-03" rms="3.2576158642768860e-01" purity="1.3569946587085724e-01" nType="-99"/>
        </Node>
      </Node>
    </BinaryTree>
    <BinaryTree type="DecisionTree" boostWeight="1.0000000000000000e+00" itree="53">
      <Node pos="s" depth="0" NCoef="0" IVar="3" Cut="4.3809523582458496e+00" cType="1" res="5.2980400621891022e-02" rms="4.6573227643966675e-01" purity="5.0515276193618774e-01" nType="0">
        <Node pos="l" depth="1" NCoef="0" IVar="0" Cut="2.1562126159667969e+01" cType="1" res="1.9532072544097900e-01" rms="4.4356870651245117e-01" purity="6.8986618518829346e-01" nType="0">
          <Node pos="l" depth="2" NCoef="0" IVar="-1" Cut="0.0000000000000000e+00" cType="1" res="-1.1637061834335327e-02" rms="1.8531583249568939e-01" purity="3.6599971354007721e-02" nType="-99"/>
          <Node pos="r" depth="2" NCoef="0" IVar="-1" Cut="0.0000000000000000e+00" cType="1" res="4.5355895417742431e-04" rms="3.5162270069122314e-01" purity="8.5481065511703491e-01" nType="-99"/>
        </Node>
        <Node pos="r" depth="1" NCoef="0" IVar="2" Cut="9.3809528350830078e+00" cType="1" res="-9.9207773804664612e-02" rms="4.4003462791442871e-01" purity="3.0765983462333679e-01" nType="0">
          <Node pos="l" depth="2" NCoef="0" IVar="-1" Cut="0.0000000000000000e+00" cType="1" res="1.4179518620949239e-04" rms="4.8646840453147888e-01" purity="5.6116366386413574e-01" nType="-99"/>
          <Node pos="r" depth="2" NCoef="0" IVar="-1" Cut="0.0000000000000000e+00" cType="1" res="-6.1831937637180090e-04" rms="4.2063608765602112e-01" purity="2.5361707806587219e-01" nType="-99"/>
        </Node>
      </Node>
    </BinaryTree>
    <BinaryTree type="DecisionTree" boostWeight="1.0000000000000000e+00" itree="54">
      <Node pos="s" depth="0" NCoef="0" IVar="3" Cut="4.3809523582458496e+00" cType="1" res="3.9441637694835663e-02" rms="4.6274650096893311e-01" purity="4.9088490009307861e-01" nType="0">
        <Node pos="l" depth="1" NCoef="0" IVar="0" Cut="3.2696445465087891e+01" cType="1" res="1.7179432511329651e-01" rms="4.5121937990188599e-01" purity="6.6385734081268311e-01" nType="0">
          <Node pos="l" depth="2" NCoef="0" IVar="-1" Cut="0.0000000000000000e+00" cType="1" res="2.3703214537817985e-05" rms="4.7283878922462463e-01" purity="4.8265546560287476e-01" nType="-99"/>
          <Node pos="r" depth="2" NCoef="0" IVar="-1" Cut="0.0000000000000000e+00" cType="1" res="4.3797798571176827e-04" rms="3.6563813686370850e-01" purity="8.4087896347045898e-01" nType="-99"/>
        </Node>
        <Node pos="r" depth="1" NCoef="0" IVar="3" Cut="6.9523811340332031e+00" cType="1" res="-8.7734989821910858e-02" rms="4.3732327222824097e-01" purity="3.2467716932296753e-01" nType="0">
          <Node pos="l" depth="2" NCoef="0" IVar="-1" Cut="0.0000000000000000e+00" cType="1" res="-5.3603085689246655e-05" rms="4.9011442065238953e-01" purity="4.6280381083488464e-01" nType="-99"/>
          <Node pos="r" depth="2" NCoef="0" IVar="-1" Cut="0.0000000000000000e+00" cType="1" res="-7.3452794458717108e-04" rms="3.8374131917953491e-01" purity="2.1727448701858521e-01" nType="-99"/>
        </Node>
      </Node>
    </BinaryTree>
    <BinaryTree type="DecisionTree" boostWeight="1.0000000000000000e+00" itree="55">
      <Node pos="s" depth="0" NCoef="0" IVar="3" Cut="3.9047617912292480e+00" cType="1" res="6.0921575874090195e-02" rms="4.6066689491271973e-01" purity="5.1591455936431885e-01" nType="0">
        <Node pos="l" depth="1" NCoef="0" IVar="0" Cut="2.5077165603637695e+01" cType="1" res="2.4374496936798096e-01" rms="4.1909167170524597e-01" purity="7.3910790681838989e-01" nType="0">
          <Node pos="l" depth="2" NCoef="0" IVar="-1" Cut="0.0000000000000000e+00" cType="1" res="-8.0587877891957760e-04" rms="4.2184948921203613e-01" purity="2.6035225391387939e-01" nType="-99"/>
          <Node pos="r" depth="2" NCoef="0" IVar="-1" Cut="0.0000000000000000e+00" cType="1" res="4.7870032722130418e-04" rms="3.0945530533790588e-01" purity="8.9262223243713379e-01" nType="-99"/>
        </Node>
        <Node pos="r" depth="1" NCoef="0" IVar="2" Cut="1.4714285850524902e+01" cType="1" res="-5.1267135888338089e-02" rms="4.4895628094673157e-01" purity="3.7895303964614868e-01" nType="0">
          <Node pos="l" depth="2" NCoef="0" IVar="-1" Cut="0.0000000000000000e+00" cType="1" res="5.4127991461427882e-05" rms="4.8514026403427124e-01" purity="5.0615882873535156e-01" nType="-99"/>
          <Node pos="r" depth="2" NCoef="0" IVar="-1" Cut="0.0000000000000000e+00" cType="1" res="-1.2833941727876663e-03" rms="3.4236931800842285e-01" purity="1.6163212060928345e-01" nType="-99"/>
        </Node>
      </Node>
    </BinaryTree>
    <BinaryTree type="DecisionTree" boostWeight="1.0000000000000000e+00" itree="56">
      <Node pos="s" depth="0" NCoef="0" IVar="3" Cut="5.4285712242126465e+00" cType="1" res="7.3048382997512817e-02" rms="4.6186655759811401e-01" purity="5.2741008996963501e-01" nType="0">
        <Node pos="l" depth="1" NCoef="0" IVar="0" Cut="2.5077165603637695e+01" cType="1" res="1.7182402312755585e-01" rms="4.5444089174270630e-01" purity="6.6387373208999634e-01" nType="0">
          <Node pos="l" depth="2" NCoef="0" IVar="-1" Cut="0.0000000000000000e+00" cType="1" res="-1.6187200089916587e-03" rms="3.7448227405548096e-01" purity="1.8391612172126770e-01" nType="-99"/>
          <Node pos="r" depth="2" NCoef="0" IVar="-1" Cut="0.0000000000000000e+00" cType="1" res="4.4406918459571898e-04" rms="3.6476200819015503e-01" purity="8.4061938524246216e-01" nType="-99"/>
        </Node>
        <Node pos="r" depth="1" NCoef="0" IVar="2" Cut="1.6000000000000000e+01" cType="1" res="-9.2818439006805420e-02" rms="4.2526593804359436e-01" purity="2.9825663566589355e-01" nType="0">
          <Node pos="l" depth="2" NCoef="0" IVar="-1" Cut="0.0000000000000000e+00" cType="1" res="-7.2045426350086927e-05" rms="4.8242941498756409e-01" purity="4.4039392471313477e-01" nType="-99"/>
          <Node pos="r" depth="2" NCoef="0" IVar="-1" Cut="0.0000000000000000e+00" cType="1" res="-1.2804220896214247e-03" rms="3.4329590201377869e-01" purity="1.4989519119262695e-01" nType="-99"/>
        </Node>
      </Node>
    </BinaryTree>
    <BinaryTree type="DecisionTree" boostWeight="1.0000000000000000e+00" itree="57">
      <Node pos="s" depth="0" NCoef="0" IVar="3" Cut="4.8571429252624512e+00" cType="1" res="4.8201084136962891e-02" rms="4.6347299218177795e-01" purity="4.9896511435508728e-01" nType="0">
        <Node pos="l" depth="1" NCoef="0" IVar="0" Cut="2.2592475891113281e+01" cType="1" res="1.9589522480964661e-01" rms="4.4219490885734558e-01" purity="6.8863934278488159e-01" nType="0">
          <Node pos="l" depth="2" NCoef="0" IVar="-1" Cut="0.0000000000000000e+00" cType="1" res="-3.1508381944149733e-03" rms="3.0797848105430603e-01" purity="1.1362573504447937e-01" nType="-99"/>
          <Node pos="r" depth="2" NCoef="0" IVar="-1" Cut="0.0000000000000000e+00" cType="1" res="4.5542829320766032e-04" rms="3.4821546077728271e-01" purity="8.5854566097259521e-01" nType="-99"/>
        </Node>
        <Node pos="r" depth="1" NCoef="0" IVar="2" Cut="9.4761905670166016e+00" cType="1" res="-1.1074295639991760e-01" rms="4.3221247196197510e-01" purity="2.9484349489212036e-01" nType="0">
          <Node pos="l" depth="2" NCoef="0" IVar="-1" Cut="0.0000000000000000e+00" cType="1" res="8.3847698988392949e-05" rms="4.8915255069732666e-01" purity="5.2908658981323242e-01" nType="-99"/>
          <Node pos="r" depth="2" NCoef="0" IVar="-1" Cut="0.0000000000000000e+00" cType="1" res="-6.4722355455160141e-04" rms="4.1351678967475891e-01" purity="2.4832913279533386e-01" nType="-99"/>
        </Node>
      </Node>
    </BinaryTree>
    <BinaryTree type="DecisionTree" boostWeight="1.0000000000000000e+00" itree="58">
      <Node pos="s" depth="0" NCoef="0" IVar="3" Cut="4.8571429252624512e+00" cType="1" res="3.7507403641939163e-02" rms="4.6133872866630554e-01" purity="4.8911607265472412e-01" nType="0">
        <Node pos="l" depth="1" NCoef="0" IVar="0" Cut="3.0211889266967773e+01" cType="1" res="1.7752601206302643e-01" rms="4.4859290122985840e-01" purity="6.6963160037994385e-01" nType="0">
          <Node pos="l" depth="2" NCoef="0" IVar="-1" Cut="0.0000000000000000e+00" cType="1" res="-1.8289223953615874e-04" rms="4.6405896544456482e-01" purity="3.9795622229576111e-01" nType="-99"/>
          <Node pos="r" depth="2" NCoef="0" IVar="-1" Cut="0.0000000000000000e+00" cType="1" res="4.4877213076688349e-04" rms="3.5181164741516113e-01" purity="8.5518503189086914e-01" nType="-99"/>
        </Node>
        <Node pos="r" depth="1" NCoef="0" IVar="2" Cut="1.8428571701049805e+01" cType="1" res="-1.0066925734281540e-01" rms="4.3108999729156494e-01" purity="3.1097534298896790e-01" nType="0">
          <Node pos="l" depth="2" NCoef="0" IVar="-1" Cut="0.0000000000000000e+00" cType="1" res="-1.7694912094157189e-04" rms="4.7739896178245544e-01" purity="3.9922058582305908e-01" nType="-99"/>
          <Node pos="r" depth="2" NCoef="0" IVar="-1" Cut="0.0000000000000000e+00" cType="1" res="-5.3902408108115196e-03" rms="2.0684854686260223e-01" purity="4.6598821878433228e-02" nType="-99"/>
        </Node>
      </Node>
    </BinaryTree>
    <BinaryTree type="DecisionTree" boostWeight="1.0000000000000000e+00" itree="59">
      <Node pos="s" depth="0" NCoef="0" IVar="3" Cut="4.3809523582458496e+00" cType="1" res="4.0371127426624298e-02" rms="4.5969787240028381e-01" purity="4.9324679374694824e-01" nType="0">
        <Node pos="l" depth="1" NCoef="0" IVar="0" Cut="2.2592475891113281e+01" cType="1" res="1.9038447737693787e-01" rms="4.4342926144599915e-01" purity="6.8346011638641357e-01" nType="0">
          <Node pos="l" depth="2" NCoef="0" IVar="-1" Cut="0.0000000000000000e+00" cType="1" res="-2.6441223453730345e-03" rms="3.2399249076843262e-01" purity="1.2902499735355377e-01" nType="-99"/>
          <Node pos="r" depth="2" NCoef="0" IVar="-1" Cut="0.0000000000000000e+00" cType="1" res="4.4956119381822646e-04" rms="3.5349765419960022e-01" purity="8.5295009613037109e-01" nType="-99"/>
        </Node>
        <Node pos="r" depth="1" NCoef="0" IVar="3" Cut="6.9523811340332031e+00" cType="1" res="-1.1846015602350235e-01" rms="4.2169210314750671e-01" purity="2.9185259342193604e-01" nType="0">
          <Node pos="l" depth="2" NCoef="0" IVar="-1" Cut="0.0000000000000000e+00" cType="1" res="-9.4195122073870152e-05" rms="4.8820447921752930e-01" purity="4.4702756404876709e-01" nType="-99"/>
          <Node pos="r" depth="2" NCoef="0" IVar="-1" Cut="0.0000000000000000e+00" cType="1" res="-1.2563540367409587e-03" rms="3.4547412395477295e-01" purity="1.6633358597755432e-01" nType="-99"/>
        </Node>
      </Node>
    </BinaryTree>
    <BinaryTree type="DecisionTree" boostWeight="1.0000000000000000e+00" itree="60">
      <Node pos="s" depth="0" NCoef="0" IVar="3" Cut="4.3809523582458496e+00" cType="1" res="4.9114029854536057e-02" rms="4.6066236495971680e-01" purity="5.0094360113143921e-01" nType="0">
        <Node pos="l" depth="1" NCoef="0" IVar="0" Cut="2.9686845779418945e+01" cType="1" res="1.8649162352085114e-01" rms="4.4551357626914978e-01" purity="6.7818319797515869e-01" nType="0">
          <Node pos="l" depth="2" NCoef="0" IVar="-1" Cut="0.0000000000000000e+00" cType="1" res="-1.5562627231702209e-04" rms="4.6677061915397644e-01" purity="4.0429887175559998e-01" nType="-99"/>
          <Node pos="r" depth="2" NCoef="0" IVar="-1" Cut="0.0000000000000000e+00" cType="1" res="4.5145649346522987e-04" rms="3.4761768579483032e-01" purity="8.5928219556808472e-01" nType="-99"/>
        </Node>
        <Node pos="r" depth="1" NCoef="0" IVar="2" Cut="1.3761904716491699e+01" cType="1" res="-8.8773958384990692e-02" rms="4.3362712860107422e-01" purity="3.2304543256759644e-01" nType="0">
          <Node pos="l" depth="2" NCoef="0" IVar="-1" Cut="0.0000000000000000e+00" cType="1" res="9.9874914667452686e-06" rms="4.8882764577865601e-01" purity="4.8664250969886780e-01" nType="-99"/>
          <Node pos="r" depth="2" NCoef="0" IVar="-1" Cut="0.0000000000000000e+00" cType="1" res="-1.1876660864800215e-03" rms="3.5362800955772400e-01" purity="1.7077939212322235e-01" nType="-99"/>
        </Node>
      </Node>
    </BinaryTree>
    <BinaryTree type="DecisionTree" boostWeight="1.0000000000000000e+00" itree="61">
      <Node pos="s" depth="0" NCoef="0" IVar="3" Cut="3.9047617912292480e+00" cType="1" res="2.4830041453242302e-02" rms="4.6292272210121155e-01" purity="4.7261491417884827e-01" nType="0">
        <Node pos="l" depth="1" NCoef="0" IVar="0" Cut="1.8600997924804688e+01" cType="1" res="1.9811350107192993e-01" rms="4.4144490361213684e-01" purity="6.8966764211654663e-01" nType="0">
          <Node pos="l" depth="2" NCoef="0" IVar="-1" Cut="0.0000000000000000e+00" cType="1" res="-3.0875424854457378e-03" rms="3.1767350435256958e-01" purity="1.1358828097581863e-01" nType="-99"/>
          <Node pos="r" depth="2" NCoef="0" IVar="-1" Cut="0.0000000000000000e+00" cType="1" res="4.3951987754553556e-04" rms="3.6679869890213013e-01" purity="8.3738690614700317e-01" nType="-99"/>
        </Node>
        <Node pos="r" depth="1" NCoef="0" IVar="3" Cut="7.5238094329833984e+00" cType="1" res="-6.7861296236515045e-02" rms="4.4725152850151062e-01" purity="3.5651087760925293e-01" nType="0">
          <Node pos="l" depth="2" NCoef="0" IVar="-1" Cut="0.0000000000000000e+00" cType="1" res="-5.3973661124473438e-05" rms="4.8657467961311340e-01" purity="4.5898264646530151e-01" nType="-99"/>
          <Node pos="r" depth="2" NCoef="0" IVar="-1" Cut="0.0000000000000000e+00" cType="1" res="-1.3657695380970836e-03" rms="3.3203893899917603e-01" purity="1.4326967298984528e-01" nType="-99"/>
        </Node>
      </Node>
    </BinaryTree>
    <BinaryTree type="DecisionTree" boostWeight="1.0000000000000000e+00" itree="62">
      <Node pos="s" depth="0" NCoef="0" IVar="3" Cut="4.3809523582458496e+00" cType="1" res="6.0761347413063049e-02" rms="4.5924347639083862e-01" purity="5.1502728462219238e-01" nType="0">
        <Node pos="l" depth="1" NCoef="0" IVar="1" Cut="1.3180578231811523e+01" cType="1" res="2.0019842684268951e-01" rms="4.3882492184638977e-01" purity="6.9367480278015137e-01" nType="0">
          <Node pos="l" depth="2" NCoef="0" IVar="-1" Cut="0.0000000000000000e+00" cType="1" res="9.6575276984367520e-05" rms="4.6639972925186157e-01" purity="5.2111554145812988e-01" nType="-99"/>
          <Node pos="r" depth="2" NCoef="0" IVar="-1" Cut="0.0000000000000000e+00" cType="1" res="4.3538396130315959e-04" rms="3.7172526121139526e-01" purity="8.3131295442581177e-01" nType="-99"/>
        </Node>
        <Node pos="r" depth="1" NCoef="0" IVar="2" Cut="1.3761904716491699e+01" cType="1" res="-8.4526248276233673e-02" rms="4.3433201313018799e-01" purity="3.2888406515121460e-01" nType="0">
          <Node pos="l" depth="2" NCoef="0" IVar="-1" Cut="0.0000000000000000e+00" cType="1" res="4.6529741666745394e-05" rms="4.8986208438873291e-01" purity="5.0286614894866943e-01" nType="-99"/>
          <Node pos="r" depth="2" NCoef="0" IVar="-1" Cut="0.0000000000000000e+00" cType="1" res="-1.3430204708129168e-03" rms="3.4199523925781250e-01" purity="1.5881267189979553e-01" nType="-99"/>
        </Node>
      </Node>
    </BinaryTree>
    <BinaryTree type="DecisionTree" boostWeight="1.0000000000000000e+00" itree="63">
      <Node pos="s" depth="0" NCoef="0" IVar="3" Cut="5.2857141494750977e+00" cType="1" res="4.4278189539909363e-02" rms="4.6172803640365601e-01" purity="4.9412038922309875e-01" nType="0">
